capital,0,1,2,3,4,5,6,7,8,9,10,11,12,13,14,15,16,17,18,19,20,21,22,23,24,25,26,27,28,29,30,31,32,33,34,35,36,37,38,39,40,41,42,43,44,45,46,47,48,49,50,51,52,53,54,55,56,57,58,59,60,61,62,63,64,65,66,67,68,69,70,71,72,73,74,75,76,77,78,79,80,81,82,83,84,85,86,87,88,89,90,91,92,93,94,95,96,97,98,99,100,101,102,103,104,105,106,107,108,109,110,111,112,113,114,115,116,117,118,119,120,121,122,123,124,125,126,127,128,129,130,131,132,133,134,135,136,137,138,139,140,141,142,143,144,145,146,147,148,149,150,151,152,153,154,155,156,157,158,159,160,161,162,163,164,165,166,167,168,169,170,171,172,173,174,175,176,177,178,179,180,181,182,183,184,185,186,187,188,189,190,191,192,193,194,195,196,197,198,199,200,201,202,203,204,205,206,207,208,209,210,211,212,213,214,215,216,217,218,219,220,221,222,223,224,225,226,227,228,229,230,231,232,233,234,235,236,237,238,239,240,241,242,243,244,245,246,247,248,249,250,251,252,253,254,255,256,257,258,259,260,261,262,263,264,265,266,267,268,269,270,271,272,273,274,275,276,277,278,279,280,281,282,283,284,285,286,287,288,289,290,291,292,293,294,295,296,297,298,299,300,301,302,303,304,305,306,307,308,309,310,311,312,313,314,315,316,317,318,319,320,321,322,323,324,325,326,327,328,329,330,331,332,333,334,335,336,337,338,339,340,341,342,343,344,345,346,347,348,349,350,351,352,353,354,355,356,357,358,359,360,361,362,363,364,365,366,367,368,369,370,371,372,373,374,375,376,377,378,379,380,381,382,383,384,385,386,387,388,389,390,391,392,393,394,395,396,397,398,399,400,401,402,403,404,405,406,407,408,409,410,411,412,413,414,415,416,417,418,419,420,421,422,423,424,425,426,427,428,429,430,431,432,433,434,435,436,437,438,439,440,441,442,443,444,445,446,447,448,449,450,451,452,453,454,455,456,457,458,459,460,461,462,463,464,465,466,467,468,469,470,471,472,473,474,475,476,477,478,479,480,481,482,483,484,485,486,487,488,489,490,491,492,493,494,495,496,497,498,499,500,501,502,503,504,505,506,507,508,509,510,511
Aguascalientes,0.0046314457,0.024950897,-0.016663633,-0.032813802,0.015333346,0.0023877588,0.019602578,-0.008930294,-0.0054153576,-0.0022309492,-0.006266093,0.020379882,-0.0014077058,-0.02726234,-0.0065140445,0.006251878,0.024495382,-0.0014654305,-7.4483454e-05,0.011011936,0.006517671,-0.001499177,0.0050380696,-0.013929838,-0.008738102,-0.013128311,0.008017916,0.00564065,0.005677213,0.01921596,0.009196314,0.015910638,0.016815139,-0.004259553,-0.01707061,-0.00017897226,-0.014826867,0.01233831,0.016887896,-0.029069513,-0.035123836,0.006448617,0.0045588613,0.014324915,-0.013609871,-0.011767068,-0.00050390884,0.003349144,-0.016164374,0.012488941,0.0006701378,-0.00045166817,0.016626038,0.013051656,-0.00083965994,-0.011507599,0.003997395,-0.0016228547,-0.011488381,0.0013275091,-0.030172803,-0.00094359554,0.017946772,-0.009799477,0.0028740074,-0.0043769777,-0.0143682845,-0.007802411,0.008808666,0.017599758,0.0105739385,0.0043042367,0.011907392,0.023946341,-0.036989965,-0.020905487,-0.008694692,-0.0071763815,0.00044242293,0.02703236,-0.017886687,0.010683481,-0.0051007066,0.007902522,0.005856339,0.00669685,0.018593801,0.00956357,0.018040434,0.0016250238,0.005758063,-0.013006124,0.008961133,0.0070402585,0.005077631,0.0010780767,-0.024214758,-0.013060333,-0.011825458,0.002043257,-0.02418345,-0.024241772,-0.010082059,0.010653796,-0.0025562756,0.024794007,0.008840973,0.022727236,0.019438153,-0.0033449596,0.006954955,0.0077840756,0.013419221,-0.0061733434,0.010743169,0.00946548,-0.011269772,-0.01835576,-0.012436151,0.025400307,0.0044702,-0.0012970194,0.0135806585,0.0016581602,-0.012947239,0.02720302,-0.0076515153,-0.011446621,0.024251673,0.015660118,0.009255012,0.006112759,-0.012668936,0.0053249337,0.0025897063,-0.008565707,0.015074889,0.0121495435,0.0070927106,-0.016453221,-0.007025266,-0.00662559,-0.002357738,0.0097464565,-0.0060666874,-0.0008788314,0.003645271,0.019074073,-0.0070623867,-3.3862889e-06,-0.012578908,-0.006680943,-0.017253995,0.013158936,-0.011004673,0.017383056,-0.011723323,0.0070656524,-0.0173866,-0.006304479,0.009086365,0.015666077,-0.006124748,-0.0149362385,-0.011545362,0.0036378652,0.025699627,-0.011117114,0.0097094895,-0.005029855,-0.015100464,-0.021821383,-0.000390755,0.0027369838,0.0170357,0.008440877,-0.002672907,-0.008625194,-0.025853692,-0.01378914,-0.0008420432,0.0126286745,0.007557947,-0.0012108306,-0.023224194,-0.0069978894,0.0016862769,-0.004097203,0.008602701,0.00022389367,0.022711534,-0.005144571,-0.029854264,0.022104295,0.019490732,-0.0050695604,0.001775654,0.023827355,-0.0033574789,0.0010508979,-0.0040577445,-0.020617101,0.007965378,-0.00750025,0.027061744,0.026246792,0.007301553,-0.0014627315,-0.008507738,-0.009047503,0.017731354,-0.02237433,0.00410376,0.0033385307,0.00972807,0.01580271,0.011890384,-0.003074251,0.003449696,-0.014949853,-0.014060041,0.03224158,-0.00736467,-0.013871187,-0.009036014,-0.011099352,-0.0033938922,-0.001012221,0.020465417,-0.002978377,-0.00810224,0.012027828,0.030280985,0.008596656,-0.00013770722,0.0030781068,-0.0059752977,-0.016283931,-0.010503441,0.0071310257,-0.0055599087,-0.006115912,0.0040969644,0.006316591,-0.008087661,0.0026055928,-0.008224694,-0.013256343,-0.003132429,0.021564174,-0.012593631,-0.009809405,-0.015257077,-0.006493885,0.01152217,-0.012892563,0.0076996945,0.0074492283,0.009674629,-0.006229135,0.0011596372,-0.0108357705,0.010415134,-0.027593344,0.006799152,-0.0074907467,-0.005177481,-0.01811255,-0.0019328371,0.008828604,-0.019288277,0.019333469,-0.024174858,0.009123854,0.016920505,-0.020855788,-0.0037622787,-0.008708535,0.0006268881,0.025677206,0.0033394136,-0.0065053385,-0.008710602,0.0021789582,-0.003207609,-0.0018685125,0.0054118894,-0.005457788,0.0071889544,0.012890333,0.0032013154,-0.025660526,0.02033601,-0.0021708794,0.0047781058,0.0013218424,0.026008293,0.0020078383,0.019963596,-0.008787438,0.009439411,0.0125275105,0.008437839,-0.008964401,0.0046391767,-0.020672143,-0.0019403035,-0.003361551,-0.019352121,-0.015487397,-0.0029404238,0.011695527,0.0045019845,0.018806381,0.0070151407,0.017085416,0.033098344,-0.008986168,-0.006972107,-0.02562686,0.006899295,-0.007679534,-0.0070030177,-0.0009437008,-0.011662522,0.0005909563,-0.00681095,0.0036910567,-0.0014413316,-0.005889304,0.0010544565,-0.003997857,0.0019193292,-0.005799068,-0.021661367,0.011764333,-0.0039313445,-0.016364403,0.0016965657,0.012413496,0.0012371745,-0.0102315005,0.010397019,-0.0077307355,-0.008485425,-0.0053392593,0.02001558,-0.007788784,0.016286511,-0.006173685,-0.0072206687,0.012725689,0.0019227713,0.010559991,0.0063547157,-0.020065568,0.007258952,-0.01927501,-0.019214625,-0.004238073,0.010059374,0.012981046,-0.00451963,-0.002533948,-0.0104263,0.017060343,-0.005297883,0.0021545375,0.015402315,0.023333214,0.0055905487,0.0067145787,-0.0080229025,0.023400623,0.008970339,-0.004581146,0.005678272,0.0067033432,-0.008837081,0.00038040522,-0.033048008,-0.00356929,0.010664411,0.006826695,-0.011572411,-0.00897107,-0.012766687,-0.0044294596,-0.030881729,-0.02826493,-0.0010246756,0.008076228,-0.008828308,-0.013366567,-0.009872654,0.0076792957,7.785857e-06,-0.022498451,-0.012938822,0.005482716,0.0030720774,0.0040419977,0.010352878,0.020239208,-0.0061778408,0.016897857,0.015664015,0.0036434012,0.00054755807,0.004534314,-0.012755317,0.014520306,-0.021870408,0.015963692,-0.005800546,0.010052282,-0.023065887,0.0020378903,0.0060496796,0.001544673,-0.0061658304,-0.0055640386,0.021970276,-0.0037172344,0.0047613205,0.011074878,0.011471091,-0.014142713,0.012236138,0.0038923537,-0.011853481,-0.008374212,0.016018864,-0.0020567775,-0.013472648,0.0020082926,-0.0062072156,0.0024503954,-0.0039272476,0.006881126,0.015152192,0.022789456,-0.016632313,0.019381952,-0.009360753,0.007537123,0.0023475182,-0.0042727087,0.0015381463,-0.008265575,0.0064673945,0.009110505,0.01831339,0.0032967094,-0.010226521,0.012086796,-0.008466156,0.021524634,-2.0610169e-06,0.008330077,-0.0024511088,-0.00041013956,0.0051563904,0.007339038,0.0016982732,0.006368992,-0.008083262,-0.018236376,-0.0052830502,0.007005764,0.003938522,0.007543238,0.010510026,0.015025355,0.0054065585,0.008019487,0.012036882,-0.0056789853,-0.021351868,-0.016375676,0.00057807006,0.007413007,-0.019574549,-0.013828823,0.01644649,-0.0051503265,9.807199e-05,0.013827547,0.0037753703,-0.008599313,0.013417937,-0.0153794475,0.019432815,-0.0074553094,0.001507977,-0.005002481,-0.011515248,0.020620856,0.008027838,-0.01497443,-0.0006446587,-0.008349294,0.008283135,0.017652985,0.011234803,0.011694579,-0.016284138,0.017220141,0.0017130794,0.011868671,0.0051562507,-0.016708575
Mexicali,0.01906532,0.012361961,8.253381e-05,-0.024630915,0.0024358805,-0.0023911907,0.00919277,-0.0085242195,0.0024969932,-0.014806843,-0.010874157,-0.0028190874,-0.0038365591,-0.02584249,-0.01058401,-0.009706128,0.005532925,-0.014668836,-0.0033609094,7.3947012e-06,0.019151043,0.0030082576,0.012878748,-0.010176771,0.00015615579,-0.010537298,0.006096511,0.017433375,-0.017595297,-0.010553,0.0041374583,-0.017268639,0.0085058985,0.00388403,-0.0005195141,-0.012713927,0.023222998,-0.012616202,-0.0124638975,-0.022758204,-0.021687696,0.0030951314,-0.005672605,-0.019705072,0.007421921,0.014063927,-0.00057962537,0.011393642,0.0049786177,0.024844486,0.0045883283,-0.010785147,-0.00366956,0.027229894,-0.028437754,0.03040282,0.00014510006,-0.0029227566,-0.006580825,0.003140021,-0.005952354,-0.015528143,-0.012112402,-0.003052231,-0.0009720335,-0.013173686,-0.027591841,0.04156269,0.008227194,0.00012749666,0.0035567055,0.0006485954,-0.0011879029,-0.000119325705,0.012762491,-0.013362151,0.008711431,0.0055562314,0.016686097,0.0067002606,0.01047773,0.0048567466,-0.0085591385,0.00615354,0.015739884,0.008082442,0.0015464406,-0.021890402,0.014766823,-0.01656408,0.0106004365,-0.005296994,-0.0082263695,0.004415117,0.00067435624,0.00033754902,-0.010240858,-0.00087092817,-0.011955049,0.0102343885,-0.010103906,-0.02873548,0.012891086,-0.0016770102,-0.0013117008,0.00081455335,0.013611188,0.02485126,0.03180913,0.0012320196,0.006027759,0.021708068,-0.0014298595,0.00524631,-0.011257416,-0.0010905107,-0.020408047,-0.013635438,-0.012154002,0.019402511,0.0047795386,0.009273426,0.012258196,-0.006754555,0.008788614,0.013221966,0.031675477,0.005732524,0.0078222,0.0018382962,0.0022658482,0.007286436,0.005415367,0.002926887,-0.016629599,0.015409178,0.019986546,0.022442564,0.015212115,-0.01770435,-0.0002734221,-0.0059381276,0.01274606,-0.0032082887,0.0051622484,0.005812278,-0.028126553,0.019861002,-0.019796247,-0.0035900325,-0.0015891432,-0.004674808,-0.0040686317,-0.0046982802,-0.0069846557,0.0052701505,0.0147978775,-0.011625661,0.003973306,-0.014079839,-0.008852083,-0.0005826561,-0.0055301506,0.007862828,-0.002825453,0.0049668923,0.013219466,-0.007340136,0.015303699,-0.02026826,-0.027034104,-0.020255161,-0.010298875,-0.018870417,0.014807116,-0.015394887,0.012809912,-0.017230248,-0.0055209976,-0.011916802,0.007613137,0.009060216,0.006886497,0.0015540067,0.002425924,-0.013135958,-0.0016649598,0.004458811,-0.021143954,0.015064251,-0.0034598056,-0.004741288,-0.0070775133,0.007517019,0.002201531,-0.0062065725,0.01566738,-0.0014795489,0.024812378,-0.02462963,0.022814833,-0.0028886795,-0.004568126,-0.02123461,-0.0024210587,0.012176387,0.019514874,-0.0029541515,0.011952305,-0.010308815,0.016375475,-0.013564583,0.008669827,-0.016889915,-0.005395787,0.0022619567,0.017161012,0.004212683,0.004267881,-0.009350732,-0.021220388,0.007058086,-0.014320856,-0.011166181,-0.005789714,-0.002698413,0.00791563,0.011887979,-0.00062841387,0.0151397735,-0.021713555,-0.0072458778,0.022343408,-5.0459057e-06,0.015805328,0.020380402,0.005105557,-0.021755945,0.013402259,0.0071505196,-0.02479833,-0.03992483,0.009213596,0.009459823,0.011700673,0.017323386,0.00666121,0.0051730983,-0.0033995528,0.0017902153,0.010521397,0.017251668,-0.0064857476,-0.007207295,-0.00014743954,-0.020139102,0.0044812597,0.0064165676,-0.006062271,0.0036963467,-0.004055865,-0.002754612,-0.016118646,0.005100701,-0.015338425,-0.011112205,0.0060748355,-0.010925961,0.005301888,0.013647934,0.0019579018,0.015560944,0.00855637,-0.005466923,0.006898474,0.0112648215,-0.017786056,-0.008795511,-0.008236373,0.010936051,-0.012805348,0.007106984,-0.015877154,-0.0075443094,-0.013828865,-0.008154366,-0.012447808,0.016528584,0.010710789,-0.01604595,0.024568506,-0.01343401,-0.0063437405,-0.004495591,0.009007953,-0.0099546695,-0.0015419554,-0.0047555696,0.026493218,-0.0039401595,-0.025143145,0.0009869076,0.004779689,0.0049976204,-0.0055715875,-0.004391118,0.0071158665,0.0038094372,-0.010280419,0.009762376,0.0045680776,0.0024140012,-0.013670353,0.020467144,0.0071525252,0.0031054872,-0.006676606,0.003868963,0.002733158,0.00040691067,-0.010499489,-0.0070592803,-0.0015423354,0.015523078,0.0071515637,0.008629866,0.0045536663,0.016514912,-0.023825465,-0.014469541,0.0071328394,0.0009629419,-0.006411502,-0.0048455177,0.018965915,-0.0005016718,-5.672872e-05,-0.020825252,0.033347502,0.0018332871,-0.0025513787,0.00019844808,0.0006962968,-0.012970971,-0.005536001,0.009019585,0.014146233,0.02077065,0.00414781,0.00032027345,-0.0058108084,0.012451844,0.0016943906,0.0079951715,-0.0058626775,-0.0029525259,0.025297886,-0.007501594,0.00904999,-0.008187226,0.0045413077,-0.028478019,-0.0041410504,-0.033971004,-0.0058217305,-0.016433954,-0.0052419864,-0.028005444,0.0087074125,0.008999303,0.0028340984,-0.013861725,-0.0034973943,0.0027783522,0.0015161652,-0.0024857614,-0.0130026685,-0.0027662832,-0.01704231,0.004984474,-0.017941028,-0.0075226277,-0.020126436,-0.002179293,-0.02225412,-0.006562559,0.0250259,-0.0094823195,-0.019889437,-0.031181077,-0.005371509,-0.010067445,-0.017260492,-0.006766375,-0.006934192,0.025682425,0.024173643,-0.00897517,-1.212582e-05,-0.005637569,-0.00090762135,-0.0026366655,0.0054717194,-0.00074616633,-0.02050106,-2.7503818e-05,0.02746047,-0.0032206117,-0.0014289599,0.00041324482,0.0020295049,0.001357099,-0.0002934318,-0.0053795017,0.006666732,-0.007636545,0.004248065,-0.0007273331,-0.016307615,-0.019581849,0.0012432737,0.008687801,0.009811965,-0.008744825,0.014216506,-0.0019043256,0.017355314,-0.01040991,0.021519182,-0.0042232615,0.0063026473,-0.0044899145,-0.008378711,0.005917064,0.020596666,0.012053952,0.020669915,0.001256492,-0.011328317,0.011911118,0.015402319,0.010166636,-0.019645074,0.007831169,0.0056582037,-0.01351464,0.008168441,-0.02346878,-0.010732328,0.0071597705,0.018793587,0.02358328,0.015103022,-0.0076552466,-0.0027881772,0.0042053675,0.01205165,-0.0027275383,0.008640289,0.009978998,-0.016048677,0.01635245,-0.017960738,0.009137748,-0.010562424,0.0105035,0.007975583,-0.011476936,-0.002095994,0.008157112,-0.009092366,-0.0036097243,-0.003058252,0.0066398475,-0.023789786,0.00415652,0.027176838,0.008158809,0.015162072,0.0015704744,0.009428989,0.0018655164,0.007679943,-0.016397126,0.018550752,-0.021077907,0.015689876,0.0135271605,-0.006511803,0.0038877595,-0.009789928,-0.04008708,0.040478617,-0.0058435583,-0.00081241596,-0.0016772267,0.0015308345,0.0065656845,-0.015126852,0.004315502,0.010080019,0.010412093,-0.010300396,0.025315601,5.4055825e-05,0.0059647383,-0.0073106894,-0.006426732,0.026409173,-0.01952229,-0.015648872,0.00553068
La Paz,-0.011422206,-0.010340804,0.0033297837,-0.028519038,0.008998351,-0.00044634845,0.029392697,0.02769744,0.021135796,-0.009413567,0.009653607,0.036658507,-0.017176034,-0.024132755,-0.0033204462,0.015814193,-0.010341201,0.01951051,0.009826113,0.00737804,0.021469519,-0.010693599,-0.000808252,-0.020798137,0.008474233,0.011811305,-0.0034408886,0.007811554,-0.02152526,0.0039607827,0.012319449,0.008077845,0.043580893,0.009904099,0.013874109,0.00782091,0.0028865235,0.0019100066,-0.008919513,-0.022140313,-0.0044197515,0.025354225,-0.006293509,0.002032701,-0.019239735,-0.010116216,-0.0016927198,0.022244006,-0.0119993165,-0.032150865,0.014393136,-0.011320662,-0.018910807,0.013989237,-0.009166066,-0.00019514002,0.014287055,-0.018325942,-0.0062193153,-0.014979599,-0.005657863,-0.02265111,0.021021586,-0.0071751224,0.01888492,-0.0071000755,-0.015393612,0.014232456,0.020761235,0.016498301,-0.022761062,0.01400722,0.011837922,-0.00023052935,-0.023158614,-0.01206418,0.0026196968,-0.0077552116,-0.0214045,0.02072767,0.025712043,-0.007010959,-0.0015922971,-0.0068507493,-0.015921101,0.0045254044,0.02810485,-0.023259785,0.021557936,-0.0080188885,0.0001837071,0.0014786809,0.013374134,-0.009372242,0.0038358076,-0.0028147856,-0.0094573265,-0.038588215,-0.01484287,-0.0001550354,-0.0016287044,-0.017906437,0.0024363752,0.012306496,-0.004929712,-0.0012886953,0.011913568,0.031127913,0.03063186,-0.016362734,0.00039665774,0.009245584,-0.001864789,0.008192793,0.011511716,-0.011504044,-0.019517392,-0.019789997,-0.012783139,-0.006817268,-0.023366407,0.011712462,-0.00029554358,-0.0030257907,-0.0074339006,0.009307453,0.015877072,0.003479491,0.027272236,0.021113563,-0.025056386,-0.002535399,0.0055695735,0.0059213927,0.024498032,0.023507815,0.0149162365,0.02739081,-0.0019386336,-0.011439031,-0.014086829,0.0009478368,0.030266581,0.015130716,-0.012887122,0.0011488441,0.008975212,0.0196558,-0.017951429,-0.004409902,0.003147163,0.0071268817,0.00017617457,-0.0049488293,-0.010123915,-0.012069848,0.025549114,-0.0030130101,0.0018583089,-0.051722873,0.0036543682,-0.0057775313,-0.0029536132,0.008744554,-0.010492961,-0.0021356717,0.0119412225,0.011816681,-0.009449586,0.007963291,-0.025823392,-0.028800266,-0.008820975,-0.00025316142,0.029123165,0.024345139,-0.0047401106,0.003128796,-0.015740512,-0.018029923,-0.0030772174,0.014038472,0.012366938,-0.0049371715,-0.027330425,0.016591202,-0.00352934,0.012321615,-0.0063783135,0.009245981,0.0076254774,0.010655852,-0.010979313,0.01146074,0.008870883,-0.0014909809,-0.027084006,0.018330611,0.011620841,-0.010966668,0.024834896,-0.009019451,0.016339587,0.0022378191,0.0007902533,0.046007127,0.007354796,-0.006313539,0.004773409,0.0173344,0.01869201,0.000784155,0.010602666,-0.0024758282,0.0070979595,-0.0065628905,0.0305602,-0.018576175,0.007205683,0.004035212,-0.024825962,0.012380712,-0.020301748,-0.006298119,-0.0070821,0.0014395019,0.015933238,0.0073487163,-0.006879842,0.010171488,0.0114941,0.0043132845,0.033060703,-0.005044721,-0.0055020005,0.0003228141,-0.012425002,-0.024055064,0.003180584,-0.016919259,-0.0026674718,0.006170216,-0.0027422272,0.010908722,-0.02157898,0.009387942,-0.009612439,0.037703946,-0.014146013,0.0021368852,-0.024899894,0.021423997,-0.03642118,-0.027704004,0.013757704,-0.0010117765,-0.012646204,0.008970344,0.016337346,-0.009211728,0.013216753,-0.0014893394,-0.010644186,-0.021719407,0.0027302522,-0.038844198,0.005334539,0.004622098,0.016140988,0.014084965,-0.017392525,0.004869538,-0.012813536,-0.007913614,0.03910834,0.009220977,-0.029178953,-0.0136051625,-0.023290291,0.022257777,-5.2478164e-05,-0.0036079078,-0.0075029526,0.002112111,0.018218163,0.0017077494,0.0033976808,0.032647476,-0.031071365,0.00502342,-0.007046423,-0.032039292,0.0109049445,0.0052972883,-0.017668642,-0.014306637,0.0062569557,-0.012283415,0.0054342514,-0.014179951,-0.010948459,0.012462586,0.010366525,-0.00026234798,0.0037642745,-0.025294084,0.004914889,-0.0011018701,-0.0035351552,0.0008925623,-0.0119346315,-0.00027198903,0.00574013,0.010684334,0.010953131,-0.00071066525,0.0022419775,-0.003412129,-0.00071784575,-0.034935057,0.020908594,-0.012503511,-0.02062697,-0.011263445,-0.00070054457,0.034096006,-0.020666445,0.011837564,0.01678015,-0.023741096,0.0030981153,0.019441504,0.0018244684,0.017215833,0.0028410722,0.024870057,0.006876612,0.014634812,0.01477614,-0.008398915,-0.015391711,0.013121047,0.021040969,-0.03306231,-0.033092275,0.008179968,0.012879666,0.017059945,0.019710151,-0.006889889,-0.029775035,0.00248852,0.005841148,0.021288387,-0.00022842363,-0.029518861,0.007972926,-0.02455884,-0.014634003,-0.013331998,0.002404755,-0.036772963,-0.00033666939,-0.01340086,-0.015926048,0.0037344769,-0.009659881,-0.0024399161,0.03869935,0.023572091,-0.0071338024,-0.018084666,-0.018589515,-0.0077313483,-0.03320583,-0.0038942657,-0.008607436,-0.011424029,-0.0020644292,0.009978278,-0.024636865,-0.009214215,-0.019998454,-0.0067717265,0.017703727,-0.010285569,-0.00027686637,-0.0106392,-0.020888701,-0.019927315,0.0031063175,-0.01799274,0.010346819,-0.019206662,0.0031678183,0.01184437,-0.00713005,0.022306805,0.0059700403,0.013784744,0.0055377823,-0.008333359,-0.00017724745,0.008097626,-0.006839676,0.002028484,0.027564418,-0.015327113,0.028201088,0.011234529,-0.00046962127,0.004579723,0.018435692,0.00066441484,0.009823029,-0.03524163,-0.022334868,0.0075755958,0.009302805,0.0043581165,-0.02739799,-0.0061819367,-0.011573372,-0.018244753,0.012612639,-0.0014485233,0.027097652,-0.0034982776,-0.0023442311,0.016391607,0.0057678446,-0.0130645055,-0.0018457714,0.01602842,-0.006069761,-0.0032187272,-0.0047489963,-0.006071884,-0.00526944,-0.0032727197,0.012363035,-0.0007245578,0.009479729,-0.009840788,-0.025576705,0.012288473,0.0069701234,-0.011367209,0.008552759,-0.0014949962,-0.01959042,-0.020719558,0.020634757,-0.0023643859,-0.02951419,0.021317275,0.0038196282,0.027395468,0.018161636,-0.01485629,-0.030300837,0.005793648,-0.008799573,-0.00015070662,0.013117183,-0.0005200673,-0.0032139868,-0.012698222,0.0051123444,0.0012583472,0.0215194,-0.017818766,0.0024474617,0.0068895975,0.0013030283,0.021167414,-0.0122229615,-0.014389891,-0.027999276,0.011504605,0.007484599,5.6281686e-05,0.0017562322,-0.028851252,0.0018106028,-0.027063712,0.025245674,0.0020900955,0.020028815,0.0019367039,-0.0009719441,-0.020474866,-0.0056421785,-0.0045338087,0.007377171,-0.022397716,0.00092000235,0.017063882,-0.007427167,-0.0267947,0.006507405,0.01104385,0.034762964,-0.012845671,0.019807756,0.001987977,-0.0027319305,0.00012856163,0.0045462176,-0.008421622,-0.0013248939,-0.0057579977
San Francisco de Campeche,-0.014973045,-0.011238505,-0.0099250255,-0.03116697,-0.005174918,-0.0055721533,0.019558117,0.006006644,0.007626077,-0.00014203368,0.0008536717,0.020542935,0.011685645,-0.028604552,-0.016230829,0.005902404,-0.009668695,0.002592966,-0.026479172,-0.022815902,-0.005798543,-0.008366801,0.00258384,-0.010334761,0.00070234016,0.0106785605,0.011030482,-0.0002580844,0.014823645,-0.010007624,0.009459773,0.019330133,0.0014760802,0.0020149185,0.0030836016,0.009595276,-0.005588525,-0.001648346,-0.0034592655,0.0072812345,-0.03160495,0.009832092,0.036174268,0.0076791234,-0.0043729767,-0.04398501,-0.009083775,0.008564666,-0.025332538,-0.01581139,0.00372345,0.011984954,-0.005922444,-0.01462332,0.0005908869,-0.004700288,0.015543958,-0.0118921865,0.004201803,0.007191006,-0.0034996662,-0.013940342,0.019822221,-0.022609074,-0.021286212,-0.030144071,0.010792833,0.000979248,-0.009951178,0.012997762,0.004534838,-0.0046250084,0.0024941762,0.019977547,-0.03421549,-0.0066058803,-0.0013891738,-0.004539554,0.0082860235,0.0215182,-0.017256765,-0.02790598,0.0051854635,0.014673218,0.007422434,-0.005001817,0.026356798,0.008473346,0.008010168,0.0066796653,0.005008203,-0.009197662,0.005645089,-0.00971565,-0.010437551,-0.008228862,-0.010491285,-0.028402813,-0.033296764,-0.013582677,-0.0039484,-0.00736956,-0.005326111,-0.004533886,8.221716e-06,0.0057059266,-0.0010655336,0.0086475415,0.015586283,0.011654494,-0.016491983,0.024172476,0.014914721,-0.01790062,-0.005490653,-0.01849809,-0.006694124,-0.033761263,-0.012487074,0.008333461,-0.008366589,-0.0019708043,0.028002076,0.01108504,-0.006185062,0.012438225,0.0015061419,-0.0086494,0.00073795486,0.015722174,-0.0068375636,-0.015195876,-0.0047165034,-0.008694109,0.0048345327,0.023497488,0.03641863,0.020122482,0.013924329,-0.0058450904,0.006228794,-0.022074984,0.0057869693,0.022264153,-0.008529999,0.0020385291,0.026242072,0.0022236602,-0.0023762854,0.01135678,-0.0038666753,-0.008325562,0.003787823,0.0016566617,0.0113032935,0.03477467,-0.002452725,-0.02423751,-0.0041052015,-0.0046450174,-0.0010974742,0.019960528,-0.010271895,0.006096082,-0.023399461,0.007990963,0.009741094,0.013368873,-0.018594932,0.010149529,-0.011105422,-0.029481102,0.021711137,0.03086963,0.0005379915,0.021976912,0.0071991393,-0.0002490622,-0.023203526,-0.021842636,-0.013162793,0.007116474,-0.009805787,0.00247294,-0.007375626,0.0075708674,0.012635594,-0.0077380147,-0.0031668618,-0.0059883976,0.012557069,0.010233536,-0.03614176,0.024145963,0.019582761,0.0071337908,-0.0038174102,-0.031568363,-0.0032792212,-0.004086053,-0.012608256,-0.0004336862,0.0014932528,-0.016432527,0.012439575,0.021440433,0.012063254,0.02002186,0.015053604,0.000908263,-0.009401224,-0.0034419633,-0.0127364965,-0.015140701,-0.01245933,-2.854783e-05,-0.008930797,-0.035574663,-0.0070419544,-0.009349313,-0.01490278,-0.002069029,-0.00566704,0.0069456752,0.0063063744,-0.018694371,-0.013850996,-0.00037932396,-0.0013636239,-0.016657649,0.0017667692,0.0058070775,0.016247647,-0.008963761,-0.006403027,-0.008746661,0.00044074468,-0.002079308,-0.004554674,-0.008373133,0.0011190195,-0.008386665,0.03205084,0.0064119,-0.009224402,-0.0020390246,-0.0024346607,0.018647939,-0.014802028,0.023266647,0.0011790637,0.0114766555,-0.031167263,-0.0028763488,0.014603538,-0.0039944444,-0.029816316,0.009045254,-0.00663558,0.003158316,0.007684053,-0.010081579,0.00054876227,-0.019902714,0.0016728975,-0.016850812,0.0030924547,0.0010736152,0.012058498,-0.0053197313,-0.010455839,0.009228362,-0.012578899,-0.00802897,0.017624035,-0.011716609,-0.032091346,0.00037783198,0.0017814357,-0.0053034257,0.009991439,-0.015533965,-0.023382543,0.006452102,-0.007962003,0.010458746,0.0014949795,-0.019305475,-0.01742294,0.03176773,0.03313388,-0.03510474,0.004263837,-0.006764408,-0.0030338708,-0.017738897,0.009054951,-0.016930727,0.01869374,0.008358419,0.015920362,0.015931893,-0.008073172,-0.0033670142,-0.010649167,-0.016129842,-0.02068245,-0.0050978884,-0.0118160965,0.0020134756,0.004843343,-0.008703554,0.011315928,0.009955175,0.009665886,0.003420336,0.0135152815,0.008729322,0.024986053,-0.027424254,0.009786701,0.0029799817,0.014439633,0.003674224,0.0021495703,0.022496838,-0.02256643,-0.01227152,-0.014164744,0.0149942795,-0.021883149,0.003754167,-0.005041316,-0.009307085,0.008835513,0.00421679,-0.004879402,-0.0023254682,0.010231987,0.0015603602,0.0005765129,-0.0033973716,0.003958421,-0.002946877,0.021066712,-0.0030414052,0.031002358,0.021644374,0.008817626,-0.017041463,-0.03380804,0.004234401,0.013983745,-0.0006665811,0.015022531,0.0131937675,0.012123979,-0.029385852,-0.0009208713,0.017939918,0.0091074975,-0.0058745285,0.0022311108,-0.0070820586,0.010213639,0.014345276,-0.0020955885,-0.008155505,0.013624344,-0.0038117073,-0.010748407,-0.0012853127,0.004482148,-0.021717073,-0.003409233,0.010358856,0.0012016171,-0.012540456,-0.022670507,0.014533207,-0.021740885,0.003184395,-0.024997555,0.0100471545,0.005664712,-0.035322227,-0.018781602,-0.0040736143,0.0057890248,-0.012968267,0.0006957287,-0.012546424,-0.012945652,-0.013622779,0.015337544,-0.0150995515,0.027402516,0.0004612892,-0.003628837,-0.029834919,0.023232711,-0.012314591,0.013758162,-0.011281844,0.007110048,0.023554437,0.008889825,-0.018266097,-0.008765381,0.003978266,-0.0015241001,-0.008580128,-0.007040387,0.0033524185,0.0068202736,-0.01546826,0.00981609,-0.009969007,0.006995922,-0.007862838,-0.010107443,-0.01734765,0.005243719,-0.0255073,0.008783855,0.00587021,0.017592372,-0.0015873094,0.020988958,0.011967204,0.010009244,0.0018068571,0.016401747,0.0029131137,-0.019927543,0.010311874,0.004831655,-0.022058252,-0.014500618,0.02618217,0.014331518,-0.022743762,-0.013207829,-0.0018369798,-0.011722596,0.000255201,0.015803263,0.0009066835,0.028974064,0.009505591,0.012689184,-0.0070279525,0.0054881056,-0.0048055374,-0.03221177,0.011860171,-0.01652398,0.027853683,0.013209773,-0.0151584,-0.0044189356,-0.001270337,-0.031242631,0.009882215,-0.01562362,-0.0019914005,-0.010886405,-0.0060452526,0.0009634688,-0.022805871,0.006058829,-0.006560117,0.008888013,-0.012953194,-0.016365772,-0.0067213154,-0.019346105,-0.025305927,-0.0039528846,-0.0033830926,0.008880312,0.005137801,0.0015763175,0.013752309,0.012007888,-0.014161296,0.017443992,-0.0039955145,-0.0050444286,0.01734374,-0.008195529,-0.013666142,0.0155333355,0.0040823855,-0.011816381,-0.0024658225,0.004198461,0.0232759,-0.002647085,0.006820659,-0.022714775,-0.0027731545,0.016522268,0.010581691,-0.00757409,0.005301943,-0.0148853045,0.004691696,0.016588673,-0.0077212993,-0.0012269616,-0.025448129
Saltillo,-0.009479453,0.009597047,-0.008660253,-0.008813143,-0.009592681,-0.00031407923,0.009152718,0.01484968,-0.0016675354,-0.020213163,-0.008272331,0.018892504,-9.724451e-05,-0.037675418,0.0022864179,-0.0030414462,0.014688639,0.014490541,0.016169656,0.007637175,0.0018957462,-0.016815525,0.0068489835,-0.020695485,0.013723271,-0.04257009,0.018684506,0.027341701,0.004975336,-0.0053567607,-0.029492194,0.0015839711,0.0010407502,0.0064275004,-0.02338006,0.02144533,-0.012553409,0.010322638,-0.0065056495,-0.027955556,-0.012572987,-0.026093856,-0.004039021,-0.008608462,-0.0005843751,-0.029636774,-0.020784045,0.013795223,-0.0034606857,0.0008665705,-0.00932964,-0.021086348,-0.0031117294,0.0131061375,-0.008693107,0.006277845,-0.024419788,-0.014182536,0.0028684977,-0.0024178363,-0.0039781723,-0.010425287,0.025791764,-0.01232052,-0.019808179,-0.0027684942,-0.013605127,-0.014002623,0.014475418,-0.0024936944,-6.618956e-05,-0.0028542532,0.029772025,0.017380578,0.0118308775,-0.01916724,-0.00058495626,-0.012465593,0.005339045,0.003784683,-0.0035435737,0.02185123,0.0048109265,-0.00044348836,-0.013352817,-0.00033026095,0.016378112,0.013237098,0.012275223,0.020043258,0.009992978,-0.001084106,0.005360367,0.004306296,0.010610958,0.006676938,-0.023147125,0.012027066,0.013352454,0.022138864,-0.026735,-0.030504476,-0.0006968463,0.020097002,-0.011182662,0.011884736,-0.0004954934,0.028160473,0.02279661,0.03239764,-0.0016562995,-0.0050523207,0.0076902825,-0.02613564,0.004414376,0.00071135163,0.010928194,-0.0018495051,-0.014137939,0.002935022,-0.032393903,-0.0031351773,0.0017271462,-0.003970206,0.008245105,0.011256764,0.015660483,0.0055778166,0.01374536,0.011434015,-0.0007870905,0.016381321,-0.006155947,0.006788755,0.014141852,0.015624207,0.010163326,0.015114339,-0.013653796,-0.00935252,0.0021625208,-0.036495544,0.003044257,0.0071218116,-0.038370084,-0.008443758,0.016647022,0.0012494614,-0.019343726,0.009250678,-0.006131755,0.022481648,-0.0031571751,-0.0073378338,0.0137218945,0.03919835,0.0074361814,0.0061185136,-0.017533371,-0.0024136622,-0.020490753,-0.0013773893,-0.014785577,-0.005481934,-0.01782224,0.01460477,-0.007962333,0.006490509,0.016627625,0.024720958,-0.019952798,-0.014786896,-0.021099474,0.0024013966,0.009326172,0.0036278907,0.028484758,-0.00034548016,-0.00807089,-0.017966172,0.00077660475,0.016901292,-0.0028875018,-0.011005387,-0.014134963,-0.00884513,-0.011583371,-0.014703823,-0.012997589,0.012652544,-0.004266467,0.0021330006,-0.012032647,0.013140237,-0.0010486031,0.025853084,0.0029627103,0.013795519,0.012668491,-0.00036959443,0.011810932,-0.01860485,-0.016833687,-0.012913171,0.0021600313,0.00050510094,-0.008676831,0.009034293,-0.006761866,-0.00013502873,0.000549973,-0.030127421,-0.01528834,-0.013747999,0.009588271,-0.017718926,-0.0035822112,-0.008108567,0.0074424995,0.014245735,-0.028360963,0.0037377328,0.0060683396,0.0061208485,0.00030886568,-0.018422324,-0.015653292,-0.0065348335,-0.0041372646,-0.008891633,-0.015782375,-0.0027964152,0.026477925,-0.016273497,0.0050332528,0.003883196,-0.019960763,-0.005039921,0.011767409,0.0063668443,-0.01553761,-0.0006593005,-0.00068159215,0.01872684,0.00056005456,0.03402093,0.008384392,-0.0097467005,0.00895958,0.0033901422,0.0038397908,0.005779948,0.009686714,-0.01664095,0.006003797,-0.032967385,0.006618716,0.024976183,0.0012153639,0.0052920915,-0.002016164,0.006799549,0.007242644,-0.0209874,-0.0062963897,0.009695355,0.023074215,0.017159898,0.012747501,-0.00486676,-0.008082224,0.013027821,0.0025090976,0.0022379942,0.003768701,0.01249308,-0.020605523,0.020566482,-0.015187791,0.0063023344,0.015628064,-0.023370348,-0.041549236,0.033939052,-0.012628988,-0.013265481,0.034655288,0.0030185506,-0.006398894,-0.008161124,0.020387558,-0.019547712,0.0023356732,0.010771193,-0.002772376,0.008860152,0.0030058753,-0.003808491,0.0052705295,-0.021740764,-0.01732618,0.024040552,-0.012642043,0.0036879368,-0.00913416,-0.011090212,-0.020188708,0.015116844,-0.01866141,-0.011816833,-0.016410723,-0.0029560756,0.0070422166,0.020640371,-0.0035718111,0.00527965,0.00020478433,-0.0014739977,-0.0066625956,-0.0010757372,0.015993897,0.008951402,0.01718434,0.012916624,-0.011751786,0.03058144,-0.028515154,-0.00523521,0.0039100535,0.0005077545,0.026064914,0.010757888,-0.021528034,0.016668545,-0.006213079,-0.016609736,-0.012368731,-0.003739831,-0.0034467783,-0.012851129,-0.0015437724,0.0017665513,0.004946029,-0.02265717,-0.019226378,0.0050298423,0.016501956,0.00801104,0.009143594,-0.013855649,-0.011606006,0.006474724,0.010043693,-0.00014527515,-0.0070992764,-0.030703738,0.0010185437,0.0001776712,-0.0136360545,0.020481486,0.0193926,0.004588009,-0.026012162,0.009503476,-0.002731138,0.017669313,-0.001737209,-0.015287674,-0.0026711016,0.014927717,0.021386288,0.017098837,0.015294333,0.014924215,-0.0027787685,0.0022267574,-0.014670778,-0.007994546,-0.005795125,0.019194815,-0.01510141,0.008325156,-0.0043067094,-0.0037120134,-0.005079575,-0.017221948,-0.038573567,-0.0062095635,-0.030445805,0.007591214,0.008820077,-0.009165011,-0.011570342,-0.02302751,0.008931544,-0.0097055035,0.0021214038,-0.012781117,-0.009784112,-0.009812438,0.011427811,0.004183667,0.011478849,0.00656629,0.019514516,0.009861047,0.019245455,-0.0092547,-0.0122014675,0.010254345,-0.039413188,-0.00705136,-0.009797381,-0.0013793483,0.014042941,0.0017799509,-0.012914558,0.029688522,-0.014374353,-0.004590383,-0.008433573,0.0053114826,0.010436012,0.006336593,0.0015640957,0.021165792,0.019921392,-0.020998193,0.0024630446,0.0053548114,-0.007905007,-0.00079843495,-0.0049269106,0.0039044041,0.0054957443,0.011578828,0.0016029598,0.014370082,0.0026300382,0.009359101,-0.009119299,-0.0043853465,-0.020062402,0.0013663266,-0.03006678,-0.0063676746,-0.0036349513,-0.009723077,-0.007604558,-0.011442086,0.015548771,0.012957964,0.004970284,-0.0014701504,-0.008396534,0.0136938915,-0.011978416,0.010156687,0.0007871594,-0.020128801,-0.021279944,-0.00226569,-0.011373794,-0.013576422,-0.0058748946,-0.0036449768,-0.00044796802,-0.020046383,-0.0027871656,-0.008265682,0.00940416,0.0002476927,0.005922786,-0.001408238,0.006724852,-0.0100223925,0.011301489,0.01169329,0.01024135,0.001438804,0.0066217016,-0.0059854873,0.008060385,-0.015633674,0.01408362,-0.010981877,0.0027890094,-0.010819923,-0.0055098794,0.03419126,0.0054530217,0.0011132173,0.0050899126,0.0104853595,-0.0053502535,-0.018662285,0.0087227505,0.009904817,-0.013913637,-0.026341217,-0.0044526323,-0.0070822537,0.013589622,-0.01630803,-0.016302584,-0.002009675,0.018337177,0.01931646,-0.0115672955,0.00093270466,-0.004069655,-0.008257301
Colima,-0.0067239944,0.03245579,0.013974604,-0.002447173,0.016830359,0.0018329625,-0.0067743296,-0.021717208,0.007989343,-0.032372806,-0.0016635712,0.02245484,0.010765346,-0.025123179,-0.006813994,-0.01131765,0.010761226,-0.007647074,0.0015864512,-0.005952386,0.017733546,0.0027354779,0.024018161,0.0024135541,0.0072337184,-0.044272676,0.013685068,0.020757236,0.0010454538,-0.001595933,-0.008278973,-0.0010699756,0.031835914,0.001702847,0.014327861,0.006341352,0.025853194,-0.003418656,0.015662491,-0.037805267,-0.024640955,-0.02187856,0.0040160026,0.025164295,-0.00073231594,-0.0025836083,9.484589e-05,-0.007292224,-0.026328994,0.015661733,0.0050875433,-0.022610236,0.01386584,-0.0011345912,-0.010535171,-0.0012586145,0.01100128,-0.0033428706,-0.005339171,0.014482923,-0.010032242,-0.014239246,0.009132261,0.000107079744,-0.011691464,-0.012721085,-0.03230231,0.013389913,-0.021235641,-0.011315131,-0.00929213,-0.0147216255,-0.0042437585,0.0066522714,-0.03217903,0.0114782965,-0.0076307757,-0.02091357,-0.008688507,0.019331954,-0.0015899828,-0.0004744511,-0.010879531,0.025861494,0.004229486,-0.003190023,0.00033144746,0.002051272,0.0009847973,-0.0047331373,0.011543296,-0.009227053,0.015865764,0.019735109,0.009115536,0.019064656,-0.035899393,0.01619332,0.0055360915,0.010847596,-0.016977437,-0.0024716095,-0.012449077,0.021103155,0.010931598,0.003249066,0.02273262,0.0030626706,0.008993518,-0.020260207,-0.015888758,0.012059888,0.009583068,-0.010697678,0.02425868,-0.002803715,-0.011320586,-0.0053418763,-0.02434432,-0.0074592195,-0.014341924,-0.011022219,0.003437581,-0.020947218,0.005148504,0.018455416,-0.013197999,0.006220268,0.054601952,0.015925523,0.018346367,0.01783602,-0.02065335,0.010668276,-0.003416922,-0.011187937,0.0063202158,0.0062456243,-0.014654292,-0.02701567,0.01650587,-0.014661064,0.007967471,0.015505811,-0.021176826,-0.020623814,0.012302931,0.015386091,-0.03259268,0.0054343697,0.007259084,0.010812797,0.013064507,0.010067936,0.018258799,0.013779053,0.011703316,-0.0024806056,-0.033464577,-0.010014956,0.003472576,0.036254257,-0.010471442,-0.014780933,0.003987805,0.00631164,0.009606217,-0.012054138,0.0053208387,-0.004991979,-0.002789978,0.007833169,-0.016414113,0.00716123,0.0040399525,0.01640245,0.013116989,-0.018568322,0.0070869606,-0.0065081622,-0.0035476852,0.023823734,-0.0234541,0.018452505,-0.00505374,-0.013334068,-0.007998427,-0.0037097614,-0.009020735,0.024576008,0.005682462,0.005026539,-0.022617724,0.0190913,0.011466559,0.0040034493,-0.010145422,0.022700913,-0.0027240058,0.008853409,0.0034009432,-0.008176446,0.019919777,-0.004539743,0.0010006204,0.0060681514,-0.0026250184,0.029165955,0.01643346,0.0071108565,-0.02409333,-0.009222327,-0.021927822,-0.0057621165,0.015353177,-0.016554566,-0.000778393,-0.0059660263,0.002759437,-0.015015867,-0.016249806,0.003636403,-0.007735325,0.0055490546,0.018059809,-0.021356856,0.018114187,-0.0031193048,-0.017041102,-0.012629051,0.00875576,-0.002329045,0.023463117,-0.0117776375,-0.015612418,0.010286061,-0.013399972,-0.0028109897,-0.014671889,0.004503888,-0.019859873,-0.001409132,0.0018416718,0.015973205,-0.008913475,-0.012498248,-0.0040086946,-0.015239116,0.0072705895,-0.0037032375,-0.016451,-0.0077695623,0.010288248,-0.007956874,0.032398537,-0.022675045,-0.017621078,0.024365632,-0.007326979,-0.0048058964,-0.0060667833,-0.02203063,-0.005535817,0.010997465,-0.0062404033,-0.014136936,0.0013034856,-0.0031330828,0.014714044,-0.0012366809,0.008163959,-0.006082168,-0.021340236,-0.004588265,0.009817138,0.0252428,-0.03748176,0.0005305717,-0.03175386,-0.018380906,-0.007487815,-0.026383033,-0.014732949,-0.0031499611,0.014502279,-0.010586446,0.01215627,-0.001767477,0.00073463656,-0.0030421037,0.013848195,-2.0144507e-05,-0.014217276,-0.008753784,-0.0051171146,0.005969275,0.0130132735,0.0050340407,0.03513821,0.014459676,0.0090383515,0.010738254,0.017536074,-0.0050247423,0.0146458335,-0.009898407,-0.005370198,0.008116249,0.011127597,-0.007022543,0.00022261031,0.004250815,0.018272718,-0.019565282,0.023966044,0.021826576,0.020070855,0.0100768,0.014099837,-0.0220193,-0.0014056079,-0.003443594,-0.013742317,0.014012978,0.0012293123,0.028969375,-0.010853356,0.0034045763,-0.0025892444,-0.0106189195,-0.0034255534,0.012086821,-0.010784028,-0.011032121,-0.016639832,0.0031162854,-0.012654878,-0.008978657,0.039813135,0.020032771,-0.017827123,-0.019497562,-0.022389904,-0.032115214,-0.028937178,-0.0039556352,0.008621912,-0.0078951875,0.021817084,0.008743596,-0.018860202,-0.0035552215,0.0064027123,0.0018434133,0.000976827,-0.022092037,0.0049120486,0.003168705,-0.0037541743,-0.0044490285,-0.0032332502,-0.011271904,0.0079185795,0.008994743,-0.019898012,-0.011619341,-0.0013963692,0.002005051,0.007500015,0.011351192,0.0037325025,-0.0031900862,0.009167182,0.017622476,0.0027818792,-0.0009105839,0.014286558,0.009579444,0.0037071258,-0.0033846507,-0.008721566,-0.010532039,0.0131755285,0.0009940974,-0.013140885,0.0020138368,-0.006534159,-0.0025871582,-0.016204938,-0.012193926,0.022036903,-0.0015151072,-0.011651505,-0.014254533,0.0022031832,0.009359531,0.0046882574,-0.008942437,-0.00579747,0.006074097,0.01823632,-0.00026229396,0.00062010996,-0.020546297,0.0016601654,0.016426224,0.027666572,-0.016615402,-0.0034562377,0.003396967,0.001150432,0.022636129,0.0032650828,-0.0030544866,-0.0009290329,-0.017763276,0.0028960886,-0.01380785,0.011262415,-0.0036588907,-0.0096315015,0.0050499486,-0.0062002116,-0.021039147,0.031308938,0.027845241,0.014471729,0.0055240486,0.019612068,0.0036138906,-0.005081322,-0.010639777,-0.0013298299,0.007340962,0.006883901,0.017995443,-0.0016143378,-0.017152928,-0.013219907,0.0004894212,0.015563742,0.015135711,-0.01348817,-0.01558766,-0.022051638,0.015812382,-0.009707398,-0.028286595,0.0017316658,-0.017769981,-0.011353405,0.008365973,0.019987259,-0.009984354,0.014631172,-0.0008530002,0.009468671,0.030672602,0.0039966656,-0.022451388,0.008114386,0.008009844,-0.018838385,-0.010130281,0.0023119645,-0.00895873,0.009167632,-0.020146225,0.01014404,0.017305804,0.0008706078,0.0042783283,0.009197292,-0.002099471,-0.0075734155,0.002696402,-0.004245477,-0.006426204,-0.011685362,0.0013090074,-0.011678125,0.013064615,-0.017194435,0.010745935,0.0062667355,-0.015560433,-0.0046404228,0.0024618618,0.007652223,-0.0016316585,0.0050356733,-0.01945056,-0.014455205,-0.000582492,-0.01149653,0.01196076,0.0030162777,0.017420039,-0.0023529553,-0.006896314,0.019122247,-0.020350467,0.003850542,0.01871198,0.0073367422,0.0015945928,-0.011891715,-0.00054147,4.169345e-05,0.013092309,-0.0019303309,-0.023175936
Tuxtla Gutierrez,0.004362685,0.0037629995,-0.016185103,-0.004635522,0.0067825075,0.009247422,0.0022422243,-0.0034776167,-0.00028744945,-0.014043224,-0.019400345,0.004844009,-0.014139291,-0.018306192,-0.03120185,0.02198517,-0.0038003623,-0.00512846,0.011701539,-0.0066045616,0.006775668,-0.022128746,0.015440437,0.020184584,0.014078656,-0.00989185,0.0067844912,0.008425392,-0.0048017306,0.0045222286,-0.010231746,0.013052051,0.0029872274,0.0055368617,-7.1921386e-05,0.0323727,0.00017817505,-0.004642588,1.2921169e-05,-0.009768734,-0.024899194,-0.01391485,0.014803806,-0.009546014,-0.0027900506,0.0025902605,-0.027362235,0.006010551,-0.014881895,0.004576663,0.022764115,-0.0001473464,0.011339489,0.0018873161,0.009975871,0.014364721,-0.015590286,0.009103142,-0.001418002,-0.03480553,0.013443449,0.009379482,0.028449425,-0.0066674855,-0.013479058,-0.013467718,-0.0008094236,-0.014999654,-0.002502179,-0.0049316753,-0.005761454,0.0049281605,-0.012309277,-0.0034022238,-0.019621994,-0.0039060228,-0.009982316,0.020802287,-0.008243399,0.0253619,0.0003243722,-0.016364759,-0.010668448,0.00046946295,0.0066331327,-0.015050098,0.009329935,-0.0081646275,0.017247185,0.0036281794,0.0035665818,-0.018138554,0.039266612,0.022806365,-0.0041391635,0.0044501014,-0.017202817,-0.02529139,0.010178501,0.008546217,-0.0149127245,-0.0072889137,-0.005783356,0.016122282,-0.008810982,0.005629611,-0.014377476,0.0145242,0.0056418926,-0.0018372927,9.12454e-05,0.00063240994,-0.0063833296,-0.010994049,0.0037553124,-0.0073610293,-0.010780029,0.001331823,-0.021774068,0.0028822366,-0.009417785,-0.0024144165,-0.00021437695,0.023924991,-0.02023429,-0.0063777277,0.0097832335,0.0045504593,-0.0013791732,0.0046240427,-0.0034315176,-0.011657561,-0.0049701817,0.0018098708,0.011466725,0.008837263,0.00072194077,0.005560803,0.008484257,-0.01566892,-0.016094575,-0.016294992,0.022788271,0.011366345,-0.036889292,0.01383476,0.021130774,-0.0058504427,-0.0014752746,0.005529076,-0.007347705,0.005071901,0.0147193605,0.012602899,0.019231742,0.012316808,0.007140237,0.00346235,-0.007104705,0.0024382863,-0.0095720785,0.0014351464,-0.011461828,0.00823964,-0.0017745327,-0.0059019234,0.0122882705,0.0062961453,0.0071812435,0.01672675,-0.0030880924,-0.0010654274,-0.009431776,0.0040651,-0.0021559037,-0.0009666041,0.0029123086,0.005703484,0.0022210963,-0.0022260137,-0.016573247,0.008189156,-0.015631571,-0.014646472,-0.012359481,0.016476694,-0.0063843876,0.002184173,-0.01415122,0.004976144,0.0034654401,0.0066239974,0.0023944136,0.0069305357,0.0054243896,0.0029808995,0.0012100711,-0.004574416,0.011557179,0.01023875,0.004799274,0.006964476,-0.01336379,0.010436725,0.0079005845,-0.00044824183,-0.003328964,0.011215324,0.0028347876,0.005093947,0.00708394,-0.028833468,0.0008723461,-0.016819607,0.010799011,0.009866271,-0.0067533553,-0.009133281,0.021658376,-6.536953e-05,-0.0023902077,0.020472756,-0.017849553,0.009898876,0.007852789,0.008148137,-0.00010682363,0.012985369,-0.01619015,-0.023734825,0.0082336925,0.010420408,0.04175541,-0.017684992,-0.01236748,0.011342287,-0.029433867,-0.015339967,0.011929568,-0.0008332485,-0.011673013,0.0017629131,0.014969401,0.0253972,0.0065323506,0.0016793171,0.016987767,-0.022294093,0.007047399,0.023676248,0.015705258,-0.0015004948,-0.0034989575,0.012860678,0.022367587,-0.016738364,-0.00434161,-0.01049597,0.00018823799,0.027847797,-0.0052195005,-0.0075757112,0.020288022,-0.0059876107,-0.0029413207,-0.0056014145,0.0058035995,-0.00983525,0.015640752,-0.0002557095,-0.021056212,0.019425886,-0.023400616,0.007354716,0.008181834,0.0099564865,0.0023995545,-0.010314682,-0.00015220046,0.02143335,0.0026476663,-0.029220903,-0.0055365134,-0.0038139923,0.009868639,-0.004955519,-0.0008453503,0.0016245488,-0.00044374727,0.0070920587,0.038401756,-0.013462564,-0.007859446,0.004829213,-0.012413753,-0.014314809,0.01155554,0.001666151,0.008954155,0.014362976,0.005862554,0.00052782334,-0.0054702023,0.0038873162,0.03423053,0.007781217,0.01782272,-0.002883857,0.009784864,0.0014001802,0.0054501495,-0.023863954,0.0070118066,0.00020500226,0.0046231,0.010086644,0.009757475,0.027475443,-0.0006706859,0.0023298338,0.00024268823,0.009756575,0.017243402,0.016067455,-0.0060802754,0.02116894,0.0056541106,-0.021102902,-0.0065795314,-0.011022793,0.0036546187,-0.0041832617,0.0064955037,0.003496115,0.0014382135,0.007638486,-0.011126807,0.0007570381,0.010007633,0.011711645,-0.0025304873,0.00046330225,-0.02219933,-0.027497884,0.016344972,0.0051493403,0.007364845,0.0042852256,-0.0008780621,-0.011722694,-0.019540964,-0.016144002,-0.0020404477,-0.008112859,0.008139029,-0.007234072,0.014942829,-0.0035781628,0.009136887,-0.016150849,0.009623465,-0.0064350143,0.008132374,0.00084440317,-0.015314008,0.007191859,-0.0027170395,-0.0011179824,-0.009128973,0.012525979,0.0090459995,-0.009914238,0.011041734,0.006938736,-0.0103682615,-0.006908506,0.017535869,0.00091131404,-0.0036822725,0.013789462,-0.023042802,-0.0026023183,0.008572705,-0.028100375,-0.0053997627,-0.012534544,-0.01598543,0.008180281,-0.0035865745,0.0015059877,0.0089914445,0.0023680776,0.006326063,0.004164662,-0.0051740934,-0.03439053,-0.0019662771,0.00712314,-0.0131044,-0.013305834,0.009323749,-0.00454222,-0.008332974,-0.0014550113,-0.0063989833,0.005010292,-0.0058092,-0.009733447,-0.019763589,-0.006849722,-0.018860351,-0.000577949,-0.0054514147,0.0032877615,-0.0016876254,0.0005695671,0.005849907,0.01649372,0.028406087,-0.0055708885,-0.009905743,-0.002719236,0.0066466425,-0.013455541,0.015815435,0.009624558,0.0048875846,-0.0027916366,-0.006666078,-0.00025032088,0.009338064,-0.0027166614,0.0069114445,-0.017781816,-0.01563076,0.0012340117,-0.004579964,-0.009225193,-0.005362129,-0.014152342,-0.004626575,-0.0055598672,-0.0008517336,-0.007926231,0.00406388,-0.0008599777,-0.016068535,0.008398017,0.0073874416,0.0035970132,-0.0083814515,0.022273157,0.0315455,-0.011514153,-0.017547721,-0.020810878,0.012671213,0.016720397,0.0075325,0.0077646375,-0.01692183,0.010059739,-0.012430739,0.01454968,-0.016169153,0.004558658,-0.01733251,-0.016280033,-0.0030619684,-0.0011307597,-0.0047065597,0.0090837665,0.017689053,0.0016117285,-0.0017212257,-0.0023192426,0.0037615225,0.0035176296,-0.010120993,-0.005176965,-0.0060775373,0.0071553728,-0.015439607,0.03252691,0.013836918,-0.022715574,0.008525535,-0.011369227,0.0049448935,-0.0011609606,-0.012983129,-0.0034158807,0.037535645,-0.00091482373,0.004510757,-0.007048295,0.007795017,0.0120932385,0.006609937,-0.0092254225,-0.0022324403,-0.0015534647,0.011311982,9.45963e-05,0.027219202,0.0074004885,0.007030093,-0.015699683,0.0036650263,0.0016903775,0.008470826,-0.031907596
Chihuahua,0.0056728693,0.028487988,-0.0049056457,-0.02796287,0.020021144,-0.006755512,0.019834466,0.004021258,-0.010924226,-0.020142635,0.00033603143,0.011639785,-0.011928389,-0.01169784,0.018254332,0.015830614,0.008799484,0.027992502,-0.0059439456,-3.3918768e-05,0.0037135873,-0.0018286081,-0.0021960041,-0.016020995,0.001981685,-0.006602995,-0.008192357,0.0074678287,0.001207578,0.0015831348,-0.006853571,-0.012924748,0.021597374,-0.008967711,-0.011310786,0.012810815,-0.009499624,0.021658078,-0.00028375722,-0.01720407,-0.01726031,-0.009549493,0.007430328,-0.018099029,-0.012994854,-0.010677898,-0.015199201,0.048183803,-0.010369841,0.007917291,0.011128167,0.00015453622,0.006000623,-0.00385354,-0.004403375,0.0035267947,-0.015588777,-0.01825231,-0.00023555756,0.009571049,0.0039431695,-0.017206844,0.01741773,-0.0105539,0.0052132495,-0.018519925,-0.021536546,0.015100791,-0.006114916,0.019830417,0.019626059,-0.006319117,0.008987037,0.016326347,-0.013770899,-0.006126537,0.01229777,0.01634937,-0.0035331687,0.028154377,0.007617634,0.015409237,0.010888675,0.008141592,-0.006316647,0.01842786,-0.0033047912,0.0001664646,0.00835023,0.0027996218,-0.0038528992,0.0024192955,-0.0017062272,-0.0042912327,-0.013652884,0.014790051,-0.01934994,-0.0021061003,-0.022970656,0.007299292,0.0033248141,-0.006668928,0.007283613,0.012205326,-0.008823259,0.00010426529,0.00715609,0.015662404,0.017755968,0.010971011,-0.0039923554,-0.002914086,-0.021806192,-0.02309791,0.008811135,0.010436071,-8.166535e-05,-0.022168318,0.0001932932,0.0012275539,0.0035995515,-0.004349256,0.010002991,0.0033366587,-0.007884641,0.012876417,-0.007541688,0.0028828876,0.0070010275,-0.0029049432,0.007854443,0.004298509,-0.012984969,0.0049603116,0.004623429,0.015267179,0.029712398,0.011208376,0.0026060417,-0.018739393,-0.013848137,-0.009746076,0.018028567,0.0019921549,-0.011988781,-0.0025539547,0.0010408845,0.015227367,-0.004517681,-0.008043654,-0.0027460358,0.014093641,0.015342865,0.0050664907,0.0042945947,0.020688403,0.007228352,-0.0059013376,0.0066381264,-0.008314537,-0.0069322865,-0.012644403,-0.006354397,-0.0075876573,-0.019995064,0.018345192,0.008349531,0.002412256,0.015149716,0.0013083927,-0.011085417,0.0016383036,-0.0060170726,-0.011481404,0.0057892976,0.00088018365,-0.012200442,-0.0016982108,-0.007894276,-0.016222674,0.0070094867,-0.0044766637,-0.016799608,0.018193081,-0.016566252,-0.017050331,-0.00771882,0.0037195068,-0.004440481,0.030608887,0.0059779165,0.0017989709,-0.010667793,-0.0012151543,0.0068704346,0.0035756915,0.01155898,0.020945692,0.013526201,-0.0036478788,-0.008552842,-0.01462229,-0.0064085685,-0.027108816,0.008168872,0.0141855255,-0.0026256517,0.004126965,0.009040532,0.0055593494,-0.0007089954,-0.017935336,-0.0060458593,-0.032918967,-0.0029774718,-0.013740247,-0.0036123162,0.0073136874,0.02322122,-0.00094550103,-0.003924921,0.0029759603,-0.01630895,-0.005252868,0.01349597,-0.0063220845,0.012101987,-0.0034326278,0.019995455,-0.015047509,0.007940991,0.017319981,0.024687124,-0.0006317552,0.006629809,0.0049296133,-0.0184151,-0.023000142,0.0092635015,0.009349663,-0.022205224,-0.024082659,-0.0142815765,-0.009402616,-0.013615557,0.018968971,-0.008265076,-0.012571916,-0.008104592,0.0052590994,0.00643814,-0.0027888743,-0.014469744,-0.020666616,0.0072907023,-0.020531965,0.0015343428,0.011204477,-0.024365291,0.015761238,0.006291518,-0.01067765,0.02537186,-0.037644297,-0.008838427,-0.0022928081,-0.0002497742,-0.011953054,0.014196717,-0.00013950281,0.004394902,0.0022938792,-0.016960941,-0.018898625,0.002263032,0.015739165,-0.019734409,-0.013835937,-0.021341238,0.020190347,-0.019201549,-0.023791254,-0.02735594,0.011337346,-0.017819863,0.020829305,-0.0052946378,0.004522373,0.0021333443,0.023856394,0.011711391,-0.0183762,0.021322122,-0.009383146,-0.0122916885,0.01823631,0.028539233,-0.0029514208,0.011836873,-0.022315312,-0.01746723,-0.002786763,-0.02227859,0.0017409902,0.0050673103,0.02594143,-0.0060267877,-0.012939253,-0.004707545,-0.004786552,-0.0025840895,0.014420185,0.0056940066,0.03349275,0.001176212,0.010464473,0.000478124,0.014149616,0.02419872,-0.008012248,0.00028248504,0.015738634,-0.007380805,0.013939124,-0.0073067127,-0.00373765,-0.010640826,-0.009436339,0.0013447981,-0.014464594,-0.011747138,-0.0054772487,0.014707306,0.011471881,0.0012346702,0.007000398,-0.025288064,-0.0076605044,0.0004897434,-0.005166226,0.0016690455,-0.0053957226,-0.0057929857,-0.00690395,0.00060337596,-0.0057241935,0.01980367,0.0065702433,0.011951214,0.0053243823,-0.032909147,0.011871251,-0.004147589,-0.0096267965,-0.014466526,-0.011974749,0.019342175,0.0023170859,-0.005691778,-0.010785088,-0.013584765,0.008031694,0.0039031971,-0.010411162,-0.00080383196,-0.00886922,0.0035562627,-0.017821979,0.007835202,0.020654393,0.0040362496,0.0023608673,-0.00890735,0.028104406,-0.00021359883,-0.0045499224,-0.0019296482,-0.023629911,-0.018755693,0.013211364,-0.017844928,-0.035562057,0.00052155554,-0.00053495355,-0.02053421,-0.015024966,-0.02011407,0.0017913338,-0.04218972,-0.0138544375,0.00033800676,-0.022742998,-0.010282045,-0.010154853,0.011792928,0.006732311,-0.008579664,0.0068405773,0.000397834,-0.0017200259,-0.007080512,0.009064521,0.008764229,0.00083226804,-0.008665033,0.016337153,0.028292451,-0.009953942,-0.004155459,0.005596269,-0.02039135,0.011897849,-0.006740898,-0.033574775,-0.0029014656,-0.00066833664,-0.014465528,0.00524324,-0.010253523,-0.011461427,-0.0070141084,0.018114612,0.03249653,-0.0016925365,0.0029918896,0.0033487454,0.010057034,0.00021364912,0.012850438,0.01001108,-0.01781776,-0.00043308828,0.0149552915,-0.0060969302,-0.00020139292,-0.0034833467,0.0027696413,0.0044736937,-0.026764505,-0.000937907,-0.017097604,-0.0014990121,-0.010774609,0.0108129475,-0.007919585,0.018824166,-0.0010163817,-0.0045785727,-0.009734357,-0.015326472,0.0023858845,0.0090547465,0.008695041,0.009666385,0.0033919439,0.0015630824,-0.016264059,-0.00017344952,-0.0050522992,0.008844756,-0.025810402,-0.014137033,-0.010368913,-0.0039174445,-0.00044190232,0.007671805,0.020420613,-0.011008769,-0.009035924,0.014810352,0.004488119,0.005268423,-0.0034462516,0.0036014454,0.016901372,0.009405892,-0.00838629,0.0014012586,-0.011088134,0.0011237636,0.006788129,0.012508104,0.005420359,0.013243316,0.009322103,0.003329983,-0.0075335205,-0.019497756,-0.01924976,-0.011210369,-0.006647925,-0.014605191,0.018682929,-0.0022861343,-0.010083968,0.00811766,0.020446306,0.01597879,0.006617008,0.0017240038,0.01665143,-0.011879258,-0.0043893736,0.002153358,-0.020230336,0.0063821636,-0.011379308,-0.0068941116,-0.029849961,-0.0073896796,-0.023154182,-0.014173829
Ciudad de Mexico,0.005220267,0.026889555,-0.00026563276,-0.02507577,0.0095859105,-0.010168288,0.01012654,-0.022487309,0.0049617654,-0.00663347,-0.016354835,-0.0005824631,-0.009258395,-0.0230788,-0.0015971386,-0.0035794852,0.008186682,0.0025195219,0.001466006,0.008317098,0.005911989,-0.0033723991,0.008245868,-0.014078464,0.017010454,-0.025276063,0.008364208,0.0147917755,0.006677755,0.00406034,0.007839182,-0.007886199,0.004563304,0.003730351,-0.014321638,-0.0071768966,-0.0086533865,0.0195405,0.004003018,-0.041059457,-0.026643299,-0.0006683506,-0.008708607,-0.012944415,0.002687626,0.004319067,-0.0047451053,-0.0038932795,-0.017016903,0.0073513184,0.013581073,-0.024282582,0.013341271,0.021495974,0.00795236,-0.001383122,0.017678352,-0.006213135,-0.0062366268,0.013301533,-0.0073903,-0.01973854,0.0064181294,-0.011004461,0.010180797,-0.021198984,-0.025271753,-0.014678124,-0.0028184447,0.0058127213,0.009189868,-0.0045073293,-0.0014125621,0.010512399,-0.009680213,-0.010756394,-0.024455981,-0.012721455,-0.0012805155,0.010685445,-0.0009708535,0.017440895,-0.002256827,0.01413681,-0.008761331,-0.02040202,-0.021571029,-0.007417444,0.00987234,0.00096468674,-0.011457811,0.009538869,0.018837813,-0.006248357,-0.0017313845,0.0008732332,-0.029420594,0.009742847,-0.026223257,-0.00061119115,-0.014661118,0.00942242,-0.00813243,0.015295572,0.015107494,0.014503487,0.019291604,0.021688128,0.024555465,0.029480884,0.022532687,0.016904904,-0.009725422,-0.0124958,0.008056952,0.02983019,0.0055222223,-0.0036731232,-0.015335284,-0.017712483,-0.0010697953,0.013413388,0.018255912,-0.01181365,-0.0043150336,0.017797494,-0.010243516,-0.007079386,0.008139816,-0.020012839,0.0142609645,0.019729871,-0.0041931346,-0.017826993,-0.006749088,-0.002456405,-0.0019731307,0.010906484,-0.0041015446,-0.01865786,-0.0032659953,-0.016117953,-0.006719634,-0.02385829,-0.014638898,0.0076296553,-0.0013610395,0.0033765081,0.011849634,0.009684958,0.0014463468,0.022581426,-0.0006676968,0.012972025,0.000725002,0.008399128,0.008440066,-0.0039953077,-0.022787161,-0.019762889,-0.006303345,0.014960657,-0.0045272782,-0.0074403584,-0.0008328799,0.009199832,0.02211968,-0.012211534,0.007217693,-0.004185527,-0.017041445,0.013533423,0.001206873,0.0024647824,-0.01419764,0.006303003,-0.0028875927,-0.0071948776,-0.0047894223,0.008029564,-0.014624145,0.0003072573,-0.012269516,0.012871322,0.014791083,-0.020681355,-0.0013717618,0.011225892,-0.013143849,0.011366807,0.004987402,0.014218532,-0.016057378,0.0047822446,0.002246242,-0.00651218,-0.004189335,0.01121911,-0.021567613,-0.005366861,-0.006457335,-0.00060610473,0.02978598,-0.013864361,0.0033548735,0.018053673,-0.005319561,0.021434726,-0.0042251023,0.0028213318,-0.0033977833,-0.024818992,-0.012193065,0.015422983,0.007209112,-0.021404898,0.0023094704,0.011906855,-0.0013560536,-0.008753024,-0.014469545,0.031104747,-0.016987579,-0.006605914,0.008574263,-0.008444523,-0.0014164178,-0.001898706,0.0013404759,-0.0025003552,0.014628537,-0.021453949,0.017560257,-0.016103659,-0.018094199,0.0022234246,-0.0074146567,-0.013695864,0.005002509,0.020461174,-0.010336764,-0.029622942,-0.003937518,0.0035246871,-0.013319878,0.00519994,0.025541442,-0.0031478107,-0.008440688,0.005854301,-0.014003959,-0.0084471395,-0.008347689,0.0069448682,0.019030679,-0.00862421,-0.010316756,0.00019696541,-0.011091035,-0.017026916,-0.01116698,-0.016406598,0.007573922,0.0040960405,-0.044184707,-0.008729302,0.0031849435,-0.0022801794,-0.006286472,-0.00822328,-0.0039749146,0.023346357,0.0034791257,-0.0026890729,0.015847702,0.00216363,-0.020467155,-0.011208512,-0.01354463,0.022516204,0.0067088176,0.0036618635,-0.014795378,-0.0030729119,0.012732183,-0.005555369,0.012546107,-0.0073746666,0.018095445,-0.014905574,0.01944733,-0.020232031,0.0019283146,-0.018378317,-0.00119818,-0.020520981,0.003543442,-0.0059722383,0.0140589215,-0.007968352,0.011101805,0.011028465,-0.012730105,-0.009670028,-0.0035456754,0.0010779593,-0.015666574,0.0064013125,0.017792424,-0.01961649,-0.018618155,0.015263405,0.012461685,0.0039050118,0.017676502,0.017287593,0.013886357,-0.018420696,0.0011280943,-0.0063499752,-0.002130118,-0.008137839,-0.005753031,-0.004431341,-0.016919492,0.0022382336,0.012127051,-0.014747962,-0.008141987,-0.006712609,0.013152211,0.004424967,0.0014695898,-0.01493732,-0.0023314473,0.004192518,-0.012659893,0.0023147212,0.0064975917,-0.0028937403,0.0070789736,-0.0056147054,-0.01435858,-0.008693117,-0.010136221,0.015896635,-0.011942023,-0.016726745,0.006098997,-0.0060044574,-0.006782258,0.007428064,0.000119198114,-0.016390739,0.005015444,-0.012595354,-0.013594175,-0.0072583007,0.017245976,-0.015194039,0.0037938417,-0.007928418,0.0102285445,0.008552896,0.004486018,0.0040994026,0.021548301,-0.0013361233,0.009462295,0.0058928756,0.0054613,-0.0077316323,0.0033483477,0.00070158276,0.0059198663,-0.012407387,0.007981254,0.0002481453,-0.004030669,0.0045456327,0.0017491765,-0.010445103,0.018949706,0.02213534,-0.021247774,-0.017380364,-0.006672157,-0.010177204,-0.011718881,-0.026498199,0.00965734,0.00883727,-0.009840832,-0.025679383,-0.0013728095,0.011320024,0.007962052,0.012816756,-0.0025659315,-0.0036502746,0.025847847,-0.008624557,0.026161006,0.009914671,0.010803511,0.007858995,0.00238092,0.0030840347,0.0029564146,0.020464277,-0.0041802702,0.016295647,-0.008140264,-0.014400648,-0.011332772,-0.00013173372,-0.023299398,0.0035477597,0.012984738,-0.006779529,0.008005826,0.0043737013,0.0048976922,0.0014794457,0.011999369,0.0035657156,0.012995103,-0.014664535,0.004702512,-0.0036412599,-0.020149443,-0.012704841,0.00957026,-0.007613348,-0.0054342635,0.01032692,0.0035446952,-0.01080399,-0.011748547,-0.0006260257,-0.010020464,0.0119362585,-0.03703445,0.03461165,-0.009210767,0.006727388,0.0006588013,9.9186786e-05,0.012629438,-0.014784319,0.0072204694,0.030130982,0.014110696,-0.012414901,0.014364563,-0.0021066726,-0.008933962,0.0073298626,-0.013024378,0.022336151,-0.0015648939,0.010079259,0.004442593,0.027175618,0.008917845,-0.0055032615,-0.0077586332,-0.014091529,-0.0018492038,0.0046445187,-0.010793956,-0.008121366,0.0007519792,0.0052281083,0.0054178406,0.002351181,0.0045769485,-0.004279129,0.013574606,0.0037475787,-0.0039305426,-0.01583163,-0.004448857,-0.0005507823,0.014365558,0.0029071104,0.0060136095,0.0040164012,-0.006619107,0.0051784907,-0.0128981415,-0.004078215,0.010895438,0.011160437,-0.013282075,-0.010579071,0.024016524,0.0063383635,0.012175839,0.0082842,0.0034086313,0.017501067,0.010237925,0.025242025,-0.0045523364,0.006496256,0.0073786946,0.014131674,-0.0008661989,0.022098884,-0.0013538653,-0.011106658
Durango,-0.006380734,0.008759117,0.0154992305,-0.010549303,-0.005204889,-0.009640363,-0.0010830406,-0.0050866227,0.0060073324,0.0011338522,-0.0052527646,0.007960631,-0.00059100334,-0.019947039,0.00629544,-0.0053475983,-0.014836793,0.0074182553,-0.00058875047,0.014487244,0.011955379,-0.007908645,0.011994662,-0.005281559,0.01599649,-0.02175861,0.010702303,-0.00035596266,0.02141691,0.001412658,-0.013982237,-0.022961877,0.011881843,-0.0069451537,-0.014998972,-0.0019459338,-0.009324575,0.016645432,0.015539068,-0.018189654,-0.020589385,-0.009365622,-0.01085365,0.011481652,-0.009921682,0.008403724,-0.0140475705,0.014613345,-0.036643572,0.004155487,0.0114495475,-0.008726313,0.015145756,0.0036059823,0.0075839777,-0.00953486,-0.01849981,0.009728927,-0.014928186,-0.0008640867,-0.005550187,-0.005073551,0.0071788025,-0.00047781132,0.009011446,-0.005791215,-0.045489363,0.010398412,0.005095453,0.002925414,-0.009261844,-0.0044659427,0.0014795505,-0.002187008,-0.016201649,-0.015616039,-0.026626926,-0.00013450067,-0.0014027227,0.030132147,-0.0024767634,0.015792206,0.019359116,0.004649287,0.0063619893,0.01039585,-0.00083821325,-0.0052749813,0.017791383,-0.010613209,0.007160862,-0.010065315,0.019180935,-0.0026578978,0.0054909904,-0.00033851108,-0.034598436,0.0070788227,-0.011149704,0.011030963,-0.023345005,-0.017955841,-0.0034794584,0.0150401415,-0.0018138029,0.015859745,0.009268161,0.03672348,0.022056704,0.010727744,-0.010901447,-0.004848747,-0.011861963,-0.00035324506,0.010456806,0.011423907,-0.020136563,-0.014578793,-0.023636691,0.033862166,-0.01355107,0.012114244,0.040331233,0.00543401,0.0034833737,0.031894825,-0.017717294,-0.009354682,0.02341897,0.0022088997,0.006622167,0.025255285,-0.014794242,-0.009014583,-0.0068609407,-0.0119907055,-0.002898044,0.024303598,0.0063358694,0.0055081304,-0.0031109578,-0.02599945,0.001973054,-0.0016565118,-0.0057245935,0.00090512075,-0.00707399,0.010933307,-0.0052656326,0.015892988,-0.0017429739,0.007235499,0.0003503617,0.004881244,0.01962784,0.018229697,0.0029077064,-0.0047373595,-0.011335302,-0.00055063516,-0.025784459,0.014059547,-0.018195394,-0.0031662453,-0.0042806785,-0.0021526031,0.0085927155,0.0023248445,-0.012445547,-0.00658722,-0.018458467,-0.025927918,-0.01403535,-0.013660332,0.027486399,-0.004372191,0.017175015,-0.0045645507,-0.0019094646,-0.02028517,0.01667215,-0.009541962,-0.01629225,-0.0027022427,-0.021750057,-0.007239743,0.0066430643,-0.008800813,-0.018675301,0.0098924795,0.020171482,-0.012035905,-0.027256249,0.009121447,0.03407363,0.0007032049,0.028225727,0.016087547,0.025551606,-0.01594061,-0.00248264,0.0007375488,0.021846903,-0.009552557,0.009113228,0.022880506,0.002749701,-0.0042555444,-0.01628178,0.007657107,0.018786522,-0.018431839,-0.002472587,-0.021831537,0.009592907,-0.0085797645,0.005911292,-0.0109692495,-0.0005260394,-0.009048651,-0.018585512,-0.007945266,-0.011205822,-0.019986186,0.003134998,3.6899e-05,-0.01323141,-0.00430285,0.022313239,-0.00019050762,-0.010332316,-0.0043122573,0.02135168,-0.0010030055,0.019095164,0.00785589,-0.033370744,-0.010237347,0.009359116,0.016645866,-0.008573372,-0.004053954,-0.010841552,0.011117773,0.0069192983,0.013692413,0.004454486,-0.0081613045,0.017027961,0.0208801,0.015491931,0.0033058636,-0.0034237253,-0.010135171,0.0071400004,0.0013623922,0.009558752,0.0034051351,-0.011184836,0.0037668794,0.004682755,-0.008825604,0.013196863,-0.01577901,-0.018237231,-0.004250303,-0.004264304,-0.018964544,0.014095542,-0.0004898757,-0.02965241,0.023065666,0.004416397,0.0010691062,0.008881763,0.0061807474,-0.020794962,0.0048274565,0.01691559,-0.003849275,0.008091189,-0.019556133,-0.0049854517,-0.0027766838,-0.0035715937,0.0079186885,0.017383976,0.0016689608,0.012865968,0.0057784636,0.0092211375,-0.022945102,0.009750212,-0.015289675,2.7853996e-05,0.012958696,0.009050373,-0.014550842,0.027384477,-0.02441302,0.006805896,0.00842084,-0.013730684,0.016196145,0.006770066,0.006662613,-0.0015669698,-0.017985923,-0.0004745135,-0.0074225273,-0.011800943,-0.021356255,0.007200532,0.015925094,-0.004176639,0.0059715896,0.009215304,-0.013063765,0.0035474873,-0.02425173,0.0005680474,0.013958691,0.020256653,0.016299158,0.012773342,0.008668038,-0.007527042,0.0016162824,0.008700462,0.0017323559,-0.00049991533,0.011809032,-0.0010365658,0.004504094,-0.013887721,-0.009238876,-0.0034302436,-0.00674611,0.008349674,0.008947251,0.011291018,0.0074024536,0.00643092,-0.026805388,-0.0036647804,-0.0063419463,0.018020805,-0.0016685165,0.0075403433,0.0034693573,-0.030001752,0.018348452,0.0050766375,0.02164359,-0.0022646338,-0.02943391,-0.015686153,0.0010343567,-0.008208219,0.0076929945,0.01933241,0.00071250834,-0.0032393336,-0.0035940632,-0.0026605874,-0.015826494,0.0072535416,0.010728657,-0.008549858,0.010792226,-0.008678192,0.004828604,-0.0037486497,0.012599204,0.024350982,0.0049967486,-0.001504967,0.004995499,0.021935012,0.0065102195,-0.016537916,-0.00021836534,0.015008403,0.009897893,-0.016331587,-0.016012207,-0.005463818,-0.00027014688,-0.036862537,-0.026147049,0.020796746,0.0015136227,-0.0038243523,-0.025923353,0.0096619865,-0.0046477765,0.008628277,-0.01917005,-0.018947065,-0.0022304477,0.004758559,-0.007748861,0.02752382,-0.0014264658,0.008572932,0.018254977,0.017783234,-0.002852613,0.00038184505,-0.008493602,-0.0061620073,0.0094385035,-0.020194989,-0.005790202,-0.008077418,0.009032468,-0.01941191,0.016256701,0.0037235338,-0.015451476,-0.006490185,-0.022339337,-0.0046637254,0.0003697998,0.007642689,0.01687155,0.0027975272,-0.009844368,0.011308072,-0.003829021,-0.0024762787,-0.0033249296,0.007980315,-0.013270248,-0.03651781,-0.007286952,-0.0066691935,-0.0040122755,0.005442843,0.0015122136,0.012659518,0.0032399613,-0.038767412,0.013343114,-0.01602568,-0.01399359,0.013409829,-0.0142587,-0.0011159508,-0.012528839,0.0010496192,0.016378917,0.011969898,-0.002397056,0.012214261,0.008740613,-0.014923315,0.008901682,0.0072083725,0.012024641,0.0059683137,-0.0039925072,-0.011082033,0.005150046,0.0012520328,-0.007725955,-0.0019647945,-0.028353797,-0.011462485,0.009092499,0.0011738352,-0.001995584,0.019081958,-0.0068595447,0.0024157334,0.018700399,0.015039037,-0.016148478,0.0030212668,-0.013508525,0.015919799,-0.0014703902,0.0059064403,0.0038577858,0.03499842,0.0025584176,-0.009617027,0.0043256227,-0.0005606916,0.01697551,-0.014375083,0.0010585459,0.014159271,0.00850337,0.0054242983,-0.019802077,0.012138737,0.022046326,-0.010130834,-0.012128357,-0.0021789272,0.00061233714,0.0123200435,0.015993647,0.0053658085,-0.0041625854,0.0028259954,0.008149181,-0.012673225,0.005132593,0.0024459371,-0.020940797
Guanajuato,0.008399127,0.018065248,-0.022516597,-0.029770302,0.013881233,-0.0021842374,0.0048236726,0.0023989663,0.0051481533,-0.00781315,-0.002543088,-0.015318271,-0.008848089,-0.023773175,-0.008962824,0.0058248844,0.015599955,0.011992388,-0.010761015,-0.011897288,0.010866882,0.00084176194,0.0048004724,0.0019587465,-0.0083166845,-0.032295406,0.02003568,0.0006781332,0.014126428,0.028007643,0.005308938,-0.007344271,0.0038348287,-0.016469963,-0.028787367,0.0033540148,-0.0031963459,-0.005422823,-0.007844856,-0.010896243,-0.0074071325,-0.0012806617,-0.004781274,-0.0042835623,0.003964523,0.010030808,-0.00958065,0.0021506995,-0.0028535943,-0.010300237,0.010583916,0.0048716273,-0.0067838104,0.0014982331,-0.0047209095,-0.023518512,0.016791672,0.0030134385,-0.006958451,0.00031392276,-0.022857629,-0.00035709143,0.01570685,-0.008262391,-0.01007038,-0.013259726,-0.042341202,0.016268171,0.0136719765,-0.007071082,0.0020419108,-0.0011011604,0.00717625,0.030277828,-0.0067229457,-0.008079525,-0.020284869,0.005955981,0.0032413434,0.028106596,-0.008331407,0.0031588264,0.0039917342,0.019032799,0.021785429,-0.007574396,-0.0064786375,0.0036339527,0.0018049851,-0.006919662,-0.0015869215,-0.009351675,0.0038732253,0.0025512725,-0.0035247523,-0.0018484262,-0.039718263,-0.0059548914,-0.014851279,0.0031610876,-0.0031753331,0.011991689,0.007931687,0.010034843,-0.018250905,0.0027093114,-0.015530071,0.0070257364,0.014547211,-0.00012103934,0.0050831623,0.00021521794,0.025475971,-0.008209808,0.001808837,0.008366786,-0.015379423,-0.006796267,0.007930465,0.0031201653,0.023068387,0.009293448,0.014621152,-0.004769303,0.0027847672,-0.0071466304,0.009290868,-0.004852708,-9.329803e-05,0.0102901235,0.0008673291,0.0070399893,0.0037454907,0.007176414,0.0058687422,0.0048693083,0.011654978,0.02055731,0.000878945,-0.011171798,0.005999769,-0.035129387,-0.013245682,-0.00314386,-0.011359474,-0.00616131,0.0027627177,0.014862642,0.005454871,0.015536562,0.003703571,0.0017652875,0.00018999167,0.0024721557,-0.01802102,0.018856632,-0.0035239123,-0.0046675457,-0.01878462,-0.0051329257,-0.022877786,-0.0024912646,0.0077739507,-0.0069701867,-0.020069802,0.0046791434,0.028476223,0.010740142,-0.006192051,-0.024437718,-0.008319495,0.00959932,0.014837844,-0.005141588,-0.0049844002,0.0141888615,0.007914066,-0.00014459714,0.0074943434,-0.0022785263,-0.031330146,0.00013440126,0.0016568154,0.0021121465,-0.0034208558,0.009465884,-0.007499827,-0.0024815574,-0.004726188,-0.0020078756,-0.0038092434,0.008908724,-0.02195801,0.0046645077,0.009366646,-0.0011874558,0.003018559,0.008108059,0.00028432813,-0.0055567613,-0.0048851757,-0.022096723,0.017667709,-0.012411114,0.011383282,0.015651034,0.0036834343,-0.005651128,0.012539122,-0.007534139,0.00080139097,-0.024045484,-0.010310683,-0.018487973,0.015482476,0.013860797,-0.0010649757,0.010445669,0.01079126,-0.0073718894,0.006152343,0.026452124,-0.012904765,-0.0066647436,0.033355888,-0.009697398,0.0034871986,-0.0025431458,0.018159907,-0.014756639,0.015569691,-0.003606882,0.024830945,-0.0017908495,0.00077767577,0.009215483,-0.0048787575,-0.026629759,-0.006161073,0.01743678,-0.00014146045,-0.015544636,-0.006588859,-0.007525839,-0.013271531,0.022273796,0.019590518,-0.014371111,-0.010166409,0.018566933,-0.007436811,-0.0055241976,-0.0024391643,-0.006073801,0.021816855,-0.012372762,0.006554302,0.012335207,-0.015352299,-0.0019559944,-0.0029635062,-0.012539869,0.033234827,-0.016286325,-0.0099553075,0.0033010785,-0.010261053,-0.01741264,-0.0013220916,-0.010600782,-0.021002533,0.021442264,-0.0045869704,0.0068526957,0.022209812,-0.01314022,-0.022920685,-0.005509857,-0.01451024,0.015112572,0.018437564,-0.01647032,-0.020723734,0.0025450585,-0.017066501,0.0026281495,0.011187235,-0.004350722,-0.01237167,0.016871016,0.020397075,-0.017955711,0.015414562,-0.010028832,0.002806915,0.0009938674,0.0039334865,0.003380686,0.015302455,-0.018047296,0.008908238,0.020908272,-0.0019013826,0.0072536133,-0.014841328,0.0021260958,-0.00944146,0.009057548,-0.014755551,-0.0034847055,-0.0071456116,0.017731326,-0.0007364098,0.011643036,-0.010967758,0.012600386,0.013085473,0.0038862736,-0.021966973,-0.01035526,-0.005586896,-0.0022646668,-0.0003069071,0.011166364,-0.003857296,0.01513657,0.0065288767,-0.032657668,-0.0046544783,-0.022771696,0.016528271,-0.012031608,-0.0019388646,0.0033005718,-0.017856844,-0.007050909,-0.007698558,-0.008282192,0.015087567,0.014654983,-0.0030275322,-0.005766712,-8.37734e-05,0.01131044,-0.01613565,-0.0058933515,0.010213351,-0.003936257,0.005173521,-0.008939538,-0.009179235,0.015988264,0.017645203,-0.0124888215,-0.00048029236,-0.010958236,0.017364245,-0.02243703,-0.011604302,-0.0041355197,0.004636924,0.008839682,0.013302018,-0.0008210279,0.0042229183,-0.00782094,-0.0034826463,-0.0007993132,0.008390643,0.00869477,0.009380616,0.029159866,-0.012843996,-0.002504482,0.011774765,-0.002690753,-0.0059055495,0.008300118,0.0068407822,0.008307025,-0.006550245,0.006047044,-0.0020083152,0.013099667,-0.016982367,-0.0136561785,-0.009711452,0.0026582722,-0.031672195,-0.018118646,0.017575173,0.013084149,-0.005595061,-0.012019983,0.003006463,-0.009127245,0.0032413872,0.0016907924,-0.01848934,-0.006914879,0.0037698038,0.0031658364,0.007286122,0.02058025,0.010227472,0.01613748,0.019476179,-0.00438657,-0.021805806,0.004114407,0.006883624,0.01469136,-0.012782365,0.00881017,-0.009289103,-0.013350891,-0.0017222092,0.0008223895,-0.0056492686,-0.011686856,-0.0110770445,-0.020948656,0.010433865,0.0013776157,0.011707554,0.009095751,-0.004183309,-0.0058291024,0.0043880567,0.03122781,-0.013302974,-0.014034614,0.008302374,0.00095679285,-0.012059966,0.003949971,0.014785747,0.0047164336,-0.006631368,-0.0042244466,0.0028435085,0.00061815605,-0.017404376,0.020332493,-0.018585108,-0.0019154362,-0.0054608444,-0.00058959145,0.013201637,-0.0056285365,0.0034653582,-0.0071059526,0.013879931,-0.007336381,0.020369694,0.0033702045,-0.013739375,0.015157219,-0.011025782,0.025597801,-0.0067901947,0.0047160666,-0.007190915,0.023772815,0.008302096,0.0019437671,-0.016750135,0.010633202,-0.0051130266,-0.015944378,-0.011845475,-0.021309813,-0.0025846632,0.0018935623,0.0030081691,0.006931904,0.0071321046,0.001087727,0.013011796,-0.010553937,-0.002556879,-0.006813589,-0.0055873394,-0.011301992,0.024869503,-0.016344225,-0.0073382333,0.0055345464,-0.021227803,-0.0014013238,0.0016476046,-0.0023124553,0.025027433,0.013102487,-0.002476681,0.012497012,0.0037707584,0.00094396994,0.0019249755,-0.016309237,-0.008610903,0.009280797,0.011947967,0.0088682715,0.008435809,0.0001742309,-0.017087163,0.0184647,-0.017899973,0.022071239,-0.0065679643,-0.011323773
Chilpancingo,-0.0056799427,-0.006139744,0.0004587043,0.00077868253,-0.003516342,0.021242732,-0.0013838932,0.0069702016,0.019076161,0.00086872326,0.022187687,0.0028849207,-0.0022758245,-0.014040921,-0.012370033,0.010085679,-0.016259458,0.0057170084,-0.0056867246,-0.00097336806,0.010408024,-0.0043544574,0.0062820707,-0.023843693,0.011447383,-0.0224973,0.0046817865,0.015722886,-0.008795671,0.02034577,-0.0017631188,0.023846604,0.009597879,-0.002684826,0.0027981326,0.009990692,-0.008938415,0.0016484978,0.01389478,-0.011389829,-0.020641334,0.0069380663,0.00908367,0.01071208,0.0009520948,0.011113857,-0.016105643,0.009692561,-0.018530287,-0.00038492912,-0.0004112143,-0.019410636,-0.0013884306,0.005965705,0.014466558,0.0012689661,0.009289121,0.012428962,0.020347495,0.007195607,0.0013405131,-0.0015787566,0.005456347,-0.007615762,-0.028322116,-0.02089929,-0.02642832,-0.00090270117,-0.002943243,0.011483422,-0.023976948,-0.0027372208,0.017072998,-0.007408904,-0.026808966,-0.015110973,-0.0043276893,0.008392347,-0.008917152,0.013009698,0.0018482422,-0.017742015,0.0065127015,0.009390622,0.01890729,0.0023276322,-0.016449152,-0.0058272984,-0.0033254921,-0.0027478095,-0.0056094024,-0.013682244,0.011024026,0.00093887,0.0028752387,0.017942954,-0.03417652,0.012413459,-0.011419577,0.016814688,-0.009202002,-0.011302366,-0.008382997,0.020453945,-0.0039558,0.009922695,0.007368598,-0.0013563028,0.010713628,-0.004525415,-0.00072011724,0.0055059902,0.0065405425,0.0048055844,0.008574095,-0.013662862,0.0047932044,-0.006146442,-0.030420361,0.011949565,-0.0087300185,0.010416944,0.023647957,0.004827814,0.0041199597,-0.017506517,0.008117618,0.020817019,0.0052406564,0.00087215006,-0.0118466355,0.019622201,-0.015822917,0.01080047,0.005076345,0.008331389,-0.0034296382,-0.0068229046,0.038575422,-0.010732299,-0.0046092737,0.0060236286,0.010935043,0.02033172,-0.010125749,0.010797134,0.0026471317,0.010401813,-0.02293722,0.017302264,-0.0005801227,0.012764521,0.030771015,-0.0019245883,0.0072644334,0.007883378,0.034464903,-0.016843762,-0.0012436425,0.004003059,-0.024043208,0.0012396779,0.0048227785,-0.008050142,-0.012723533,-0.02238286,-0.014022765,-0.0075442367,-0.012563421,0.005444962,0.0062087066,-0.014997749,0.012096718,-0.0011443179,-0.009676481,-0.0017197449,0.008167705,-0.020452183,0.0015573837,0.017134864,0.011178443,0.019949168,-0.006532288,0.033002604,-0.008797765,0.0017974032,-0.005154891,-0.003704792,-0.011187838,0.025552455,-0.0032386277,-0.00079473667,-0.019750075,0.017888319,-0.011040313,0.01571665,-0.015152362,0.021876823,0.029960897,0.0025884658,0.01787467,-0.01300212,-0.010460923,-0.010863813,-0.010641269,0.04273512,0.0035626106,0.019999208,0.008753157,0.0064431094,0.013860887,0.009130511,0.020702465,-0.02951058,0.0056353435,-0.0014178725,0.019053934,-0.017177114,0.011981508,-0.0069946814,0.0034671463,0.018899616,-0.013098516,-0.004346395,0.0074659637,-0.01672985,0.011587862,0.00043485127,-0.0062009254,-0.013888732,0.0029494846,-0.0022059921,0.019134296,-0.015292846,-0.013602655,0.02067351,-0.032288216,-0.018002719,0.015487534,0.022061206,-0.008839289,-0.0026309122,-0.0029489323,0.012458157,0.016683688,0.013084003,-0.0077429265,0.010462894,0.006215101,0.004126936,0.0032277405,-0.0022042426,0.021260364,-0.024544839,0.016563814,-0.019929646,-0.031223333,0.004292721,-0.02678653,0.0050292793,0.012023447,-0.002166571,0.03259919,-0.010369391,0.009274004,-0.0024671853,0.013630545,0.0026227525,0.0023745243,0.031337723,-0.03422374,0.033093702,-0.016818473,-0.0011626193,0.011585893,-0.019833386,-0.0074451007,0.00035062525,0.004302891,0.0014904686,-0.009828122,-0.009314649,-0.020873144,-0.001908794,0.002826598,-0.01174483,0.019369315,-0.02036653,-0.004152747,0.005968757,0.010803325,-0.013887532,0.0042237043,0.011079777,-0.024188537,-0.01003289,0.0017223945,-0.022233598,0.01156998,-0.0073878895,-0.008333223,-0.0013103783,-0.0149056185,0.0031580478,0.0072268713,-0.0049293637,0.0074250167,0.016658032,-0.0015614685,0.01897577,-0.008911118,-0.014947365,0.022839755,-0.01657546,0.028369207,0.025990937,0.029984616,-0.00040606037,-0.012942526,0.0025205123,-0.014926843,0.020974975,-0.025136262,0.0053418423,0.019615646,0.0146641005,0.020297496,-0.026738599,0.025190614,-0.006263951,0.005479952,-0.0019334867,-0.011754647,0.003358122,0.008573367,-0.010234004,0.0028434386,0.0006239624,0.02552754,0.020475537,0.0030129869,-0.016530307,-0.012761159,-0.01896273,-0.013505476,0.007456205,0.0005402751,0.0064668814,0.0037316661,0.0013292916,-0.04863007,-0.00904701,0.008744494,0.016061157,0.0061564986,0.0005247276,0.013034811,0.012207078,0.015454572,0.016466359,0.00909012,-0.012846555,0.02643088,0.015715295,-0.01806781,-0.0048491973,0.0043295696,0.0143820215,0.0052265753,0.014727,0.009046309,0.010642253,0.0041391924,0.008248786,-0.0026067244,-0.0071973093,0.0040405774,0.005147863,0.01657596,-0.003395848,-0.008986833,0.009961294,0.0120483,0.02234943,-0.0048108604,-0.0037386988,-0.015229767,-0.013691801,-0.011308654,-0.008932408,0.025878798,-0.0048398515,0.0019110432,-0.0036181584,-0.011029769,-0.017111575,0.0129993195,-0.0010964395,-0.016645752,-0.015814934,0.01887904,-0.010061396,0.016684715,0.0075922185,-0.0043648183,0.017171921,0.012037954,-0.009466369,-0.0053707566,0.013839259,-0.002073253,0.0042381734,-0.014345257,0.009474857,0.0073587457,0.0076170145,-0.00741594,-0.011740613,0.012844704,0.00747931,-0.019218115,-0.0023506852,0.005092183,-0.001286312,0.0058840355,0.029118573,0.0066082887,-0.0017984447,-0.00317745,-0.0044346405,0.004259376,-0.01197416,-0.011113256,0.002721575,0.0071121645,0.0024415045,-0.00061073713,-0.02750839,0.0064774873,-0.014202321,0.024331708,0.006452732,-0.027999975,-0.00147257,-0.008537985,0.010801245,-0.003176846,-0.0040274384,-0.011127586,-0.0059238803,-0.030294534,-0.0118428,0.021713844,-0.012092388,-0.033054218,-0.002261886,0.006545824,0.021417174,0.006114443,-0.003341686,-0.022018313,0.019243244,-0.02142267,0.033743516,-0.0047922255,-0.00057907216,-0.02669625,0.0062067965,0.0022504427,-0.007140873,0.0145790465,-0.0055047255,0.004621201,-0.013939736,-0.00011753698,0.021447826,-0.0006907191,0.001226862,0.008048026,-0.022515317,-0.003931416,0.014941046,0.01771971,-0.006106708,0.017778125,-0.02905265,-0.0042057633,0.0026853643,0.0013020914,0.015097218,-0.021167593,-0.020382281,-0.0032615568,0.010240331,0.019948613,-0.015833527,0.005351517,0.0021311995,-0.0022219305,-0.036200117,-0.0064944914,-0.0032232627,0.022294512,-0.008806693,-0.00374038,0.013624537,-0.010196802,0.0016171709,0.018882003,0.00280777,0.009280355,-0.012085454
Pachuca,0.0064871185,0.015557711,0.00132237,-0.0022083465,-0.0031684497,0.01532611,0.008028261,-0.0061652893,0.0030118935,-0.012985269,-0.013325915,-0.006073908,-0.012077916,-0.023612177,-0.008689229,-0.004876569,-0.0066327443,0.014412882,0.014551591,-0.004156526,0.017597474,-0.018377602,-0.0017352253,-0.014547178,0.011453744,-0.022086477,-0.0017322693,0.025914429,0.002235615,0.020292222,0.0040144776,0.0036437865,0.0062582027,0.00185946,-0.01803548,0.0007813806,0.00040943548,0.0056571304,0.009812588,-0.01172846,-0.02037018,-0.0046294965,-0.0066130683,-0.006577667,-0.0056741196,0.0070794104,-0.029209457,0.009038363,-0.021831272,0.016630022,0.0024662903,-0.01821469,0.024047712,0.011554867,-0.0075381007,0.00616388,-0.016625637,-0.0044332203,-0.017538134,0.01016248,-0.0020918492,-0.00037063938,0.010836885,-0.00949702,0.00047405344,-0.0042598136,-0.023321442,-0.015935432,0.013007188,0.01270428,0.007667173,-0.0068547884,0.013901848,0.010121556,-0.015530914,-0.005459956,-0.010850352,0.0021908507,-0.00060071796,0.017763339,-0.006581318,0.011150967,0.012868026,0.007866664,-0.0061680675,-0.017306786,0.00364694,-0.005018644,-0.0009849546,0.0062131328,-0.012679601,-0.0050608614,-0.0010281713,0.00016862527,-0.002692821,0.009831836,-0.023507135,0.020197265,-0.0076630525,0.014076225,-0.0073307827,-0.0038594287,-0.009167964,0.010188965,-0.008042945,0.015096959,-0.0013390668,0.027424635,0.012026712,0.0052576624,0.002562752,0.0039033985,-0.021115586,-0.008310578,0.0050393865,0.0043213814,0.005013493,-0.011047992,-0.016673354,0.007847397,-0.0077100163,-0.015402331,0.019132175,-0.0061494447,0.006754823,-0.0019848794,-0.0071380213,0.018601013,0.016242484,-0.006152478,0.01682457,0.040690497,-0.011213098,-0.0014726501,-0.013589284,0.00895616,-0.0011441503,0.0028639594,-0.025449665,-0.0043239566,0.0074391603,-0.027009979,-0.002095865,-0.009865277,-0.004320672,-0.007022243,-0.0052339006,0.00023953384,0.0005975794,0.0026869513,0.005892451,0.01722336,0.004466002,0.0049412195,0.0154498145,-0.003270723,0.015244853,-0.0016340949,-0.01706278,-0.015584832,-0.019642487,0.01364444,0.0016621919,0.0031181332,-0.0036708566,0.0044953264,0.023816008,-0.020224897,-0.012768986,0.00053955056,-0.011048853,0.010581727,-0.010008162,0.007258175,0.004777507,-0.0024210855,-0.0065811416,-0.00838832,0.0029548742,0.00593167,0.004493147,-0.008410353,-0.028090581,0.006472255,0.005110439,0.0032336698,0.0058802944,-0.00031664595,-0.025885735,-0.0032600695,-0.007957634,0.01388612,-0.008100821,0.007378822,0.011736684,0.022734983,0.0007884428,0.016638052,-0.0021919804,0.0074665463,0.0039461674,-0.012649367,0.006704063,-0.015555885,0.020128476,0.011217043,0.014553562,0.028039882,-0.0062659765,0.011732608,0.0041927565,-0.019922512,-0.016358878,0.0020494845,0.0065537654,0.0048793126,0.019818086,0.01518118,0.012351105,-0.00050234795,-0.018400192,0.0031779073,-0.009016287,0.0020292066,0.0185638,-0.014542732,-0.009908115,0.0037160926,0.005771652,0.011495057,-0.0010122154,-0.02534481,0.028243966,-0.02040645,-0.00059203897,-0.0050070737,-0.022705022,-0.025158638,0.004411538,0.017420191,-0.011769626,-0.008258826,0.02052205,0.0156884,0.0023231898,0.016367905,0.0083100125,-0.010110961,-0.009241057,-0.0033415155,-0.0036472888,-0.016036801,0.002936746,-0.0113811055,0.0046455115,-0.010437081,-0.0064367093,0.005736273,-0.00665114,-0.0050336216,-0.0030741603,-0.024666075,0.014343677,-0.002800827,-0.030188208,0.012187868,-0.010501943,-0.011187128,0.0026795415,-0.0005981503,-0.0039482713,0.0031339973,-0.017610589,-0.011553221,0.013500706,0.008992786,-0.017269917,0.005896668,0.01105893,0.0045256903,-0.004754156,-0.040287327,-0.023928918,0.010801101,0.00095235277,-0.0066110324,0.013241958,-0.0068956036,0.017560882,0.0023055468,0.013689663,-0.016358832,0.019985257,-0.01914084,-0.0012759641,0.02439848,0.016536716,0.0045820847,0.028336069,-0.003723099,0.0045513986,0.004591765,0.0067474116,0.011568729,0.006012193,0.0058695097,0.00081129745,0.009588653,4.5703724e-05,-0.02558903,-0.0155513305,0.0027505076,0.011758208,0.009299084,0.0051403334,0.00038431352,0.011465102,0.0019347607,-0.018118137,-0.016604489,-0.0015169805,-0.0020593498,0.0006581303,-0.0042460896,-0.0033965036,0.019784907,-0.013501262,0.0011164937,-0.0028652847,-0.00828866,-0.007378663,0.006494351,-0.006304497,-0.010521064,-0.0028756773,-0.007851523,-0.012427933,0.0002370933,-0.006984744,0.0019287271,-0.00069930684,-0.009678562,0.007837204,-0.01181588,-0.0048877373,0.0007741605,0.0073022824,-0.017857473,0.012562741,-0.01491163,-0.016252557,0.014983676,-0.0069234483,0.0036830595,0.0017835535,-0.021127801,0.0008392548,-0.012078788,0.0020388067,0.004493434,-0.0124127325,0.002793461,0.009686161,0.0016371384,-0.0026278205,0.020892713,-0.014783886,-0.00958364,0.022529123,0.010489634,-0.001413472,-0.0016530156,-0.0019473061,0.024766851,-0.008103025,-0.016683515,-0.0061736675,0.016916398,-0.005062027,0.0037920382,-0.012352712,-0.010627929,0.015501552,0.017402885,0.002091459,-0.003450926,-0.011143643,0.0018219417,-0.029241038,-0.018641368,0.0025875904,0.0014662342,-0.007644552,-0.011263175,0.019163165,0.01453767,0.00093008764,0.01077454,0.0014486387,-0.005508166,0.014941513,0.020813676,0.017622516,-0.004138042,0.0031101443,0.004906273,0.0061115297,-0.0065250406,-0.01599992,0.009544915,0.0045494186,0.012581356,-0.023961442,-0.022851791,0.007879526,0.0025314495,-0.024114186,-0.007043844,-0.0010709178,-0.009842144,-0.00095691904,0.012046047,0.010376754,-0.010832292,0.012068233,0.008631481,0.0046601165,-0.0039969366,0.00015960773,-0.0040322784,-0.009273254,-0.002477184,0.008494976,-0.0005964441,-0.01787537,-0.0029574716,-0.0037230137,0.0044713765,0.00017570332,0.026023258,-0.0011614133,0.019664966,-0.008440349,0.01542595,-0.010554925,-0.011989264,-0.017079521,-0.007351164,6.436091e-05,-0.015719138,0.009407736,0.008839918,0.021814702,-0.01178925,0.0071529048,0.0017756247,-0.014348208,-0.0018590353,-0.005607963,-0.0020203963,-0.0049459953,-0.00485533,-0.002242539,0.010626044,0.009371427,-0.010533027,-0.0061561055,-0.015108284,0.009299066,0.010302978,-0.001853779,0.0049874224,-0.00026261853,0.008881563,-0.0073406277,0.004906135,0.0100275185,-0.01117753,0.009770871,0.0019311644,0.010426717,-0.011540176,-0.0150472615,-0.0033879208,0.0111814365,0.00019881502,-0.0044278093,7.837219e-05,-0.0006727688,0.003833156,0.005449836,-0.011818742,0.02251355,0.009421965,-0.009614352,-0.016785279,0.006294474,0.0023720348,0.0041780956,-0.0053967554,-0.0011716369,0.0064035635,0.013556164,0.00859089,0.00036507007,0.010618326,0.00618229,0.009030843,0.003823909,0.009023624,0.021242015,-0.034984827
Guadalajara,0.004331152,0.016773019,-0.00025081728,-0.010455666,0.010765666,-0.004336224,0.003446043,-0.010798816,5.14891e-05,-0.030619211,0.0003870828,0.030126197,-0.0057218047,-0.007248585,0.0043695355,0.0051493235,0.01958625,0.006483108,0.010006856,0.020066915,0.035295933,-0.005260324,0.022344511,0.009052675,0.020041343,-0.038777106,0.009846692,0.0030978639,0.0045147687,0.0017074458,0.011037234,6.424263e-06,-0.0075942483,-0.005412083,-0.01017127,0.00844155,-0.004231604,-0.0055608368,0.008717194,-0.035671093,-0.030043002,-0.00397148,0.007713572,-0.0136309825,-0.0034799743,0.015146707,-0.026724488,0.010065101,-0.0064249095,-0.0036336845,-0.0028651608,-0.0065648057,0.0010248702,0.003480874,-0.0035257535,0.002168402,0.00055089965,-0.015343392,0.0003333924,0.003922375,-0.0055893897,-0.014331061,0.014710283,-0.013217516,0.0018319152,-0.027563367,-0.02694852,0.012593347,-0.0036267894,-0.0006634863,0.007711702,-0.0069951387,-0.0150931245,0.016925165,-0.016126715,-0.009945795,-0.012955714,0.007507352,0.01948575,0.012386886,0.0060213124,0.0013654362,-0.0064701186,0.010682641,-0.00799913,-0.012579714,0.008600938,-0.0065275654,0.0015158495,-0.012377435,0.00041984767,-0.008190278,0.021307876,0.012920577,0.008859846,-0.0028413665,-0.0053274203,0.017463403,-0.0021756096,0.012465093,-0.020380858,0.0037034666,0.0034726318,-0.0030969782,-0.0009827763,0.018425042,0.024308555,0.01274225,0.018983047,0.0077734003,0.0016420381,-0.009906195,-0.004701592,-0.009402591,0.023756258,0.008208416,-0.0072099017,0.0027679084,-0.02015604,-0.020814497,-0.012627168,0.013680872,0.039835133,-0.020234162,0.021064453,0.01387508,-0.011303656,-0.0124900285,0.027305137,0.005080503,0.018209364,-0.0047877673,-0.029450752,-0.006208348,-0.0056223385,-0.0019759033,-0.0011316631,0.0004259348,0.008249266,-0.008484619,0.011295433,-0.003185153,-0.016684188,-0.000531259,-0.022106422,-0.0049072234,0.0097856335,0.016175626,-0.01817232,-0.0013287105,-0.0043912395,0.024304561,-0.00064124074,0.00018629525,-0.009387218,0.014435466,0.011712702,0.0022670068,-0.023620334,-0.025481716,-0.015259869,0.0231122,-0.0074639656,-0.0018764725,0.0049826894,0.005525667,0.03292846,-0.0036665844,0.017444242,-0.011954519,-0.011990162,-0.00084626395,-0.017213661,0.011201942,0.0020479402,0.005678743,-0.001780659,0.0036913045,-0.0029166695,-0.009882942,-0.012550201,0.024655832,-0.00053953286,0.023763636,0.013362488,-0.019199343,0.004055078,0.0010668878,-0.030338068,0.031193608,0.013431036,0.0070849117,-0.022364885,0.020703211,0.014606771,0.01635604,0.00085984124,0.013373722,-0.009142767,-0.0059509063,0.007555038,-0.025935195,0.011627551,-0.019992545,0.029931666,0.021766122,0.0038773778,0.010352856,0.0074016144,-0.0015504695,0.010148151,-0.025345096,-0.021519633,0.008434133,-0.0032679383,-0.011180993,0.013354953,-0.003554657,0.02007553,-0.0021855514,-0.01272079,0.001335958,-0.008860772,-0.0028918944,0.00038054585,-0.011585911,0.008114016,-0.007518366,0.00701401,0.0046986397,0.018829772,0.008973736,0.024843955,-0.012710024,-0.0050420146,-0.0028292462,-0.011139393,-0.011446789,-0.009150935,-0.0071643507,-0.009851078,-0.03500957,-0.008525742,-0.00017399061,0.0050409716,-0.005671907,0.0046179444,0.0007917946,-0.012727927,0.011505995,0.009667711,0.006748941,-0.012505319,-0.009632712,0.023994248,-0.003498937,-0.019553991,0.021725945,-0.014195753,-0.015148701,-0.016782109,-0.015338624,0.00039522722,-0.0009050807,-0.0162351,-0.011431638,0.020191712,-0.012182479,-0.0016944837,-0.0032505859,-0.024153853,-0.01805038,-0.014100365,0.00069122575,0.014013959,-0.0052763056,-0.0011880463,-0.017949067,-0.027770352,0.0049402937,-0.010742979,-0.024429359,0.0033830032,-0.00060019176,0.004835177,-0.0061078556,0.005626318,0.01080372,0.00030738255,-0.0016056746,0.011651613,-0.03938143,0.0069570104,-0.01936505,0.014233548,-0.0064429482,0.007736016,-0.0055950135,0.028138995,-0.025373533,0.007269562,0.015176416,-0.009482894,0.0004460886,0.0088073155,-0.0147514455,-0.0035738256,-0.0061908895,0.003350746,0.0039385045,-0.0016678823,0.009763788,0.014780704,0.0042029102,0.009177458,0.02462131,0.018679496,-0.011143635,-0.00039742235,0.005405411,-0.01068651,0.023275966,-0.0097509585,0.00065404363,-0.0040180134,-0.0018948438,-0.02135523,0.00071038306,-0.00801673,-0.011968194,7.779151e-05,0.0007694722,-0.012940817,-0.025930453,-0.0029165593,-0.00096872076,0.0019465014,-0.011077603,0.021204501,0.010190504,0.0037565734,0.0029414084,-0.0032877466,-0.0025806017,0.010456929,-0.0009767376,0.011871556,-0.012362352,0.025632018,-0.016082287,-0.0182563,0.0069163945,0.010328259,0.0085563585,0.00011989474,0.003168717,-0.00446595,-0.015085724,0.022704024,0.0045647877,-0.0011766492,-0.01362209,0.0013669804,0.0021681404,-0.0013083699,-0.0080643,0.0043614684,0.005345884,0.01475502,-0.0104105435,0.0023206063,0.016721945,0.0047169654,-0.004159487,0.00014921278,-0.030951617,-0.0077491263,0.01187722,0.0024337163,-0.008265011,-0.010498978,-0.016506191,0.003819298,0.0058871023,-0.019174187,-0.009575428,-0.0069128377,-0.008888669,-0.028540477,-0.017218122,0.0029131123,0.011910454,-0.008199746,-0.013946557,0.010457044,0.002863124,0.010551499,0.010397844,-0.00642044,-0.011859771,0.013339611,0.009194,0.028004572,0.013985949,0.0032947129,0.017170038,0.010357346,0.013890109,0.002490894,-0.010227227,0.00451137,0.027287206,-0.0042748386,-0.008692658,0.009752949,-0.003819652,-0.021969736,0.0017299261,0.011011439,-0.012215314,0.006343019,0.009439076,0.018563876,-0.005259688,0.027851643,0.0016444549,0.019669369,-0.0130094625,0.010865322,0.019316452,-0.0022131214,-0.019605456,-0.020939915,-0.0048789214,0.010747737,0.022661991,0.009182047,0.002777407,-0.003555742,-0.0047441134,-0.004666351,-0.0068624867,-0.034836553,0.022379007,-0.017670736,0.006951006,-0.0042922953,-0.014595434,-0.0035722787,-0.008463097,-0.015515702,0.01825313,0.019224986,-0.010403128,0.00057859067,0.0064486125,0.0069914535,0.0046788603,-0.019119026,0.003027182,0.0006652549,0.024823412,-0.012824796,0.016765798,0.021025222,-0.008114947,-0.011723068,-0.016829275,0.00045442535,0.014477819,0.0084292125,-0.00047700666,0.013442619,0.020760063,-0.010883905,0.014383748,0.013579914,-0.014407618,-0.0036605494,-0.0129045695,-0.0018833373,-0.0061473683,-0.001797704,0.0035931184,0.02130406,0.00563287,-0.0052716043,0.005427457,-0.0030602347,0.014659472,-0.011878064,-0.0038895644,-0.006116098,0.01137751,-0.0065559093,0.006602643,0.021630585,0.008614811,-0.0058477735,-0.0073426142,-0.0052915243,0.0013684146,0.013103187,0.0140322,0.00092585944,0.010768171,-0.012838971,0.015169299,-0.01437843,0.005979225,0.014384955,-0.049837325
