capital,0,1,2,3,4,5,6,7,8,9,10,11,12,13,14,15,16,17,18,19,20,21,22,23,24,25,26,27,28,29,30,31,32,33,34,35,36,37,38,39,40,41,42,43,44,45,46,47,48,49,50,51,52,53,54,55,56,57,58,59,60,61,62,63,64,65,66,67,68,69,70,71,72,73,74,75,76,77,78,79,80,81,82,83,84,85,86,87,88,89,90,91,92,93,94,95,96,97,98,99,100,101,102,103,104,105,106,107,108,109,110,111,112,113,114,115,116,117,118,119,120,121,122,123,124,125,126,127,128,129,130,131,132,133,134,135,136,137,138,139,140,141,142,143,144,145,146,147,148,149,150,151,152,153,154,155,156,157,158,159,160,161,162,163,164,165,166,167,168,169,170,171,172,173,174,175,176,177,178,179,180,181,182,183,184,185,186,187,188,189,190,191,192,193,194,195,196,197,198,199,200,201,202,203,204,205,206,207,208,209,210,211,212,213,214,215,216,217,218,219,220,221,222,223,224,225,226,227,228,229,230,231,232,233,234,235,236,237,238,239,240,241,242,243,244,245,246,247,248,249,250,251,252,253,254,255
Aguascalientes,0.6328723879002346,2.4799314909095322,1.1760231437056294,-1.083140949965205,2.047260992693219,-3.1763558036794475,-0.9352178075854278,1.1338642407642188,0.5695795080230901,0.5594835528355897,-3.6392558947184765,2.3863010665460056,-5.070365756980599,0.9448834402535591,2.759822823626167,-4.4254028389324125,-0.829028737688217,-5.2362086604076445,1.974468377938209,1.9364342880892091,0.9798677743890224,-5.02659236768444,-1.7560590678083656,-0.26342313053556676,-2.57720309587231,0.9652273406468816,1.9160619585276666,-4.208490114939588,-4.684118720429608,-0.4712204742938891,-0.32106420700162874,-2.5983319023504468,-0.8382303261782456,1.1414312284442105,0.5682112679532867,-6.6850480542488855,-0.2860992164765208,2.3273055554277264,0.34034062675902965,-2.167269356537314,3.2718375639668142,4.875357083689062,-2.9286897559323757,1.6096256240306481,3.2566764702769175,0.9117360404982252,-1.9083580586329545,-1.8493767053422885,1.9339601333894605,0.5431710870571398,2.507223686791244,-1.4502947722735193,2.5094771502927036,3.7324812877553906,-2.596033912550727,4.631315629228653,-3.042140364735819,-2.7398274532978553,1.516102226813213,2.307563320918322,-4.956129754576821,-2.458002515793185,2.163968388575129,0.07067979701602142,-1.3859612324847603,3.7323729084126547,-3.2460323601704935,-5.440207468564975,-2.3022902976595248,0.9715091198115764,1.9789677044272231,2.3480497414002417,-1.5733733775077048,6.224922035081872,2.2377584819075826,3.396762379153341,-1.7733930026700253,3.0366299390274545,-1.0674036141148309,-6.566841895889107,-3.700589096460435,1.2852689162216693,0.25990122818991296,4.283309328514489,-0.14907765762097894,0.6196615699132385,0.11567398861982342,-0.6059419184970549,-3.0261294432935437,2.7030511643870545,1.0712518051597757,3.385443613548521,1.9752374842980456,-0.4791911328686843,-3.0977572323544056,5.305025108735391,0.9594989833806085,-3.891507882713535,-0.2144519361103363,-0.21031635012156197,0.469176691967801,3.973196623641227,-2.0392127178662203,-2.7496003289844886,-1.602015312439873,-2.4869394433479726,-1.884241852394732,-5.679801243292756,1.7856718807481773,-1.7326880513702254,-0.545868065730226,-0.20869393687180704,1.642919795289806,-0.692799464026315,3.995426800874916,-0.2518166190166959,-3.8534150843287485,3.5038734512640834,-3.6046382720606576,-2.3504983470998004,6.706730213010426,-4.458718438686604,0.5868224200697586,0.46393450033133443,1.0655940092949203,3.3148520803552444,6.232156104751643,-3.72028379380585,3.701189794761798,0.24486943019321494,1.719702816916667,3.8660110409316903,1.029634920959224,-2.664024838960615,6.830640317005416,-0.5416235645829622,2.6913382863813307,0.13788785703462683,6.822479747776027,0.7471975813612322,-6.780953141146233,-3.1345637176181085,-0.06057935015155236,-2.931114544690635,-2.6165108700526725,0.7247376950213833,3.161213882603667,1.858649948804344,-3.495897959451666,-0.841882338493137,-3.345409833480876,-6.303503288664635,-0.0035008612063286426,0.9996810841087762,-4.409786042832598,-1.3960207448462034,4.2291405044478845,0.1335916588838735,5.631231612442879,2.9039670739553687,-0.46218824600905284,1.843424936682879,-1.0206989507194903,-1.603637917477705,-0.5759850562312052,0.22389545890835724,-0.6130953793250477,-2.5315982060204627,-0.8914195584015426,0.147593457546627,-1.7084490600058282,3.5101739601213695,0.3381321810191383,1.1898444844423741,-3.0161755588448997,-1.2917831026322861,-5.767871823805447,0.5214474084695959,2.313087454078353,-4.506165197227809,-2.4734619120092747,-3.6873343961492564,1.373960257092369,1.2246404878737955,2.418990630252057,1.7845742474500437,-0.7130804238741635,0.9061276360240431,6.820141697534132,1.2872178642206649,-1.0980492121706749,-3.5097245771171286,1.4199051548815373,-1.6246577679735492,-0.1374143821969891,0.7720872496177191,3.358333247525331,-0.9281524430940763,-2.9570321789189236,-0.7607177368069347,-1.3224517674367484,2.7155393177887297,3.2194761940292445,4.792732956684505,-5.05645770302214,-0.057271254989769066,-1.6708834163832444,4.598593167084798,5.617507254610205,1.0706270087602703,-0.036171865613423206,4.265053257197592,3.9745853435291574,0.08904994199344649,0.08042064231454255,-1.4197764101882553,-4.772887780187115,2.6414952576661577,-2.3756332834300338,1.0654013377643379,-5.3441690790488146,-3.655901122208901,-2.1199180190877733,3.2148131885710667,0.14096801893948924,0.4916985921827697,0.7433597997536643,-2.026383563313673,-0.6107440585734872,1.438146356369541,1.6487763767724624,0.19227664242388498,4.0518092212166685,-0.9271870159844405,-1.3282134209559788,-0.7188991939312938,4.818188825958267,-0.17035917967656583,0.7721098202013601,-2.8588194670283564,1.5870994471120847,0.749577581201316,-5.283139291005217,-2.210148682968098,0.6509621076940643,2.8567931515713476,1.0348804887160938,0.5632464273246957,1.1480387529441478,-1.8535375909206702,-0.6305505705882957,0.5677008716150059,-1.8625724505178016,-3.0063914099324927,0.7993664585322402,1.8454635860941546
Mexicali,-0.9211084625268259,1.7049842598472313,-3.3475006088553085,-1.8024979972015587,2.971238901726542,2.139546947971507,-0.18939543467468772,-2.613246735880801,-0.829957757217264,-5.381751605144789,-1.2804858876342469,0.626218177396774,-6.586695707409478,-5.897528947748716,0.8114794229558652,-2.257846068129492,0.1402824751614938,-2.063829217412239,0.9960502837763762,1.129481021481944,-2.58634313590024,1.3728611356296065,2.296765562658874,-6.27622844627044,-1.2585034152821168,4.530582394099367,-0.6578120848378529,5.6053793155941545,-1.1210283379833799,-0.07259120452171275,0.30377467892757165,-0.13080155348899783,-1.4235494549648202,1.2762906125463829,-4.059727929020641,2.887131202691838,-1.2486824667783605,-2.830530616542531,-0.10096071371703366,3.2020165945286814,-2.0107703736576257,-2.0309156549850407,-5.173766862182141,0.8800359361503979,1.0963253537986104,5.684225960405633,2.7106557621072382,-3.205260874371464,-1.7773050217211241,1.8408214265413494,2.7926549661800513,-1.2031429542554775,1.9593730910559166,-1.7218696016241877,-1.1304527365191328,2.629258501123758,-4.754020442214996,4.347268690839245,-1.893872075112423,1.3499353262671563,-1.716520307455362,-1.643771821198234,-2.330092532449119,2.7925482613156003,2.079760616131848,2.953303484827,4.308207519619744,2.9652194195900368,5.356836792502868,-0.41163590652291226,1.5030928942093817,-1.3821025163893643,2.3503187980108766,1.4894861391881618,-2.6488995428909874,-0.0007376484043896125,-0.8266469024258947,2.580257488406488,-4.416749400993102,-0.23371751153588152,2.7222283217570986,3.7740932647580134,1.678181813505554,0.3617350685834876,1.5049208681931616,-0.4731546715670502,5.4701849360691455,-0.6914925553739839,-2.740361588244456,-3.3642892838609937,3.5451441128979755,0.9899984700412882,-2.982893743145146,-4.548418200856527,-2.807761920122828,-3.174348981439013,0.7571487952593494,-0.3131282772381909,-2.395397919315439,-0.3094849381097188,1.8127589481077009,-0.9968204368376172,2.17360404531538,-1.5631412602890824,1.8194067923355393,-0.44678204338785765,1.4520949081740175,-5.088137572237477,0.5556793616073794,1.182638853516652,3.2654921914049266,-0.11064319237922993,-0.9037583830823724,-3.127528871060978,3.219599487669921,1.6351150112519994,-1.7564415954901156,1.4937296739679637,-2.749232418284495,-1.545750787252618,-0.011283172143730202,-1.1113182709356015,-0.30183437899091853,1.459720071289039,0.3170614221543073,-4.379995248732991,-0.29113210733935857,-2.4340992369379295,1.5866053333853674,2.5861044875653043,-0.1517993750329617,-2.2507049694541426,1.8757974539827313,-2.397667400346521,1.241484861657006,-3.2536243035160446,2.7638021278440714,3.6584515961053716,-0.35703488088314816,0.555596537888494,1.7748036447437665,-1.21692933970705,2.8887240908298457,1.6647592511354552,-0.03157833364354534,3.2339541142828616,0.49087346987886715,1.6748824947534007,-1.732401043664229,-3.5265803137428793,-3.5494564031898266,-2.3845648325368485,1.3139253825312365,-4.2039785660675,2.3054451173724497,-1.5079329334146119,-2.7710524666638676,-0.8827526614660797,-0.88549658860977,1.3989098288128077,-0.2184380733053497,3.128800828831458,0.7717561159524734,1.1082348388784709,0.7156797909486702,-2.8060883447149085,1.98574840029212,1.0801580462735694,-1.958623412883815,0.4179284673306656,0.41532956445428093,2.552241682191683,-3.6983804305767545,4.766795847912443,-3.348580083622779,-1.2290960938215323,0.14233081161986091,0.4984515070014136,0.6491511725622415,1.4951847274945096,3.079187343513583,0.4417225648309689,-0.8079305112849604,-2.58452129973622,-2.4225900863484466,-0.6187570285166353,-4.685441989185188,5.445068214928428,-1.4995592497741541,-1.4091714151318457,0.2039366217997361,0.5916538832400081,0.2720727245711128,2.2890454124691058,2.192171764260026,1.8270621754084204,-1.7612770112991196,1.4634269161337548,-0.2831215617232372,-4.21501110399808,0.4883930845873784,-5.028359988208368,0.15892587540700676,2.104932406968805,1.0577377825923284,-1.072674563619634,-0.15965998721597557,3.576968991170923,1.7080880280243143,-1.2000849607601345,1.1218505479222067,-1.584181388094986,-0.9006703610414436,0.7770974374881421,1.7850509337084586,-4.320556316304166,1.9767642352120864,-0.5884881787596303,0.011889514492941969,-0.8266224632084953,1.7465964740221567,2.6720379256217583,-5.132644574946221,0.05646676086874275,-1.6813280078958792,-3.1793604680092047,1.9729228345299075,-0.8151596186869747,0.6414939388600511,-1.0768251281954864,0.22576139215484825,0.23216980283786687,-0.5299736607285923,0.21081616574378298,-0.21744642650426693,-2.31764748842372,0.7702129518659473,4.380346227091104,3.8394641810934234,2.545143775538014,-6.261059255734768,2.7425491924379735,2.126238261843647,-0.758453415908568,-1.6594945427239636,-1.5973206106145919,-0.9223233209316736,6.169978274716572,0.5034876060054604,3.3317547093646516,-1.0195070296586208,-2.010387065164051,-0.672979026867395,-4.803248530854553,-1.3041974939723102,2.6745212950759374
La Paz,4.204711383384685,3.9399151731278743,-0.7231655644095432,-2.3364502767400657,-0.5224195678563941,-0.0689545465696279,1.9465790375439476,1.0331817933667204,-0.06317228538493672,-3.1385264073554744,3.1937367557715897,-0.288176781489647,-3.604030836916119,-2.7227669007328292,-2.008150512328162,-3.5272808204091364,1.1433752434711058,0.23976784152825567,3.2482624243422396,1.8168141809959595,-0.6897121817646084,0.674386483544926,5.467858243343761,-1.298520677704614,1.1707003312406357,0.1360300968646555,3.925064271215293,1.3405980802574153,-0.4286604770139577,-3.5333542214663662,-1.3118941465021567,1.92621578425408,0.8456717823855319,-0.6641956484270015,5.62551790147317,3.433985099296271,0.2599182049310878,-3.1584029372724087,0.27789988527053106,1.7006472509336683,1.1096761408887992,0.7165359735516013,-0.6181783866720195,2.245192646660019,2.204866578351307,8.108685028242114,-3.6934015718151367,0.9891370464805517,-1.8002435883148462,2.1501856123424328,-0.12356485347277568,-1.2074023770597684,1.2159485090339104,-1.5386925308999095,1.5569710350366823,2.438966303462854,-3.257596502360852,1.3997122385799685,2.2976991129190107,2.52392210574791,5.371261892267408,0.5331011101619606,-0.5384502979299449,-2.230235700503043,-1.095494454943556,-3.110440926965093,2.4188616041075006,1.727645982047142,0.07500942464400062,0.4856877084734902,4.4267356646052916,-1.0266571431454552,2.639226162926878,-3.1641370461594738,-2.9907604035841904,-3.5381588469911565,-4.318536900241465,1.718153739325773,-0.42246297178264786,1.2353558420711175,-0.5607676974724614,1.5508935477687962,4.215429613620667,3.823247593977682,2.7281848465355845,-0.08915887308213419,5.159332126698357,-3.5501985929481195,-2.898840313655869,-4.333631088563109,-0.37133584985787127,-1.05079432498946,-2.061608792991298,-3.4574971447011915,-2.77665999764047,-0.8196740483582957,-2.2195355671354484,-0.3805454803838328,-3.34394231229948,-0.6933496358913692,4.287513833251888,2.8071137945471065,1.73890807577631,-4.821072611080596,-2.357411055386046,1.3175280881074372,3.3197669103135525,-2.5490064897746016,1.4593270211157408,-1.7785222820558084,-0.9875964055578716,-1.3885391426122409,-4.342876030196481,-5.536392524803072,3.8179882000023113,-0.004051067769105909,0.3317875347211242,-1.2838307568902854,-2.5834728088387715,-2.3852345483261685,1.4232482998374063,1.8481444487572554,-2.908529307231145,1.031602206657683,1.6263015886142758,-2.8636687931667506,2.214724194674041,-2.4370038051026155,1.7062078479224012,2.248731696837904,7.613813691572198,2.012989986989327,0.908627746561153,0.15346456298041738,-1.8155880088539402,-2.2047559491557345,4.602441792635496,1.9298818305432741,-0.3657572837505835,2.4410145194055026,2.725555584141606,-3.2713989454107164,3.9227843402295894,0.0884390623776387,-1.4578173154962215,0.20236608283614133,4.640691357051326,-2.830784191678269,3.1403597962533603,-0.1341168321750963,0.30846110692738204,2.4298677871131638,-1.9189301992404206,-3.389595045475062,1.2317598465313122,-0.709447492431287,-1.929202742690197,-0.5423239245354414,1.340073749138524,-4.600373370933865,0.613244138115635,2.3414114810496223,0.2068306704361691,-1.0039707407102219,-0.49533431791794,-0.5319742097258905,2.6841219134507854,-0.8170017342218544,2.201560477055291,-3.4984235935892745,-0.21777427917232578,3.0194490671249925,1.6665926825498092,5.59091868302593,-1.3770315293541304,0.9453410980501952,6.206236271321307,-2.6507820126878023,2.083129333593562,-0.7266840464977018,6.2800873362923495,2.7541924865817133,-0.2582192392885756,-3.139554404845761,-0.7263474856366471,1.9357205173941527,-2.8427563910154534,2.758554299181219,-3.4157599822754334,3.6805380362070483,1.3422332772499164,2.220500521397005,1.7579185030598146,1.278195081206528,2.6028543579909136,-0.7987019509143607,-1.2338912449039365,6.2431211487672575,1.2157746865432708,-2.5762685880451217,-0.19258416494765007,-4.098559190827795,-0.5714573145104827,4.205937758117733,-3.8821154802069806,0.7585649706049377,1.6888908294516392,0.8640001124093108,1.1236108841612156,-5.784679837326406,0.3867442287831302,-0.8996054025020813,-5.667266123690241,0.5029889345165394,6.2766748861016435,-3.5798631429309307,2.5436244436476194,-3.014124029624268,2.3211432165224286,0.6396847857386414,0.06415808865839434,2.640958726421212,-0.26178800511540967,-0.8310847232260555,-1.5275466102930357,-2.4796016718000518,-2.5566190027227815,0.7854494491688351,0.9483316111414204,0.06921296971602595,-3.267365919026607,-1.2594190744838778,0.6760052054309683,1.337542493845001,-3.4121878877836593,-0.39771710863671644,4.034564278938354,0.6544170485659984,-1.7935128427911367,2.297241945496215,2.2741169893369877,0.23659476442719488,-3.0117854605665895,0.5489708165852363,-1.122285182573382,-5.554168836001592,-2.0726512884363615,4.804032983495617,1.1500383866503499,5.407488317589251,-5.920339999071189,-0.6427514265118058,-2.8576415931234314,-2.4970986452010586,0.9077766205050146,1.5779923316369509
San Francisco de Campeche,1.5543810501003246,0.9993821154108171,-0.02508391434750512,3.052580638343257,-5.604938026564272,-0.46984700682315506,0.7116789577876367,2.4350803358615636,4.413366096453073,0.2497303552269855,3.1898417784996673,-0.9307865051375125,2.5829472804087006,3.2716375275301566,-3.750429126890003,0.26139333826760514,-1.6022164821283775,-0.6902108557840286,2.2598003511643956,-0.9939486148715635,-1.3847970187483836,0.011348690753587465,2.849352102143711,-0.7661292026900083,2.1644041744022857,-1.116784252594368,0.6716687226601428,-1.2492074688039927,2.964792916092149,0.28744396438526987,-0.2608490718045044,-0.09304638400443355,0.23923108074906213,-6.394526086550279,6.403535433285426,0.08724484595152282,1.5345088752072418,0.8536521354311966,-0.3091776177633512,1.7154578110956151,3.8245465385822817,-2.1962362775056463,1.0074038951516608,-2.066306024971627,1.0725913763245847,0.0891496968081707,-2.9860040226500235,1.5483228741766775,5.7042917158613395,2.7392301610371037,1.6854011695756033,4.023824213078213,-4.422116740033997,0.176814274293351,0.7297366930794237,-2.9896744433445948,2.7926971084297167,-1.084089741782158,-0.6611490026817741,-0.5581644541599996,4.673577535912266,-0.17409140906083612,1.1991894533900354,-0.9659940398272427,-1.0717730075233227,-2.6348849131692567,-3.0612602353815257,1.06670576800018,-5.518625291802744,2.6877212206118433,0.13878700198945304,5.387826175317242,-2.9805283674054723,-2.3996395088765574,1.7956925610018721,-2.604625776248635,-0.8809073356501816,4.016249904284553,5.668943932179533,0.9859212540785496,0.10236586430507177,-0.7169908107880467,-2.338805594543291,-3.463325662692044,0.4826822906059854,-2.097730865861183,-0.17630488042483183,3.0391771375773837,-1.3458442177747099,-5.50933813390962,-0.6719282520262264,-3.9325295949426042,1.6887816965192062,1.0877863588213597,-0.9401265223098045,2.7911347437592946,-0.5073086861201154,-0.2728481217291395,1.4122081353685207,-1.4659667618038392,-0.9824771141464019,-3.2103442302855543,-4.378863163906835,-0.49433564391571494,-3.4975440282289454,1.808840993209964,3.525806377016544,2.123745722958806,-3.864478659262776,-0.9003485165860734,-0.7909854275225968,-1.5733597322201232,1.239057646552211,-2.9771017191967224,1.1624400486816828,2.7455584717263686,2.93689970851071,-2.076026897127005,1.499367627221277,4.1767837113238935,2.471457308417868,0.9634948109871412,1.8477363606422954,-0.6874208010234524,-2.4041098948517465,-1.0428878016895005,-0.3531508499823559,2.8065125773639203,-0.7248259992596859,-3.8754886346649418,1.9882027518035386,0.8670043117610915,-0.48960064405076587,-0.07039104629768789,1.5948452877786798,1.26606583712935,1.3448093582636687,0.4775270827242877,1.304717977477512,4.707485363667524,0.04669580764040021,2.8164177962622787,0.08096276306571054,-1.171838695523976,4.038066114991003,-2.8317371888569784,0.605716786248478,-3.5560314104592234,4.515147942549596,0.7221096664146514,-0.6911293297007868,7.136315135160379,-1.3954098825925818,1.5445684091760523,3.5372700220353384,-0.9252393417051845,-0.28135956393161354,6.2883640019875156,4.62990197593197,-6.018610807984615,0.0018259424449065809,-2.0971698485123236,1.7014012604037805,-2.304045500737452,-0.9205066840341228,4.656922213487503,-2.1842477348616876,-1.2013987973178777,3.7531012980626857,0.13632904907183818,-0.33151474440738826,-3.1916579423253726,-1.2548689872401746,-3.0379185396088566,4.203354988379299,-0.07765333207091468,4.288471369215809,-2.259707175722747,0.8380697343722823,1.5370877770501057,-3.1402118626803164,4.400557620764365,0.2542808414338608,-0.7746205602514769,3.083299753681807,1.794027394686565,-0.47211378720051345,-1.7082188653965582,1.0915473988662354,0.541725240277342,6.259395392137278,4.213825887121496,2.944916687488845,-0.504496859361161,0.5770225768799635,1.9936101853951214,0.5746770787733985,1.8461665979983177,4.019688886361024,1.8388615205857992,-3.4339611153828318,1.62243005700317,-1.1599592449584646,0.7314090021970914,-0.7742226609949168,1.7973482081147794,-4.277298195551149,-4.138553350000452,-3.4125407338760283,0.7030691703750592,-2.799909192164627,0.6812550229456713,-2.7710507247260114,-2.3548532170054366,2.474465823382805,-1.2772029480075622,1.3895925125575046,3.9711188775504898,5.23375259245329,-2.024039572294301,5.786814111480684,0.19695780175669975,1.9758444634811827,2.9643149881350093,1.2887972493052875,2.727351560174985,-1.520919798835909,4.320145711747164,1.038954398753773,0.5453551566064448,-1.000099123070182,0.6824283859576199,0.9003056370973155,4.756034528142193,0.08930698072066456,3.630300635789027,-1.3072486650032225,-4.921088670639091,0.49639042309202985,0.36377665048566377,-1.3578311275240948,-5.360370269030149,-3.8181524726783054,3.911285475951298,0.20683997390827372,-2.2181241081124705,-0.32658009198648985,-1.3299893818796273,5.22549506723018,0.3118526705824367,1.5478509556681792,-1.0517920322259269,1.5809542283333307,-2.2083503063497782,0.09638841912925994,-0.5532308618833524
Saltillo,0.9185736395094585,0.8024894560881219,2.2351905404407733,1.712724596227618,1.9694104076348085,-2.2450432070996924,-4.158830840199608,1.7906644380885663,-0.18568799862501262,-1.1463936849362257,-1.452178490504171,0.5142650945875415,-10.513424022402514,-3.226624673506721,1.034390764497797,-2.960920374375475,-1.2461529524177997,-2.4005964154738626,1.3998864431675089,4.0541852407903285,4.813554893713512,-0.9109879272495041,3.267902919932483,0.8170608323455913,-1.8300641450625463,-1.300281456524772,4.6686259268675006,-2.3454814911316655,-0.7226677830578727,-3.2407166465872583,1.621802291617643,1.730687696151699,1.2215812455844628,-1.5608270005770775,2.691146810238281,-1.8583677086242139,1.0212399982548122,4.006904924237663,2.195937257347944,1.1969601511740628,-0.889648543353855,-4.435639225127042,-3.2948438188235705,1.9920012588881764,2.696221697495619,3.9158888209678726,-2.9608610698760205,-2.608883383750029,1.6128769091641737,2.4138605212343234,-1.4438161802844292,-0.4424493366453525,1.3273996194489928,3.0352079925008546,0.21203788674453894,5.89934394824523,-3.123402573254732,0.30621864166724944,1.0339999388183372,2.648265912496753,-0.39943189482719177,-2.8762710113905725,-0.6497705661238714,-2.299325440643446,-4.695936300774608,4.119028666532656,1.0079579663939848,-0.5348316102318231,-0.08092844361705834,0.08617891599012327,0.8532020413006497,-1.4711428647459739,2.862096625648375,6.447638057211318,1.3187968714612615,0.6573722057964131,-4.322333731493585,4.635102080663105,-3.0745697040191637,-8.767465757730308,-2.9057635117148326,1.2603892283940419,0.37622034878879973,3.82396865440878,1.2130496104964823,2.0032223417936237,3.0175658821161058,1.2723800856911756,1.0406262693117312,-0.0753932589077157,2.5753113960015406,1.9608001027431121,-3.848979964235845,-1.200732645207209,2.6515486997578,-1.2009009055190538,2.1403885087595294,-5.30682181441915,-0.7630836567141168,3.767331139288342,3.3687289362281434,-0.9831846597572419,-1.4464174998057335,0.40836314454716,2.3054112827054847,3.553584806588614,5.83319041712696,4.88694092436479,-2.995823874158101,-4.36824131754366,0.6145619257723909,-1.9983122579833685,-2.367372117023021,-2.599398775940503,0.5904506368197374,0.8283863524688317,-6.056021626864629,2.199711838071858,-0.9033905661963326,0.08343478748396599,3.486069654044635,-2.3642867692878387,-4.713473035720611,3.843133873515062,1.0295215177196648,0.11063539842647296,2.9361451925051103,-1.6176601992442095,4.398225848932251,0.8781335466994342,2.5096012686020717,5.581735224274614,0.8514963752079309,-3.1941607509574452,1.3052659147889556,-1.1875606505641911,0.17972582454746955,3.0382364493626732,7.51009413204507,0.4523561466050243,0.9533162369879903,-4.526958508540146,1.970782877757618,-2.247961594179952,-1.2087298710564196,4.7272287501233095,2.6475669226701837,-0.9816924056147135,-0.8458141593666898,-1.3143788416422764,-3.720326536946211,-0.228525388013199,2.174062639448917,0.30218924921955237,-3.555311010129179,-0.6203818888630958,3.5953723849153536,-4.671754017893802,1.739469953359382,3.388793095219161,-0.45829798047358605,2.9554596800014803,1.443790336758395,-1.5492481466608314,-2.8491439183539193,-7.506443704500141,2.337553204229447,-2.2137424908508843,-1.386172525385532,-3.8330294907860303,1.7099820386713442,-2.966806961993031,-0.3228223307527251,5.943829183851388,-7.14943526980977,4.026908343077567,-2.269163145146492,0.8052063794360057,-1.357866662393041,2.135208135687413,0.7276387886863926,-4.729139064817801,-2.681211202432525,-0.040660433967753734,0.06449356733574485,1.1254030923188747,2.4490118359437387,-0.9317932520858816,1.6419093770569582,-0.2729599451285244,1.713593502621967,1.5152643896553433,4.2308676449296625,-2.8914386745292644,2.2355089285913095,-0.533107288025762,4.569655797479205,-2.8187190389082994,-2.633097651162239,-1.2217423563309455,-0.3966657747512292,1.9210512537012878,2.868462489501331,0.5486880004273789,-5.12037380499962,2.398303469486587,-0.4555307316335097,3.5835732815834938,2.5325137389927495,-5.476048047697336,-0.8181890450955985,1.6461477853454725,-2.946200455876862,-1.097234534015757,-2.1567539645807607,-1.2014023787082235,-1.1755695043845065,0.6141089599515032,-1.4456706385175302,-3.115454188451427,-1.4880128309271081,-4.233225771790021,-2.033097019047164,4.24108173837748,-1.5555935330494788,-2.143625111310735,-2.751536443317674,-1.1174673329206353,-0.012982178194953287,1.639584795694033,-3.313441718040915,1.01645792196566,1.7016586244642526,-1.9028118320515819,0.7946150418801164,0.8258186373205564,2.299977029644467,1.383048218326,-0.0656412455906498,-5.5871079908879375,-0.6908646141371639,-0.04757228606117629,-2.6873943119605856,2.923578673829758,-0.7886255060597034,-1.033108637659444,-0.6953073657962902,2.7974612000553347,0.03254150531462256,-0.901696509630864,0.8318034746487679,-3.0563292267497912,0.4058758002646238,-2.8522001838159365,1.9969027125496264,0.040949594990520005
Colima,4.103200100249547,2.3848249595066524,0.2274241404068432,-2.760994696530407,-3.24528252807057,-4.839488996760416,1.1974153922482214,1.2552523737451633,4.267261257155978,-1.582759374889711,-0.3350452164800139,4.845625397810577,2.223823471709846,-0.7200629078795187,-1.5613119586947426,-0.031012479939891202,-1.673751894621346,-0.7749073390892575,-2.5222917223996224,3.068923948120342,-2.435327361260895,-2.6635013333074546,-1.8026556237535987,1.6978512444724414,-0.2044513838658828,-0.6124253642429014,-0.7386708643901079,-4.19293554462033,-2.528215225327205,0.4383257351673596,-3.9031580662069487,-0.9515627041018553,-2.876050548678248,0.4308935315665249,2.385409975147531,-2.580609743974558,-3.923897171583142,-0.9145629129057219,-3.5022939710145677,-1.0096586909329053,3.2455791863209758,4.444325928952142,-1.8144369860648202,3.4951978044869967,2.894858341443106,2.1704816532459543,-1.5095164831215075,0.4843798444165299,2.1831522983775273,-3.3556374305466625,7.522407709238274,1.2245660164435377,1.8120109501215464,1.639411222423921,-3.4564513778332895,0.5336449344805729,-0.7712767919822525,-3.5086778944918433,1.5142989756739187,1.36868305651923,-2.5556032605710444,-0.8055750024970985,4.486621564017958,0.8691257141393821,-2.2004861758464296,-1.7086554349703722,-5.409743140959199,-3.5783872944816437,-2.7370062490023837,1.8047420619670316,1.6425284041392507,3.6537734819708536,-1.5468079721585588,-1.6979541130589473,-1.3077175486454558,1.6372103814584404,-2.5034126262850704,1.958983249988819,-2.1683525736475504,-1.338282443546394,-3.442657721142182,-1.8418719121804057,3.48144077921547,2.75104775330545,0.6764638643781373,2.664539988774705,2.9044011815801793,-2.156817590216128,-3.83347518043207,-0.8100837163651001,3.1819766785107317,-1.8354375543531625,0.43700472501144044,-2.3869502417201165,-8.371874734824686,3.676863709903307,-0.15521473016062948,-2.755062283565074,-1.7889285629446685,-0.47211248388058813,-1.5237508383028644,3.876569053370676,2.306488088922024,-5.345176366490779,-2.91668824012494,-1.3372527883065415,-5.0682526169605655,-3.29692415504314,2.7097507797832794,0.527540231622432,-2.1189002607193177,0.0016608928979840593,1.595128772503624,1.4238243610630141,1.5675234576893131,-4.0159066414283995,1.575059508886574,1.7181975333676371,-3.355301907806682,-0.4077638982640766,4.4575869011532925,-1.289062906345878,-2.3917091249077638,-0.8878207292801892,2.1566003026162472,1.6609383191239597,5.374092904360387,-0.2422027487993026,3.6708347029692563,2.1301460897008773,6.050269656857668,2.7367591843509844,1.7726540599679277,-3.2665783262948738,2.237890410917194,1.6175500309296895,4.3826536336823745,1.3644752395695543,2.7551824096177002,0.9921658251260059,-4.87835922830401,-5.339354042609742,-0.6727556287912446,1.918807019918741,-3.9250597148104083,-1.5901020281755682,4.505647602882054,2.0168532533070764,-1.1891422546481867,1.6970842570781066,-1.746921334812852,-1.2173461981391749,1.2147421345357934,-4.855587459164447,1.7544582126724229,1.4493847633454853,-0.24758223953735276,3.3984224326058308,7.634839161160604,-1.314765772704839,-1.1374867801523305,2.3992379082254143,1.205634321325535,-2.8606225546556256,0.8034274234123135,2.3655806562260002,0.3054953589851055,0.6731521979329949,4.336566052410971,-0.9697641856783337,-2.1794283132550376,4.382385465973116,-1.7915318253976342,-1.380757511901673,1.8575476835627016,-1.1293264943766796,2.098282398817062,-2.8463345939476414,1.6134508419433757,-7.510226223126339,1.5414579595638696,-1.9218276002396635,2.6884045156241223,-1.451359949588494,3.3525231258798827,1.4562744878260916,-3.6486700550314284,-0.2410290507520254,1.3766702320128084,2.1090763364728087,2.862735303364963,-0.769868933024981,0.8490065015502176,-0.6591504966490862,-1.8323603427523287,-3.137678650770554,-0.3048178654203815,4.938874060932784,0.5854886234919633,2.375584895452375,-0.22133523186986126,1.4311239046237776,0.3615445874658235,1.5258585880067936,-5.82632309795526,0.8915840209185084,-3.5108892683411286,2.2321272897380044,4.265175565218595,-1.0153387891087615,-2.1724906846720895,1.8270074871902973,0.9829010674590393,-0.6106498536086107,2.6688881504414077,-0.575507891187421,0.2083548296015832,2.4458277166910887,4.0029540998212765,2.314531191661572,-2.9134633469435736,-0.6862119201895174,-0.46263637386167095,0.5301797913233252,-0.1789033557885465,1.4493398378742672,0.3964327229270983,0.5776263389054256,1.4917896806076554,-0.17230739236570514,3.76112904602011,-1.028250859958534,1.2889246069839135,0.5225942638680141,-2.425995715853613,0.5076500494756233,6.378240585964322,-1.6455566422180157,1.437129490732492,-0.3490323906123469,4.652189790117318,2.733542509649491,-6.732759067880304,0.26788435346596995,1.0544371245195505,-0.286821954357689,-2.5137530116698334,1.6351679908534662,-0.3106197413478556,1.8354658265026553,-3.4895468135708745,1.6565576343404713,-3.0382842738577858,-3.547636521987321,-0.31582853544376455,1.9287407097805502
Tuxtla Gutierrez,2.683251590656168,0.25147063052808544,1.4190731897473674,1.3950878115837,-3.253507632159216,-4.528642074560064,0.9393608722694433,3.1736273369619745,2.7991890039296967,2.552510217570683,0.35107427033960303,1.8261669950921533,3.404430799381796,4.168166980837433,-2.5828643755581746,-0.28928863672344135,-2.506652338391293,-1.2673874971196912,-4.798476532848011,0.6064657874764615,1.163545744891992,-3.4036831808435206,1.1152557391986333,3.4201459370219056,-0.09147205472423398,-0.8742013494618589,0.08769569137000478,-6.511591582667041,0.9987377516136815,-0.12548177560278656,-1.0561531714128134,-0.055071493854082776,-2.227449466296624,-3.541279637234686,2.4972896621483787,-2.5549879534184576,1.5803063184574317,1.0617690631353143,-0.4968279671834599,-1.279528880611076,1.796009916474815,-0.7155818507598992,1.458682051409828,0.3024008619649115,-0.9962856717422308,0.4307667480484848,-2.638178411212083,1.5758842132118471,3.8868402045362482,2.5169494606908804,4.988722275935945,4.608195194027709,2.1587086090158234,-1.2596499868443223,-2.0853532948287428,-2.9602351989229594,-0.5009226255361139,-4.286350145331848,1.8458433983408506,4.411762784258702,-1.00519094297519,-4.891490619461543,4.992605131105876,-1.7073385146543045,-4.160471988088208,0.8911555438185611,-2.5580592164956713,-5.178311776745323,-8.821900081087804,1.191206186046573,2.40298927287806,4.6525048247060266,-1.6729506761088808,-1.0158712504219283,1.628975564464698,1.5463635356692675,-0.4680096170291763,0.054502216431096595,-0.0791169635890841,-4.039511872180125,0.4809393771822783,-2.9695440576829055,1.7573415933073482,-1.0967981261734505,-0.07655823315316296,0.35303748852582784,0.5787063299957025,1.0087277300447224,2.2900795809012924,-1.512959689746016,1.116505755869182,-0.7932357312860124,1.2858312128621872,2.2510220297264505,-2.538162857185749,2.273566415004158,-2.049327831562911,-7.09100091750325,1.1669118797004174,0.4842538749078939,-4.580335234310601,1.627008682034628,-2.570445244814199,-3.044582268761542,-1.610028838656766,-1.47374583573653,0.5782880366856428,4.1132605621869995,1.4440104943738803,-0.605935433699385,-1.8008431151411943,-2.82408097372773,1.409469720770796,2.496655404116387,-5.085480666380704,0.28696689603213954,0.32179364186267745,-1.0952010249430184,-1.8315424440561918,0.799401812467882,0.8982245255347228,-1.16914828053814,-2.1157120017311595,-5.441524580503053,-2.059338456508199,4.966793893136977,3.1142283917675186,2.985438304560275,0.5616306846692951,-0.6283440547380074,3.285697559869137,2.1372564395651255,-0.6340607700431884,4.279965473386097,0.775431952048417,4.255995236178434,-0.5823563839607045,3.021204122849155,3.3757495032040468,5.641911041750727,-1.5796819316092412,-1.5556104261987016,-2.730757014919632,-0.9581732131623553,-0.34944067350758495,-3.4743367501585674,3.299663187384504,1.7879007164481935,-0.9692740891269709,3.5069267487643816,2.4257473116444945,3.0321154119556772,-0.8119474104425495,-1.537556329485957,0.5310809814323028,-0.16257815561964742,2.7426093465246986,4.3365633809172905,3.553618789156372,-3.498716219112619,-2.678273729243451,-1.7896926817774816,1.6701808489705383,-2.799319728994478,1.530235091455644,4.53525024142578,1.9215958536042357,-3.636477164428732,3.679136648272078,-1.5817629151309864,-1.623162596702141,1.4115333630872375,-1.5616264401699023,-3.373639702885326,1.8365276796140202,-0.021034565910840096,3.7693177703478185,-2.905980155474574,-1.5819659441373872,-2.923142409372905,-1.1271944954365574,-0.8323588920270228,0.7307381120341958,0.1723262362160162,3.87211623120775,2.6467967111750146,-0.3590925310336757,-3.4122291882787477,3.2634495031875996,0.18623620667162794,5.290375869122884,2.8151593163514805,-0.2705158375226715,-0.11108950539134732,-3.8700829641011802,-2.871368181081319,1.8189814737971264,1.5136977431088068,-0.5785995377477182,3.9908577695842107,0.7558056654665062,4.875595664456441,-0.2452140426579272,-0.7242464523353345,-1.6898181833657837,2.0323624784324643,-5.013606535487388,-2.766152475652581,2.958481240473258,-0.27603223206918304,-4.5793896204142674,1.5481415942270043,-1.573748296019481,-1.4560279189699354,-1.279930539047371,0.16945546276492185,0.2340737436689455,1.569775891210545,4.9543642684561435,0.08397293496017544,-0.5353788973395601,-0.36640110369676093,2.1877989393412864,2.6742680504800727,5.560524472398169,0.5366454836852455,1.9592193803277111,2.0185694886817385,1.2308069658240077,-3.667100731034294,1.2965674621712056,-2.217843272216759,-0.9567661297185495,0.35140187950703083,2.438523095709783,4.349116392383317,5.106182555814263,-2.6105815149481186,0.7793591728052784,2.0932934487567305,3.798724238480546,-2.007683804227133,-3.1893524492177416,4.582156356730607,0.7851605253324376,-2.3145434826245603,-4.549598809386928,-5.599442681690833,0.8875884687460346,-0.6671293694924074,-1.5608481587815255,-2.260942291246307,-1.4007430180429286,1.2493252817429177,3.2360388651328167,-4.524804259411086
Chihuahua,-0.01803087365845646,4.298442940816052,1.7068908599040902,0.7655044199476456,3.082180832864488,-1.3785838424591503,-5.4983906153417665,-0.2579502773457758,-0.976947081758651,2.195333959913448,-3.2347843881432756,-0.23363885688146702,-6.500287183967686,-4.420300783660641,2.558635428906413,-4.839945917797927,-0.7244963338881898,-2.5470318394980787,2.902134767640307,3.3012198238468624,0.7356798509081057,-5.261838117020045,-0.6747988198057764,-1.3182404035720419,-2.1488133708200423,1.7777840879313507,1.9242972766262918,-4.116633533564594,-0.5783774551656797,-2.50247200396185,4.606805105792382,-1.5368748897758864,-2.7521352100448,0.639643405347594,2.280078262405288,-4.195765752368616,-2.3620429285602986,2.809787193025509,4.2762483370138495,-1.3221997216275487,-0.45501337240445694,1.909200628367647,-3.9864553230233106,0.5495615923360295,3.7269010690821878,2.1629109970502434,-4.004665250381772,-3.313832742252522,0.5703682502430649,0.7998311931581987,1.503724801216262,-4.085433114053901,2.7760772119348793,2.745718860951242,-4.605275771505111,2.875178889429506,-3.3790971272662125,-3.384697960687328,-0.9357007562218984,5.43748476650443,-2.32537320346989,-1.9381818723625228,0.2713524963015476,0.3078544963662185,-1.6597775389748133,1.1722545975836713,-3.0410837801317445,-1.7210412851074424,0.4876542367653611,3.001623420002924,1.7949375318681935,-1.052819200779969,1.8924254116330204,4.465712530805314,1.2752072574039266,1.3685305458167296,0.8345322698149751,1.8850139778663857,-1.7949684168715612,-7.169297443242618,-2.0001101030637143,1.2206260859918485,0.874437148414918,3.616546281527237,-0.11230278184126097,0.3608928955404466,0.20710450213535703,0.28423054949819826,-4.058131102268946,0.49103454842865485,1.1858782941546078,0.45666936553620174,0.618538887018823,-0.30188661756035096,2.2333566039638924,4.4112436134891295,2.1047852771236886,-4.413211356693265,-0.623241778908872,2.8413447684355138,-0.7924304381999533,1.3448518568927457,-1.0464238688180596,-0.07415898918958992,1.1209797564836557,-1.9902331172423402,-3.215835019243473,-2.1651210919145583,3.0021712697695966,-1.4270551715107285,-0.25034530001388694,-2.1633485315691443,2.268339258731729,-2.451971294303074,3.120943067517824,-0.2909135528699817,-4.660380663145054,5.450021327630551,-2.4595152766059196,-2.106465459710771,2.2967404834696126,-4.071389604601329,2.0736792963594484,1.9162594105893405,-1.3789755544426159,0.5051403884561083,4.402892700568141,-3.5571863292106,4.748724127529247,0.06992147441687369,2.660368054395743,1.6344307024311089,3.5629121740508527,-2.3450413650487323,2.764670191941538,-0.4006359823121116,0.904653296978637,3.904059143939703,6.717985627671627,2.799314646762718,-2.9081286837781795,-1.882137267575437,-0.4473259199817288,0.46531396152692334,-5.119910843958236,2.430974407792595,3.4557406924086234,3.2871933062746566,-3.1493945823889966,-0.18254018595111376,-2.9192053487312153,-6.258415387093937,1.1084252499716025,1.5417714968703073,-5.928476089964104,-0.7651344322923809,5.191726680767039,-4.764706733333556,1.374579035461864,3.875951840049387,-0.7466194248251864,0.94931617865019,-1.574389413719068,-0.5909430771468337,1.0642867796415874,-2.742294783651288,1.7587870409592345,-1.903396656724585,-2.4697535723830164,-1.9485339723864539,-3.1847245661993977,3.7850250913061814,0.08579351119373879,2.4228047142825084,-7.172482239664769,-2.4004670389531633,-5.693797546628272,1.266613667943999,0.3061401644327638,-2.2950919462916533,2.7963544319211895,-2.0772089354560532,-0.9701637598406881,2.9725548442302028,-0.41421720042285587,0.1612287168002331,2.3580830633006546,0.5927113520608429,3.26733567659303,1.457018118321096,-0.20641090198355466,-1.1385180133893444,-0.5268149933521429,-1.1485683986242474,0.8405329241457189,2.067572151600979,4.313476174586061,-3.6600917832448374,-2.064718305332349,-4.159429131508223,0.849343095667013,-0.10772468797922635,1.657847878921186,3.7803040843206555,-6.17690067001176,-1.1759278986330413,-1.1436444980528973,3.866761540675752,2.4993023382943473,-1.982821806476923,1.685999983469717,1.304367526817601,-0.028653040746097702,4.036326262016539,-0.981446973409086,0.00628702516621743,-2.3171409195248156,2.275626858264568,-3.3743887903993475,3.2653456986185745,-3.906919342951242,-0.4220831363580095,-1.1161548646541606,3.31962697748216,0.3423877682794345,-4.078133108181822,0.9006911842119425,-4.826701480921757,-1.47092084417524,3.3828105800993025,-0.5063346959584709,1.9599679198704574,-1.484940474219301,-3.0773697155270874,-1.146823504630873,-1.7624612216000055,5.681688129047382,0.16232799669341003,0.07270924242156318,-2.7058574544949403,1.4880270564958669,0.08472814099712667,-4.132176085097818,0.6307030813555677,0.10236034936280115,-0.3118946837642787,0.35971320098662607,2.5098590393704554,0.4522354029971459,-0.09789496217949215,-1.0269732569019887,-0.5649472180866911,-0.13089108413342404,-3.658860807398027,2.784021381180675,2.139999920311641
Ciudad de Mexico,1.496212983950794,4.96561127562191,1.8770207643794206,-1.1590222182552643,0.9578241107365479,-1.6457525656503293,0.6516954173790293,1.4719527529213556,2.1172975962979494,1.5616863226685185,-2.800775409672745,6.404546642474131,-1.4588706219596423,-0.00583549282850454,0.14728198333400244,-2.613950483045548,-0.5755656862954002,-1.5805704182773421,0.5216258158683756,3.633204710539694,-0.3881382322141296,-5.526547211265587,-2.8309626399278542,2.6322178263581435,0.2638872111842099,0.159144335744767,0.25934450156067634,-4.614706910941826,-4.2561780539736604,-0.6836289021936386,-0.9596988076461614,-1.1780637282856405,-1.9476526056071737,0.6141270645109095,0.8275231331677957,-4.681013055305096,-1.6495380761309426,-0.436339412990485,-1.934036636645739,-3.057257426728083,2.3526011837742375,5.103320730822595,0.18197185878223848,0.9695242566666505,3.515852739496938,1.139083929784947,-0.778996279030856,-0.9178718965973268,1.6005821640074294,0.22945655530939907,3.63350966854238,-0.6901373020351919,2.950444606117153,1.5804892845920593,-3.169316807544506,2.487782665430979,-1.9620823606504134,-3.5730274902385224,1.83369040322398,3.9647430499595484,-3.6452584917439883,-1.784147350690211,4.255800241015804,-1.9387829139707191,-2.450351812153288,2.8030693350120774,-4.703044056875306,-3.4927542374993115,-3.690194355166318,1.9507840075655531,1.7372989887023684,1.3373496710696515,-0.5314949656743885,2.0337378207219086,0.2436667654585556,1.79997347765949,-2.458585956858384,1.8284719038923165,-0.8670655991422127,-4.062919433348896,-1.9898232041639652,0.20778635463056988,2.421223293673531,4.660259455551846,-1.459452458580739,0.8261275330467952,0.9663053051319379,-1.389678590094656,-3.7321258929699974,2.8081182215470277,3.490051343529806,0.607378195601798,1.408642533989388,-1.2771781513226923,-5.961288012130489,3.849802448236997,-0.24676647998838236,-5.300037071619881,-1.5996255961598247,1.6933220304539796,-2.5220446953093116,6.223030632568465,-0.9139382894369198,-3.8619233320487165,0.5215734998812606,-3.2327944424219637,-2.1876827898373117,-3.3990998186716195,3.423422768171472,-0.1635547182362892,-2.6546030636373343,1.1867771608701667,1.7324928826235833,0.7308153180379994,-0.5753367569979122,-5.351423297558634,-2.9460501641919805,1.972853947452018,-2.493739706693983,-1.8530642457126687,5.034281582287274,-0.3565990697243656,-1.8127705730966144,-0.736146043868236,1.259105312196551,4.986495740038254,5.531091958671274,-1.6523208619008736,5.128944808853415,4.313800876963585,1.480953829872525,4.4483129232630105,2.208784276090906,-2.5904403588277614,3.2258583392853115,3.035486447638897,6.4241407137144275,2.310720108814892,6.602337904104012,-0.09236183947774362,-6.963994439459304,-5.152329987358229,0.07690788457353503,-0.9139111888325278,-4.733797937526393,0.14905316545772007,4.68317813271568,5.051962282783624,-3.1100923968489855,2.1613304327475356,-0.8029922962944716,-3.561386625613469,2.1022076677196035,-0.8242511096578455,-3.169571199558252,0.3445385716729987,3.178150638729228,2.0362457014505,7.304965349458115,3.689722274109056,-0.685322225656884,1.2348238950658696,1.8832551785364118,-1.8546433851765456,-1.276850743277341,1.6638515387812984,-0.8409733236180542,0.3535651896883628,1.4459634742947012,-2.148388701897849,-3.5727103179206723,4.6529111566297825,0.4416089053315485,0.12969507202490727,-0.672016169161119,-1.7085252213166995,-3.6044274060651276,-1.640629405474486,-0.8920447569706726,-6.198658640776527,-0.8131642395812415,-2.905857680833787,2.431512138853079,2.9914418477826827,2.977500385310456,0.2771015377009378,0.20551628598933613,-1.771475865875453,2.2536084670819156,0.2806462156137558,-0.5138564135367049,-3.0412838829229605,0.9384727742185972,-2.1187869563502733,-0.5122917671085218,-2.191842651392115,1.8840547374443952,0.6159291811589764,-1.8025682422658331,2.7967713351737142,0.9998437878423312,3.192784066283035,3.114137326020318,1.6072735971290826,-5.527203231076069,0.5364726557175331,-2.507121774075701,4.100625110691009,3.430799738378382,-0.23233202345504395,-0.26918273894825484,4.647484472203307,1.769370996929261,-0.6426860866081003,0.1371886085413072,-0.04520250338936579,-1.0153527872809287,1.3639227947953605,-1.1032686320214313,5.185570152149163,-5.259181016519647,-3.586625129763166,1.5392427938229005,3.355809221039605,1.824431827089197,1.2040064537013222,2.564547356485092,0.6556475636865312,0.7061972672324108,-1.5354886761875122,2.25555239334077,0.8633603550057527,2.796431478022244,-2.570417918450234,-2.980814029311579,0.45515138308775677,4.39393419462383,-0.38635825901140813,-2.0244655327134398,-2.189331597189331,2.3021886818463333,1.2184102070014118,-8.188668986484902,-0.6532998595293429,-0.19839972288420227,1.002696564029064,-3.0479034386345187,-1.111173767882522,-1.9366316543428668,-2.3923615179088955,-0.187628244230848,-0.2044802923239316,-2.8001931361334598,-2.7241140979032687,0.9102652069053788,1.028220707156315
Durango,0.7025297395520008,1.6371146657048603,-0.2212093708064879,-0.4076359314603283,1.7128674901904184,-3.536446393926682,-2.600804349402933,0.11924282674590901,0.8924887437129911,4.272436446198393,-1.8926084964190983,1.4061863131613914,-3.5099084070825417,0.3837296638553695,3.055411961167891,-6.069368469308593,0.10684875439638797,-5.011618637944121,0.8120867330832997,2.239280505380279,1.122864510935862,-3.5352786290321045,0.013328376337079395,0.12761017071089273,-4.164779463801594,-0.7692751427234674,0.34264299550835103,-4.575224118916886,-4.018894977568234,-0.9536941077188115,0.5398116197359613,-3.053169845411772,-0.6893796724076797,0.11229033516521367,0.899664126728674,-5.119629880765,0.2775725964850409,2.4315286545809496,2.6978938519636078,-2.9962936244675684,1.5555355768058021,3.3496374961825914,-1.94247283587375,1.101093747855865,3.3119199781665007,1.0111294087937013,-2.9776954538042157,-2.0928709456650534,1.7487226966152936,1.6124085376733184,2.69811766144762,-0.3099155625772107,1.6396465763336592,5.65853273317319,-4.368192405165361,3.0918695504655864,-2.550445254699549,-3.6255958361089133,2.097068377493583,3.7552879464407614,-4.615629397883119,-4.15647247479975,3.402213819108099,-1.2138375083600002,-0.5963166710728978,1.013062987360848,-2.62927453952196,-4.044248540327369,-3.8612195706296175,0.31393615004049735,2.4370616739103856,2.673432729973841,-0.895444217407503,6.096921040885051,1.6104726658629782,3.717158861611956,-0.5949994127476794,1.8137199712959156,-1.0763694436034874,-8.065675363048143,-4.428756556293496,-0.37672612850651277,-1.4631652006866116,2.803143683998656,1.009595969102458,0.7198703425853408,1.2941656751235522,-0.045617086323581385,-3.7169527884182325,1.9641804991953569,-0.2381531019140256,2.313927912553716,1.2157744072760674,-0.3049096545575992,0.706635642120424,4.656271035289297,1.383137187648521,-5.579308740949948,1.8772707378017701,2.1233319376732362,-1.8144859039703678,3.6252017466444073,-0.9048893150542272,-0.9670541110900258,-0.5909217908700263,-0.8975526851555875,-1.7836324029150328,-2.581479065836578,2.3374563532968384,-3.75974099696011,1.3504112303780158,-0.8013791829909873,-0.39062775428298374,-0.9003842918836891,2.096437607843243,-0.3451791545526139,-3.7001452443508915,4.396774024106131,-3.6008108706340343,-0.9976527949343343,5.102874966572896,-5.685232204680104,-0.407868556768585,-1.3650167679397975,1.0563399256051662,2.3912898016385657,3.891358816721997,-2.2185918238599522,4.131225495593532,-0.18120184185747962,2.8045318054916617,3.0181405891954447,1.0443892060866298,-3.1229277647732876,6.061213178569902,-0.5036926481416881,1.2111394820420989,1.9101212851850917,5.350642084251149,3.3949872517628634,-4.193049461864511,-3.055566364296852,-4.538675264293828,-1.0314720400243216,-2.3409557409464994,-1.2376673392934554,3.707976684807093,1.798268809664369,-0.8319837532515347,-0.6426335558305416,-2.119107566847033,-3.1292101602489715,-0.5884981717794859,2.291075509922921,-3.7312935092833275,-2.9317069859597087,6.480675210501957,0.3570449191742382,3.7249339830703874,1.5453189655943484,-1.8885075878537012,1.7519885822005217,-1.1070951801126658,-4.38510692535734,1.2317809084218176,1.6516681594153941,2.869017016954449,-2.3153693633786903,2.1350828295336886,-1.9863745156697712,-2.667026253756002,3.9833397833935837,0.31238713445603594,0.5720012178758476,-4.974323447024383,-2.8523709497856697,-2.666893598538943,-1.2201964910550251,1.4483843482673127,-4.8627271668027126,-0.20473482729383471,-3.882219612113023,-0.35450097090835303,3.1294743748550067,3.116588846255512,2.6525914008121356,-1.3042621029392383,0.460211552304585,7.378255404363374,1.4514972651701592,0.5948877283678523,-2.8748948533657255,0.8786026095998282,-2.874799670146733,-2.1181421935051414,0.38128820072368763,4.651697092576342,-1.2451677564801928,-3.519031050275238,-2.5754105312464475,0.5004895886085137,2.213077511562673,1.3734801239727903,4.827714215045914,-6.494067110641933,1.0292067397374556,-1.6310135454720898,-0.09398094020269726,5.6069323891366825,-1.7513928301082964,0.6172942018404444,2.9431658046145497,2.0572350609683587,2.419397560701652,0.8733580621331161,-0.3883110695540609,-2.9642025354107204,3.818669148598308,0.3403982809749865,1.9465920701891153,-1.6830885231836832,-2.0103698573506965,0.16248003951590195,3.0855579508659066,0.5651500867813966,-1.2115975273351738,0.9097144256546443,-3.03430513698744,-0.6273689590643952,2.875405425573418,0.437359165546273,-1.2518928974177688,3.230158692736191,-1.6832382150731942,-1.1904135261593483,-1.382056793345958,6.22111547469744,-0.5278404929199615,0.18323077946575766,-1.8951081569500423,2.36614595756454,-0.9744889133849275,-5.862083996553553,-1.7271721892211933,0.1532102180162338,0.9486138935439806,2.379623158468063,0.7321313980580555,1.5099708491827317,-2.5862356256149654,-0.8188108872663906,0.13732010488739488,-2.9698841811203467,-2.709730464942041,3.689826913849222,1.2347805955020432
Guanajuato,2.163036909373453,3.7457282952491666,2.1278994134998017,-1.175078091921582,1.4861486575638052,-2.7688155939767314,0.4657556854473944,2.445056767104939,1.1549327706071655,0.08270759873816008,-3.118014103385637,3.941924103065209,-3.785786874003483,0.748683030583748,1.7396139611384096,-3.005494665045804,-1.5985834136042791,-3.729883289813256,1.5021099781105753,2.852596890236697,1.0361043158645649,-6.0345700650175145,-2.4860434524181616,1.1683851921718524,-0.9804181884639512,0.03062135446205516,2.04877932980912,-4.847117698433081,-4.556793796836962,-0.48008930449190684,-0.9309170418578531,-2.5071004255019265,-1.425166247064272,0.10815405498933217,0.7790107156974341,-6.45667598578239,-1.6258175409367959,1.658361588583293,-1.4660570681196994,-2.3471216813472244,3.1762759725092105,6.45600310873677,-2.572852731308938,1.7816368648714518,3.7181212352645128,1.0990002912658854,-1.787690478166453,-2.293745000645054,1.8847705199737752,-0.07741920166956284,2.907279774007992,-1.0499227337461692,3.116719648935799,2.530090849988613,-1.5449878292695054,4.2802610614071686,-3.047090953704171,-3.4760427703751113,1.8942088992916415,2.643045320009209,-4.82376307919748,-1.6571525887510017,2.7089574918384027,-0.21359119471966298,-2.348451911706965,3.2733323122087494,-4.363163214671205,-5.365458218709633,-3.1463344793735666,1.824448645905771,1.7669853183759026,2.4061918945528054,-1.6160815528840304,4.3279180164086775,1.9114210704064407,2.69802827381688,-1.8976206722068354,3.223895342384529,-0.8809313777576797,-5.363567953249091,-3.730394539050996,0.7117080668900804,1.8357183695093513,5.299487460800499,-1.2320756306028593,0.8641690521162184,0.028244100053411825,-1.052892532805497,-3.1363696608460985,2.6760340226776496,2.4111968170775064,2.6694179758603136,2.4620663578439452,-0.8051850423895173,-5.130168400958859,5.107479584908939,-0.34591942856983854,-3.8683430461391746,-0.8221327479362028,0.2651567268160431,0.48467214397824865,4.560948359234791,-1.5744042160155924,-4.974923677081808,-1.4395635270431446,-3.1621021737948096,-1.8160831492841139,-5.6410081864274915,2.537932410051961,-0.6868730536321548,-2.6376855229841345,0.26506901783714126,1.9098144270800153,-0.06359517680131263,2.9946538929561055,-2.3671560419527804,-3.7492997604051275,2.211774564309275,-3.52888253611778,-3.002842286757857,6.18176580335775,-1.8393416764847637,-0.025911509878384843,0.13840914105780344,1.4703588696467733,3.949125103828261,6.49992727111764,-2.992193747265339,4.24203450863347,1.3927295446357233,2.335781558167912,4.889768493882647,0.8504569401728026,-2.688548977983133,5.698090854446655,1.1173935317818018,4.816412073232908,0.6074173943314038,6.919174321160204,-0.6731751466524846,-6.9449794952825865,-4.015902972898624,0.7245303293718793,-2.820473367860256,-3.5768005156563065,0.34355107700575394,4.03813813838815,2.8475861741835944,-3.8523819850003447,0.26973193990081773,-2.982051608380562,-5.329420801367188,1.5552396019624108,0.017998451348089306,-3.9217373945668865,-0.5043621008535549,3.731106383076972,1.0019931044503376,6.790688634958457,3.725976847916367,-0.2726474264644,1.848793511120604,0.6423220739353314,-1.8813242553527676,-1.3995221668090558,0.4877301979325979,-1.8050403986989172,-1.9162569858178498,0.2101182489816109,-0.6966378864315467,-2.446918728323739,3.984709095477963,0.6685527649112709,0.6623187402552313,-1.601263373313295,-0.5038749087075391,-4.7843991324516795,-0.20882844850250992,1.6376875042619827,-5.517454951845635,-1.8926459788430323,-3.642723496578045,2.891859000702962,1.7548708573524476,2.669487950921412,0.2452230365501109,-0.5064777631997384,-0.15493836004633355,5.294653228701044,0.8881108608861048,-0.5778953740577946,-3.7880358544336064,1.5344241654822763,-1.8121376858317582,-0.21813878997887104,-0.11467968144904617,2.433514662496697,0.12569218353849754,-2.1175590939222717,1.04525906285106,-1.1628567900421558,3.0494160619694006,3.145400037616966,3.098376521767852,-5.017997021772865,0.5580842770843972,-2.3302463706993324,5.03904826747765,4.710246301864065,1.0498791865719566,-0.030234187407869144,4.1699308378731565,4.279220573940627,-1.0080807367743194,0.4953358242770876,-0.5188450815906379,-3.7882095048338496,1.4006653762005659,-2.593481460612468,1.930477823901402,-6.003661676035677,-3.796695551036055,-0.8408322578399832,3.2448461211262005,-0.028625820920725298,1.5436742544803863,0.564489632622705,-0.3882661504540525,-0.1501921624818986,-0.40738972974362375,1.9370833992510403,0.7068080403991338,3.412506446584696,-2.135850134877562,-1.8530401844214512,-0.10648083473529985,4.514438698067741,-0.4641737687453607,0.539027762430432,-2.9836682433498956,2.274969525524328,2.0192255914616117,-6.420762445371662,-1.767128947793191,0.16438181092456267,3.0765086740389718,-0.39321664163044945,0.4354677222232489,-0.8362989157039323,-1.7160054607157964,-1.3265671515360553,0.6840212047698689,-1.9807249362279846,-2.9040746523352,0.08393579473215929,1.8842965427911862
Chilpancingo,1.2147627507618788,3.9653773750365744,-0.2418996297496946,-0.2938229253817419,-1.4898766892477475,-3.845443643603926,1.4331649061146572,1.5266398786367055,3.326069324333287,3.2273740440895367,-2.267196635253387,5.0727946681660585,1.6456642988016703,1.0919256117388025,-1.9703899426546607,-0.9967776858690114,-0.4851502672423006,-1.2301039258682822,-1.2618751108379227,5.567311273983526,1.1427905798290172,-4.9148034258637665,-0.7236933856191708,4.278236588864814,-1.5108631711128697,0.9184442518566158,-3.2858524242538825,-4.622124637888044,-3.8648829426004845,0.8237888858728035,-3.266870065068902,0.8512935663750287,-2.5790289014112027,0.07239338836993758,1.2329498380294663,-2.302771408457313,-1.6970691955041328,-1.079044373099595,-1.994204568144143,-1.467476637507101,3.3937482757539614,2.1446507736250364,0.49919553339255,2.760286678520332,1.2444525719324955,-0.4096538050329195,-2.9291580021289887,2.190096766717888,2.3457695126465063,-1.3674963843146823,5.391372548362849,1.6827654355329351,1.7040513173413636,2.7201469637583187,-4.475321914544443,0.9696955568063914,0.6083920201949358,-3.4934568035305116,1.5403932333477017,4.134436860159356,-3.8575095026411725,0.5060485807236818,3.3538626092775865,-0.22702083782201926,-2.6992577525508197,-0.10907023305051214,-5.002097901689925,-3.0036257824113166,-5.90359387758564,-0.6991967772282645,1.0659692155893605,1.7474706319799116,-2.604045716421878,-0.6382814470833502,-0.7606317129960158,0.5837752910563608,-2.589497150377799,0.06214634360647342,-1.8068400126756372,-3.274982189804653,-2.9086553180892976,-0.41364502452744867,0.5793262964683473,1.0250304674507793,2.017533725443489,0.7594726826996656,2.433319384237245,0.5404116588530362,-4.274725337452452,2.805162702769148,4.599274063236642,-1.4906463317072687,0.24055154004815638,-1.8837096402258102,-5.228692567243457,2.111267477025852,1.0855481887387495,-6.735023849289196,-2.0731265206081053,1.9765333321349572,-4.398842439675059,3.49775712417222,0.7057998554487434,-3.102561611531598,-0.5999873179928346,-1.236478310298197,-3.2227787752488117,-0.9562620553739958,1.7526694976935555,-1.8034598584679613,0.21292657874991705,0.08783067087100088,0.5403351084000187,3.0002507011303425,-2.7037359121815348,-2.829953286156197,0.38030459537544736,1.7995860903365344,-0.9003741710320455,1.1556932571419778,6.935873320563587,-0.9240960546049553,-3.6713411986124926,-1.0045456450896808,-0.40990699501028344,3.8628937061363393,3.867142009011519,-1.0060451203294523,3.445116087004186,2.6454117881968555,1.5201339611743931,4.2434575089226705,1.6146544023474947,-3.569354208428213,3.705748742286576,1.8939279682003107,2.462340217107925,1.6484592159241742,5.158106431025932,1.1859354993848648,-5.360634169795624,-6.240607468087965,-4.71622466301473,1.506102953140543,-3.644834410347393,1.4860938764849456,4.75102737202865,5.8240043525509115,-1.9281406715025353,3.8418383450202818,0.5325930421493391,-0.6068794455104134,-0.3904250655512853,-1.0135290963233692,-0.858517357272125,2.8935741517870963,2.0401292243094207,3.566864625691812,8.025120020274162,0.8034786415772059,0.8222768897901482,2.0717181829487084,-0.31926705498210933,-1.9367270405193442,0.951966877856748,3.9273694621620807,0.5830605789969014,1.5982061749249163,2.690068357179309,-1.1207294710905733,-0.9225867013422767,2.6915058175682387,0.8761689967428006,-3.628800489533428,-0.08483589984325618,-2.769490385818754,-1.9064893584969806,-2.137649608378941,-3.120608275753927,-6.043627821206133,-1.3880922510149012,-1.0454004098909386,1.8500478897002453,1.9226089408853175,2.83862574441699,2.2089064841044874,-1.7957106626199755,-3.353229559727768,1.6073560474269541,-1.4364110262708474,2.5281995967680038,-1.6557294124366502,0.5892033849419243,-3.1224080876619915,-4.2861320000142555,-4.050767270827424,2.231870008357494,1.3573617820692174,0.3756093275496555,5.573778676710283,-0.3674639733305832,4.178577452450867,2.70616384762574,1.8016135215927758,-3.4794000199405186,2.834766459351053,-4.8988299052585,2.119834580639601,4.209688088125092,-0.2200380093761537,-0.4103414072155412,3.530788316718108,0.7602557077845749,-0.9955852929897235,0.3216634905892924,0.1609817077286571,0.5748490939770425,4.498693449188318,3.8504809986003856,5.144137755047105,-1.2804860152947737,-3.7065821819794493,2.463507525818553,1.2154238255979808,1.8256643202017604,3.671862480151604,2.4646266276233164,0.09211250244983071,1.0660419833249055,-0.06905256568145884,2.4131522610102505,-2.751457456454049,4.012857485441063,0.5558741935997711,-1.4113327936302225,1.862343729103237,4.096839783721143,-1.28999527372766,-1.439341227006441,-1.281007044257977,0.7606591312107172,-1.6323530776650899,-7.267381711508168,1.5681909587800205,0.6752345758206995,-0.51710203274281,-2.784851011197344,-2.278610349915713,0.5624572492424272,-0.6449579683608176,1.5390089648001317,-0.42120603674069956,-4.433308497551949,-2.002123344098978,1.628316217910568,-0.325605741350401
Pachuca,0.5644972678691704,4.1056670263004955,1.8570976196563804,-0.08625497139570182,1.0307706735553115,-1.8619376081440278,-1.344576595791526,1.8199597619096974,2.06756231339317,1.6141367178632369,-1.8068052155681853,6.868293795770638,-0.8157413384322486,0.6917213767955468,0.21650519889280018,-2.140335074641283,-0.6251700081351379,-0.3773416235606242,0.09322377358438749,2.1489732492759175,-0.8488810841001903,-5.25846990446225,-1.2167032866948095,2.6760546733420716,1.6828880191948925,-0.006371690588154025,1.418073922577977,-4.540029723169708,-3.275379618406,-0.35170990135889835,-0.7229970378971644,-1.0220964111181239,-1.7788723902439316,-0.010050403224024784,1.1860953246968842,-4.118980656954987,-1.0962586740992828,0.7320267376462141,-0.8024113319734558,-2.8282766513949857,1.8212138053209113,4.9251436355297376,0.7092981933781869,0.39237447975242157,3.3326706115787603,0.7952194383196133,-0.9751984050341233,-0.7234786277876786,1.8406083396009696,1.373746200261655,2.5204456803344804,0.453831162272356,2.787264048504179,1.9147006992379838,-2.5108738578206093,1.4104248717214012,-2.5177205880743214,-3.085280453701735,0.6621677846853554,3.9265308347403503,-2.29345851352583,-2.942415763245991,5.0212291317412845,-2.541306630955604,-1.3458946256177637,2.4468888732238767,-4.874431473156044,-3.3291377729610145,-4.513740187448937,3.576152178594864,2.0735239155843352,1.4505172956793806,0.1219987216747428,3.237935686401701,1.140513142581984,2.3131055482267797,-3.011423761156901,2.1843168341366184,-1.6955943210362632,-5.033393432998686,-1.0120201875972714,-0.9958013789391703,2.3527054079335223,3.72761514764988,-1.8879552199309861,0.6462226899417791,0.3090734286788122,-1.0235634932455224,-2.818727689780527,1.6341892600843018,1.7762321056481052,1.0707725672373243,1.985139410181751,0.021797595783571266,-4.460435292692896,4.476757615642841,-0.2356582316879737,-5.660911908863573,-0.7262246359582568,2.258072229444558,-2.7537319418107344,5.44645965555276,-2.5698648801113335,-3.3662966259864078,0.6526681306010368,-3.087556295255422,-0.8796600025131751,-1.8788897478872477,1.9220781386241643,-0.02019012019921812,-3.118189179900728,0.7330441572067206,1.5914999204449098,-1.7381867009152454,-1.5679163310427437,-4.855183643020014,-2.7202045156223917,2.149832722066365,-2.4303149342143104,-1.3497475370865166,4.190134390228238,-0.6320231948395146,-0.6973501244649848,-1.141055427459412,2.0109368484602292,5.762155588396231,5.242149248326762,-0.6729984824304556,4.776350901472428,4.019976666138351,1.5380172255879052,4.023451832554501,1.2850405840211916,-1.754356344940855,2.246434214353367,1.8771644873079723,6.377274073009875,2.8939039257151613,6.550263640040679,1.2430028236151331,-6.510624075522498,-4.704548992504382,0.26321002548077094,-1.2981546177592325,-4.443203287484764,-0.7580167767613954,4.951163613641617,3.9686524082207324,-2.6687682483353337,1.369917154896589,-0.7227394284924925,-2.643715437510156,1.8984737837217431,-0.46836194005623544,-2.2448610647579366,0.02553793209986749,2.698029271741837,2.231481128413268,6.650711701463985,2.9459128927418803,-1.6528643772394092,0.24668510383101117,3.5885529759068673,-1.4920975598377053,-0.9495367642022174,1.676857002257235,-0.07137452272790808,-0.38680201526704533,1.7202531379021333,-2.225158154053122,-3.157795072147896,4.424135454432588,-0.23106297984967583,0.9692419834214263,-0.7082879532142651,-1.1806387718075795,-3.2453815393830756,-1.281699298008771,0.0284918466586358,-5.221862196292912,-0.6171051745700117,-2.3939785874006896,1.3832130335629096,2.911086395221346,3.229547569886828,0.8472068462575638,1.5189063456042744,-1.2757954906328803,3.3490810810382112,0.7677281412463588,-0.7893412963223241,-1.8104149002083512,1.5198755870676093,-1.6643614156528943,0.05614285535560537,-1.1767838046486758,1.581190542791457,-0.043587936372048164,-2.625698356714438,1.8901894946173008,2.084664171770198,3.825591260933104,2.446992777375834,0.9538259483821228,-5.8072041188425905,0.5867530038357472,-1.7770912220277972,3.2546912724796364,3.557467541122752,-0.4035270913461426,-1.6830530579578715,4.8074472215869575,0.9687801800511223,-0.7137056706523135,0.3715791373071541,-0.9712970874296724,-1.0604637899973814,1.428129141726434,-0.6042016970883545,4.707346329281649,-4.712033978125782,-3.4996590484048444,2.412047285297223,3.518303862620874,2.8523156666932,0.0036575882960113576,2.7851695035296435,1.1199306216895328,0.4960255248022159,-2.1026163245045564,1.1021463248053351,1.4536044606156437,2.6544694746690896,-2.209025678974618,-1.79131014955263,0.8231241729951346,4.75121649184557,-1.5312531836988184,-2.4147665550266866,-2.5443781698299253,3.0345069991711915,0.6674956792363903,-8.154536408099231,-0.28050587584183584,-0.4659105106824632,1.1089322608093122,-3.3026591270264185,-1.0207529502135655,-1.5488100857864389,-2.6026890276850523,0.426377960438747,-0.1550941273704783,-3.0942718207319952,-2.518857034445814,1.3202522201501725,0.5667441133741267
Guadalajara,2.1228222657466813,2.9489276532217863,0.4053649844897883,-3.8808139721557993,-0.8620088491393927,-4.078513283475093,2.215143903786957,0.8004856224379927,2.6700384597969817,-1.1565497742036501,-2.8740257670052554,4.068071610708632,-1.2391416510258184,0.6272510274844388,0.20898378076240332,-2.2335300598331487,-2.2854639332205666,-3.0476810003097903,-0.9944539733341041,3.7673012807022954,-1.44723747000153,-4.084328949672217,-3.1578646112395954,0.6056016791723877,-1.2160787523900058,0.44894573596773407,1.4550371727437164,-4.822561828043575,-4.204040022343699,0.6992512650422988,-3.392398306686122,-2.5582056569841867,-2.433455768179374,2.1482984362970434,1.1004816776317883,-5.533497891984682,-3.60376384830634,0.6416411153371906,-2.298335071656726,-2.4107330002867364,3.9935877668502924,5.683873531406773,-2.565507241637678,2.515463805532693,2.4842151114290973,0.729492586820111,-1.097330568940181,-2.034669738550106,2.8104153903498656,-2.1680925692488975,6.60693387945135,0.06273545157533011,1.84809866305446,2.05178861499507,-3.9214218504933394,2.0050790159972625,-1.8038793759026868,-4.11098079282568,1.2085770347016824,0.3345734975402649,-4.564033412373705,-0.46887071450631157,4.737853222351706,0.8038417095787463,-1.9501722866058433,1.2170521238874779,-4.761262902092137,-6.466926740677495,-2.5701886866119716,1.498966020719899,1.0998734392399108,4.473684060309304,-3.5024383872383353,1.901158017715915,0.7972723995919689,2.394419994625135,-1.902498308494288,2.9833582303013886,-0.576216385445763,-3.525542045898486,-4.172067822686656,-0.05544282714309165,2.745469668666913,3.5924364261144106,0.6260859501579052,1.8607398673818478,1.3189995613858265,-0.8516011239193464,-5.976145830376703,1.1338415280198049,1.6241004413010742,0.34913548521976,2.3709578507894253,-1.7149452631034476,-7.323315997655943,6.0806051802177095,0.19207718493626982,-2.559045612707912,-1.2634972316070736,-1.642137603752802,-0.07324223823691628,5.16384602877037,-0.1615812300157779,-4.373105576017536,-2.8094553576878165,-3.0962013165887594,-5.716776434065384,-5.818866673565136,3.531254881888419,-1.1189236696204659,-1.0824596210737638,1.689667903586776,2.101773161591837,1.7287033846693705,2.706622850355396,-3.8699318938515135,-1.321283681942053,2.9307532598439843,-3.662011179080356,-2.1335763348821013,7.036639987118509,-2.3172980111099815,-1.2805169555644322,-0.21980138346286368,0.6957050976367982,2.8968915654032754,6.346291930267566,-2.7158013653813233,5.196938983358775,2.5679385216837614,3.756384490017605,3.661056683240407,1.5058821442624857,-2.994474607709093,4.989746973960328,1.7870530483096303,5.126416127626752,0.596374199221143,4.790183062814389,0.25264754671674716,-8.039144757979471,-4.4859419313339846,0.13934352265171457,-0.4081487529713273,-4.0071420025441435,-0.6071010427123237,3.264744076505071,3.254401151669673,-2.471730243148884,1.0497967300790791,-1.7054760913599352,-4.51961381459004,1.501298370328738,-2.491717127557881,-1.2953753765769265,0.10754705996597322,2.173068324119466,2.6711532602644734,8.167856394174848,0.36702060637462197,-0.37336933254572113,1.7259182615877438,-0.434979100320449,-0.9102278366777841,0.5007664306937882,2.4747849739261945,-0.43557551801525063,0.2974928398935565,1.0320560080776577,-1.640289566020436,-3.3927313264584273,4.762923524602835,-0.2783681168586838,-1.0228366231154524,0.0441394048182181,-0.6714720327746031,-2.488252865036589,-1.6945011818710336,1.5003431090708148,-6.794093219780535,-0.7540723294822879,-3.1008061773219935,2.562209959025858,0.8276470621036043,3.3412859714896124,0.9900881326661735,-3.6834744193234044,0.6973540653236722,4.1282865665712105,1.800389068499996,-0.0028446718415861497,-2.73226906546459,0.05300890435830147,0.04158402655830229,-1.7218972364279268,-1.2082162215275816,2.2427330198417295,2.376614689710505,-2.063621132302713,0.7363591964498608,-1.8574549120891253,1.7296754255169857,2.5877708987647883,3.1146957536943596,-5.730407000121403,-0.7651729093112054,-3.352387918202494,3.967913721216547,5.36692772699396,0.36393721672913626,-1.0925952332996363,3.636679259256473,3.098498232209961,-0.5540370362284722,1.7636918505225943,0.38509502394298334,-1.4959383323422148,2.108952189761162,1.0336965473162116,2.91072438226036,-5.089129665072891,-2.1583787982684157,-1.9066706809494807,2.078238893272206,0.2041867354149241,1.331829688366141,1.2867756702160005,-0.24984449945873943,-0.3955138076881175,1.4447563285306888,2.8756008709039453,-0.8404284050552959,3.964669891575194,-1.172775238494344,-3.1515944588928835,-0.7214062490564105,5.531515074725489,-0.9345793128766037,1.7733992461822783,-2.5895013505101874,3.487186249601631,3.367019722591959,-7.447571261221457,-1.773423866830366,2.1648312051066423,1.2627988647898616,-1.465667462306016,0.6365454267472755,0.013570115286658635,0.20461552186699095,-1.8567329185505919,0.4033466085810309,-2.4210186249128274,-4.149353315122128,-0.4907736967559354,2.0351070714529635
Toluca,2.1771126290728247,4.981290580406975,2.0006362244296088,-1.4343328479590842,0.42645673849069465,-1.797612839277624,1.7070677397298883,1.590683491399307,2.3054915869618813,1.4932368435534902,-3.1265040584234645,5.415885655885052,-1.2617151752899407,-0.089805480073231,0.3479816773216575,-2.206548267380538,-0.8803184873389204,-2.197402030117786,0.33548894918805017,3.6811996633690547,-0.15638327035810584,-5.516209812825627,-3.5228016770070485,2.63240750109566,-0.6124898814888048,0.3375109720251454,-0.17325340998094474,-4.732090335787862,-4.234934100820543,-0.6784075794913267,-1.2326566502106495,-1.165171297195075,-2.031365241380929,0.6911424409030348,0.6409702378613444,-5.1192567546464325,-1.9176373330254766,-0.7487473365238733,-2.4430944581693357,-3.104765025368526,3.040903440377325,4.702896485464339,-0.2629526621444517,1.5097944142205377,3.3211971423248547,1.0068130822326742,-1.2333931667663383,-1.303592298707437,1.8200167849311109,-0.5715059727373105,4.139137293988934,-1.0037430289904912,2.818838496012101,1.4642012784917857,-2.9825147775652265,2.5351337028233996,-1.4025217170042892,-3.6813406795804715,2.376826330105369,3.640948562877104,-4.123781297857874,-1.038222363295932,3.7943172394665696,-1.1074363993716068,-3.1374905870664658,2.8138876716258903,-4.760504637182041,-3.7683635110909255,-3.668507581415587,1.0842448944592755,1.332101298065877,1.5864348145981138,-1.0991193290547572,1.1794468306273203,0.2649714302358246,1.783731181226849,-2.073109321127349,1.6072446736756136,-0.40862773947990727,-3.695944323680417,-2.6455595954271955,0.6482701790424971,2.178704547393615,4.784137809394794,-1.1121443713380859,0.8948687058734628,1.1892071131266582,-1.2738416999104762,-3.9933079069873534,3.224206427910524,4.286897865057684,0.2696849375857985,1.6726961800594526,-1.4292238431828008,-6.718645846245947,3.9382476925400844,-0.2014639724821149,-4.964945182682708,-1.5694749181550256,1.0199118830727492,-2.234822637772332,5.87057566272224,-0.17129661355739195,-4.545591931026895,0.06230451305989404,-3.1192506246696166,-2.904030039007746,-4.173743045901209,3.784551987197696,-0.28317049107201464,-2.622998722567328,1.2834673110505477,2.1915909024796556,2.117115372875709,-0.16850141733997903,-4.948440919405063,-2.9282814099333763,1.9209038779154968,-2.192287339247678,-1.9275272573587594,5.54504709871375,-0.44944688323328796,-1.8897584221335466,-0.5704566805117642,0.9143489685768369,4.317787438543059,5.778190573521247,-1.809888291628408,5.098780643706494,3.74922479141923,1.5752482708562903,4.543775719451531,2.058865276102561,-2.9820830250595516,4.061376860247938,3.4655253974508793,6.1109695546091425,1.7162794783780873,6.311563279279731,-1.0436011638637555,-7.128120693253111,-5.111632815275052,-0.07563305151587241,-0.7365256129044983,-4.471300772085936,0.10954346928551628,4.088061116902701,5.126601530985125,-3.431929800553096,2.503784845640724,-1.2297348816181513,-3.827593703621483,2.3019561237314066,-0.8501397271390598,-3.2685622387950017,0.6044429552208083,3.19923074438809,2.232604975147387,7.872890372899973,4.0480127138204445,0.05598849762690383,1.9033580489302457,1.0507200992362782,-2.1387437885399714,-1.3575217539170805,2.0291864037278997,-1.4495617562406655,0.31780870511982506,1.193200913733347,-1.8616219472574878,-3.4291418341543216,4.259729059209474,0.6566302061879699,-0.7128319293119952,-0.4112705782303905,-1.8851709697994918,-3.625356318249135,-1.392182878345503,-1.1906563583761196,-6.561419297112572,-1.033660532282513,-3.045637537830754,3.206922346220985,2.5808001798898874,2.7683453360896766,0.12044467370821668,-0.4560273146851326,-1.9156357927130683,2.226842174791194,-0.14278548427286075,0.07529137947584598,-3.691318899049181,0.550420303580512,-2.308365493891927,-0.9368306587363744,-2.452951112103678,1.7057415452093934,1.0730392631768297,-1.264027326321961,3.5411583602431675,0.05583030054624982,3.0636448249608534,3.2160875323409996,1.658914507149606,-5.053351354210848,0.462724905436115,-3.309884276320714,4.301662850197794,3.6113940660337818,0.19919339249068302,0.2901984468028306,4.223267701368734,2.389719128417788,-0.8627095763397246,0.20834068464603284,0.32724741696693993,-1.2017406257765444,1.695719819075298,-0.8142875884614312,4.859071231318113,-5.32562804683532,-3.5063206648469567,0.8709286724966949,2.9678062717564946,1.1829441528495719,2.092658839401125,2.16795691190603,0.37594793939162874,0.9482017834413399,-1.1744916011861934,3.0801322889525182,0.38716487746152506,2.979411892750301,-2.396690005619308,-3.1787903691824133,0.47921462802907167,4.174902442509337,0.04767699532249095,-1.1831821166696244,-2.273091162968371,1.9241974323754774,1.7732360991730167,-7.891228197041636,-0.8009140788951297,-0.19540465022286857,1.2853296428324548,-2.626221626944355,-0.8061415590497902,-1.9949987001821499,-1.7514015725459458,-0.44339146431221554,-0.007384327143253211,-2.3497554566503913,-2.812825744110042,0.7915979128153798,1.1066469554961857
Morelia,2.9668907769602657,4.411799794380286,2.0068218948228433,-2.3992822198982844,-0.6568308848726037,-2.4010782306340013,2.862647990613961,1.8822340069935064,2.133678558856082,0.4752543732645265,-2.6416046534886686,4.21778349330494,-0.7756934176885363,0.37168756141558157,0.3596046989628171,-1.6682123096587762,-2.34169029942933,-2.2400427578719317,-0.4026218617151599,3.568324046452906,-0.5662311104036728,-4.993879180672465,-4.076272066722849,2.4312711394929423,-1.0149950911256935,-0.19074688326985795,0.15841818562647325,-5.031343200498177,-3.695691449865559,-0.16967167147721746,-1.9796570837886396,-1.6272532611839134,-2.159876231167901,0.9840105674005633,0.6070857994478684,-5.63217033385179,-2.8148505407463755,-0.15104626698574797,-3.210417119155059,-2.553915391387717,3.802605125222117,4.779499317372003,-1.2717276058160552,2.398469507755468,2.8880511253074466,0.5299300200315527,-1.606480253538375,-2.3193295971059134,2.624205094999967,-1.6871559147190742,4.761036647740489,-1.4111538802959416,2.5382057279556482,1.6621119600687395,-2.2387648505938493,1.9392972677177192,-1.3082704723255634,-4.005839368988397,2.2276139234236005,2.086365205068299,-4.371217548669172,-0.3013751924334219,3.7981450802997783,0.2846811729790299,-3.352062522534772,2.220628888678914,-4.495610459012499,-4.8923481112148135,-3.4669288057944674,1.080217559925963,0.4693634652143107,3.066865871953392,-2.1962617264378195,0.3343745819535282,0.7579707889138061,2.23081228122319,-1.7810074910198526,1.9786732703726824,-0.48015690684320067,-3.3237626751115945,-4.080466163302013,0.39066601274343365,2.5763538309211453,5.237490688130359,-0.8982870304368118,1.7189232123478917,1.3115272816936567,-1.2144131521105814,-4.572879976637842,2.7532710639255695,4.233406155402909,0.1714033727450907,2.657036000821337,-1.5394399291727203,-7.620852329771141,4.653523350856754,-0.6719276759050616,-3.4570685981630875,-1.160910105013265,-0.5193429233406384,-0.8062838446305238,5.100615046872473,0.13347615976980887,-5.765009055888528,-1.392003192031197,-3.2427079061585524,-3.7599970544334473,-5.258882186884061,4.102305839208157,-0.159406744172078,-3.4101646158557943,1.0398355850034195,2.9861892337560643,2.6394301562747016,1.1374643280465804,-4.356120237086388,-2.7864959270823837,1.9352643981769577,-2.376462432413044,-2.5829961920874487,5.583638486031175,-0.5727963194880916,-1.4938245047377998,-0.45514070075546587,0.5731273470864077,3.5500336281920393,6.2471625687446,-2.1980427266935214,5.074907072789344,2.926816661173965,2.3841763670601352,4.2995540956015565,1.4522860995381732,-3.0532647159984307,4.577582979925573,3.55970372924485,5.8792598421422015,1.1393744892930766,5.809332653594899,-1.80245106131574,-7.148122553838865,-4.48601180130925,0.2223687743235594,-0.5043511553423904,-4.440671208502976,-0.40555450234572366,3.65247494523691,4.927108341547795,-3.4247929739099305,2.262611376494841,-2.2625124310271922,-3.948063886716685,2.738862684414855,-1.5319743305666098,-2.603364077369954,0.2127656685477942,2.907527471598774,2.512038436191321,7.916808463142823,3.530244953022861,0.41892413961411346,2.5189685794684586,0.469936706896985,-1.76248478903228,-1.1218908106188716,2.6515956363508724,-1.9765322793965208,0.11688030962249096,0.9404706795076596,-1.2897688321018101,-3.185904048201396,3.7118897757111364,0.41904903118871023,-1.4227279016358039,0.09837422778620353,-0.9183179450230903,-2.7397287947671374,-1.0426202788829708,-0.40227072700065736,-6.347329198700388,-0.8970481511853186,-3.314991449484121,4.027429010018845,1.568932731692874,2.7117356156587147,-0.24711107406526697,-1.3804489140196112,-1.343679204655606,2.4870717043105373,-0.024678066617975114,0.490750367672104,-3.8338228034413633,-0.14944999551790938,-1.8833311101698025,-1.4609458946564082,-2.195675380371682,1.5763386055075004,2.0449128444950277,-0.9570653085833754,3.4034132988550287,-1.0692192878928943,2.563637795047598,3.01217251782136,1.2367699302763846,-4.785884418198947,-0.4060411147421493,-4.410135854521778,4.127886229708933,4.10981767588612,0.6519432849055871,0.10438787237745856,3.109880787785667,3.107857847832441,-1.581617425321581,0.5368348976173727,1.3419813655982593,-1.3759797399906475,1.5527572656438728,-0.40608284282867557,3.692630932701473,-5.661455360293729,-3.1803715801904797,-0.23348356254748404,2.0496060403931917,0.36291481894657673,2.733156048522035,1.4919390030674238,0.3416652799259016,0.495175564005118,-0.9119319659822152,3.8819206307271354,0.1885470565976045,3.2057523061805204,-2.4184333348148495,-3.1731963796574663,-0.4547602690381724,4.015690106863419,-0.010574938737380801,0.2691290685368866,-2.820387194533711,2.233957240651903,3.5279789826923595,-7.5490171060953255,-1.0501448108854712,0.25278457569684887,1.9093443817481814,-1.8864626079676934,-0.1526136130037038,-2.118733624460879,-0.2821396356073811,-1.4473592183115507,0.3727163558991208,-1.9660271772324214,-2.9766939708847038,-0.36887696740579695,0.9190253529146578
Cuernavaca,1.602632495900057,5.020902121578166,1.611568140745608,-1.262679760009286,0.524494576600885,-1.994450135967824,1.490079908081944,1.495867392117553,2.414329721934252,2.0635909968668615,-3.175038868166099,5.854217296350486,-1.0043716911375107,0.2736611554188316,-0.14027219078484843,-2.468454542839105,-0.63268784718427,-1.9525077257591512,0.35950642269921385,4.20226876809452,-0.02384875648503304,-5.5666749415011605,-3.2669520632656823,3.0279136137214406,-0.5321707320929041,0.2659813953518052,-0.831643188370774,-4.693924769933917,-4.50495647598561,-0.48878047253415463,-1.5098779502473436,-0.7849310368946394,-2.214187858575958,0.7216907970006277,0.6055286386062101,-4.629277817441753,-1.5355307076259892,-0.986781509478767,-2.3526720732618918,-3.0212078162435807,2.887463542338284,4.433028385181156,0.35002536649981564,1.343618637182167,2.958630796069059,1.0337685797754985,-1.3529058059123567,-0.5408285602010321,1.8403777483291115,-0.31240342761375794,4.370751751992723,-0.5955728664262423,2.816586429507058,1.4484225037082046,-3.5053583563105066,2.303892311182198,-0.9486467349226386,-3.823146615105628,2.1108421539560305,4.017950021430207,-4.15858559312214,-0.9463036178263081,4.032050271907644,-1.5709420558576275,-3.153441665584748,2.7130242997834233,-4.744604292993049,-3.666629376251601,-3.8821797579487254,0.9243185539665674,1.350334578061458,1.4276678708887338,-0.9992048049874394,1.2890919226759778,-0.2730506897648144,1.1826039730522304,-2.2058407694255098,1.2895946502869657,-0.6909478186609583,-3.649451619400662,-2.2888275262127022,0.5704040445426156,2.006573157152135,4.080441986868603,-0.6972376391891258,0.9068794728449423,1.2314974075519451,-1.1822526855428848,-4.0178880478878805,3.3214362692797366,4.116834605898975,0.03092507348000295,1.1611738408758825,-1.6940118892035794,-6.2838082464271885,3.4926481514716254,-0.06895854393707301,-5.510100149895768,-1.7578892724288322,1.6178862039658566,-3.004024881811634,5.862459546668925,-0.20002764953215824,-3.9167189990910605,0.27782660018581795,-2.838217877734553,-2.7497271970270285,-3.322925985180955,3.6782192029153444,-0.5364682015317719,-2.2925955567060097,1.0422994792512534,1.761772934910629,2.122682580995875,-1.130302948622418,-5.173725692754512,-2.4756792442125013,1.9568899845486687,-2.0700938064490604,-1.2358921180606504,5.636242956285834,-0.360762847555917,-2.473464139216259,-0.7491499855876202,0.5030657767994248,4.593446569762975,5.302761108333923,-1.6950175679632822,5.070950337161234,4.109111972452297,1.3182178293265814,4.3943927847444435,2.4254277732694103,-2.826713416141857,3.6932891642147556,3.4457425764487435,5.656023642763213,1.938968379928188,6.472019714686681,-0.5602766401298319,-7.006337594734912,-5.410034717827614,-0.7034557757262245,-0.4734218932834325,-4.57242316212877,0.2660839725065743,4.389736455957857,5.6472427629645985,-3.209094735309198,2.865263767834095,-0.4780371133715885,-3.3057261332006203,1.6466777750079515,-1.024170333601509,-3.1457212449280885,0.8540146788351713,3.1970845751180157,2.2248926362591064,7.795755807086726,3.647241468722995,0.0036506300143848147,1.604235749706643,1.1293909679610532,-1.926275237471691,-0.9706264757897615,2.0120068920648833,-0.8656077231125187,0.6383077493443685,1.354206650794466,-1.9619753583430077,-3.231800294571117,4.404878964919206,0.7390332450973434,-1.1487610599712728,-0.5109826829159333,-2.198637742733754,-3.443269547533572,-1.6667921558565275,-1.790046598448778,-6.593976721479596,-1.1267995582417336,-2.721242921153697,2.6488181637782278,3.0063245478431515,2.9207586202455196,0.3375211586653192,-0.39503401698527774,-2.372720660617049,1.7557726505323878,-0.2544550555201186,0.21536363862321176,-3.2715312500011375,0.41262016189234074,-2.477164395328332,-1.2214271722913703,-2.804227231855233,1.9105436690228452,0.9013130947615247,-1.257408989334998,3.8654050841692316,0.45188745132707164,3.2083516733804753,3.3063260399913093,1.6717440060344355,-4.99615793490378,0.7929751215420607,-3.059969781783536,4.073606110838025,3.6265960677979336,-0.0888576269391248,0.05387297698256499,4.523707761455981,1.7389649704320456,-0.8274515514380032,0.04171281151463575,0.45810969283445163,-0.707541379775231,1.7475850045635433,-0.44464656036880446,5.294048110974903,-4.827062171335433,-3.7410358769340673,1.599728591470857,2.929454720980997,1.5722134559266352,2.0936829564330885,2.6661490837140533,0.5734323640146445,0.8146184420974985,-1.1902995081961245,2.767242573590947,0.20383984340107797,2.9737319208462054,-2.312934378591482,-2.9679872789421573,0.5363515528041694,4.052570156188189,-0.06308473980839951,-1.8155335850990098,-2.019700411072326,1.7221403758760663,0.9706345594998216,-8.11741991493697,-0.21687370272546735,-0.030840286706181885,0.7190477266708767,-3.0327500532749525,-1.5789353460206423,-1.5852462059341879,-2.182154640197158,0.2116341346436836,-0.25281704223533796,-2.8347065837250986,-2.673444319493568,1.0484474185135204,0.7664874903654324
Tepic,2.2028631285052374,2.458052226630912,-1.4393381829598346,-3.0827155850766097,-2.222808411741509,-5.655775393045606,-0.14750605770896263,1.0271431117010201,3.424569010014917,-1.0417078970296139,-0.7535785079245081,3.2842308076295494,0.20209212181997893,-0.052828252601204904,-1.2404062477059006,-1.5131969554874778,-0.8948934476868217,-3.7188300470147144,-1.678093493287594,2.374292143945255,-0.5467053529539437,-1.9556387610744106,0.3413027612466747,-0.7185130813936941,-1.1021061363315992,0.3587890384687846,1.2453339894567204,-3.7229874376711747,-3.669055192294515,1.021322172438661,-3.3779896012179416,-1.5605370771383238,-1.5714055000084661,1.1334299941347945,1.7497481088430327,-3.709078787802728,-1.7699983879433852,0.10731186170001089,-0.7851766234357274,-1.6395450601311743,3.7939972094296097,3.8893143039955547,-2.171338536191188,2.9471229238046392,2.2514699533948965,2.112797213676334,-2.0889811926682937,0.7502024645438701,3.0757236614774275,-0.23172115626621004,7.427279590248845,1.5170603616459706,2.4852351654882288,2.217597607842935,-2.4650164667537267,0.8994300780206752,-1.2510402740572675,-4.056469946193598,1.7869931000228454,0.7517298399216923,-3.152491092218595,-1.0038610467068343,4.003851816500859,0.3420099328358254,-1.4034759781932475,-0.7405448685189054,-3.7313952032073336,-5.266740560057792,-2.2455753645438623,0.8038986818159741,2.5249349497228555,4.187837609734014,-2.84213068982122,1.4838372611029882,-0.47631827365380563,1.1064661279818373,-2.531219588547464,2.9554761363717903,-1.5798318618019196,-3.844557483357108,-3.0935277817518356,-0.3576475516801574,2.1438146146077073,1.4039545122515087,1.6843464780368846,0.8491067257669691,3.4217817194255415,-0.9894518289351888,-5.5782232537870975,-1.9820039594401004,0.6347940098705968,-0.18157416025074286,1.8826273414679324,-2.3801750810170836,-4.76744855298729,5.326582933017705,-0.16745840822713864,-3.4187340880257855,-0.6075714764780606,0.21481667840678448,-0.12270401812174564,3.2047102078011154,0.24357237380834804,-4.024582406165999,-3.03746126367936,-1.6169572419705216,-3.988694153467023,-4.3251234686630085,2.716091531837138,-1.3922000565725765,-0.28053598082720577,0.2112698496050704,-0.19847340406961966,-0.3382356751708696,2.8592142749669285,-2.7535621319866648,0.3572432799660884,2.6815552239497413,-3.5459391999762397,-0.25097514453591546,6.312055784492992,-3.4147889038628096,-1.4935186942250915,-0.42285283579999383,1.5911727780881912,1.2728762823809694,5.453636191975855,-1.5550077117457757,4.280856180454988,1.1042798816827282,5.01379161852895,3.5425402743549554,0.9828575902580037,-2.4656894081815017,3.4435383482665216,-0.9848233721388829,4.192672661214461,1.4825882311383705,2.657442171769463,2.7963285842112775,-5.121826778406593,-4.660785901997125,-1.5756184072105963,0.2922720513035874,-2.248386779779156,-0.7492028306813197,3.369757379132413,0.7914448704483326,-0.24976198091784704,0.8555178540157353,-0.6994550165532512,-1.207622861498133,0.45810984769438856,-2.664360526500927,2.005230381088916,1.0064900563627237,1.5266547042158751,3.899458304533529,8.223822427165675,-2.3848440630417223,-1.2665025212956476,1.240601805267762,-0.33880814267677256,-1.8351273983327685,0.8899172960194022,2.0599797831766624,2.895565586986362,-0.35545592335585824,3.3374306713697957,-1.6295584892122623,-2.1259472207557297,4.058032265614628,-1.77301263654145,0.5192737758322399,-0.729199781981271,-1.9029481057812145,1.087004524595884,-3.005272673158352,2.0416389379922637,-4.711955960085012,0.5708915566210514,-1.9400106706412235,1.6600528774673993,-0.570790351889053,2.842756792005134,2.6097246440213695,-4.854721150886228,1.2869109839850967,3.705370258001685,2.65956267110226,1.4357184618264378,-0.7711618003360929,1.2622821742656036,0.14127247055493464,-2.7001314943059054,-1.8560581253283575,0.6359648972031791,3.448217405738396,-2.1417362385630603,0.5221236412100162,-1.26666879283614,1.9481251602006973,0.886135703124302,3.3192841323768736,-6.115570048498118,-0.025395471289488603,-3.7977501572068317,3.357652689174011,4.74637930648122,-1.4890164645924973,-1.17415793404068,3.7419467161050273,0.8476476584074268,-0.2111311740137618,2.852095605656027,-1.3347723949669414,-0.1900742295235015,2.596521592004589,4.315635160397611,0.7444580110673111,-2.3779542204065347,-0.32537130649428986,-1.053147052462701,1.2379727719361489,1.6904569097550768,1.2938243272705034,0.846430264895851,-0.5462569470467566,0.6473292460523069,-0.1266658905313156,1.5121079628061425,-2.4731034926179305,3.4248375501971653,0.8126159291782415,-2.449784051114542,0.6287677755509413,7.1228851047509005,-1.1924825768376361,2.3686912356542207,-0.5532036951559338,4.698593536694834,0.8888313276613773,-6.79180007018854,-0.464732692716574,2.004447768015814,-0.7197563920665021,-1.4374775568436327,1.987483900650498,1.1010960581665645,1.8981631433553332,-1.4209547485423917,0.5766135491488433,-2.6581649737557527,-5.1676125780559,1.4338856313626627,1.4058459305313595
Monterrey,1.8440555320355347,-0.13344160663972343,1.9152646762945018,1.7557390206339472,1.5567503902347075,-2.9130061867398735,-3.8150839552672986,2.8764799022459804,0.6934575606201401,-1.7246872020692594,-1.448321999555475,0.7352680219798843,-9.972022747359446,-1.607014289417509,0.8747278432199709,-2.084055455251975,-1.6132581206009802,-2.3029343734123477,1.1671675367798222,4.132952570704311,5.279304294165643,-0.8648466124697962,3.102926793418506,1.134971546671123,-1.0778318511416671,-2.445229325591795,4.505145820437786,-2.2856366577387512,-0.5046057610879471,-3.195562216744257,0.09049579991574885,1.5272736126905704,1.269082669184269,-2.641423621258936,2.7546107890881144,-2.124230909926803,0.8782286210368921,3.2517916039351267,0.5847081564147684,0.25604072421689705,-0.53804516876853,-3.8255778210538773,-3.1921407830369,1.8605060994136342,2.2317414683073036,3.5785252971241275,-2.169980501873212,-2.9433557764276372,3.014441041495912,2.466377234200551,-1.586784521886557,0.4085834229041245,1.2039201014296663,2.603327012795792,1.3543691129917068,5.147146039982913,-3.06165797395838,0.025636346658821973,2.133013138324073,1.6004176080091401,0.10696764309510165,-2.7061009982399957,-0.35584040102771164,-2.7847937989325726,-5.318212667921344,4.05836394032357,1.316105613029854,-1.4451377174807718,-0.5922394856156528,-0.2745806538484756,0.5184773713202223,-0.580914009355269,2.7841085154310488,6.93178264836815,1.24126462041591,0.7464890552912462,-3.500523952335663,5.197902649132213,-2.622283453063556,-8.735080202305694,-3.3106643503272366,0.7953066718325137,0.3375632878520955,3.735144147444221,0.870280241202072,2.677540557019189,2.3883280953957517,1.720823816349801,2.3589081774571965,-0.10997674468203539,1.659800140625242,2.4996188340796603,-3.745194571512834,-1.2681629686659077,1.9020616984479473,-1.4533183455428378,1.6091595755949641,-3.6949500410091143,-0.18473227589892538,2.8506417604499426,3.9445802676088983,-1.5479582436889063,-2.1484148814882715,0.10404872547385913,1.9963727522035903,2.936637929655539,6.658170857080076,5.803088442751406,-3.1694967475253435,-4.438453543298477,0.04605659571370199,-0.7224279893327612,-3.226215902384236,-2.104688918296242,-0.5739171071124671,0.3726633287788981,-5.7470287372280655,1.4448848430492687,-0.5790347499343688,0.2356951656397508,2.821295514131542,-1.4140318742148696,-5.722693558729694,4.110402811104154,1.7591015932861467,-0.6765778343196858,2.840126216845831,-0.9576490597431124,4.825489705357602,1.3602843265207745,2.9938483772734585,6.077015489408756,0.7461273586922827,-2.6750349166136003,1.0770621500535669,-1.000983595468319,-0.14537718347769407,1.9966376530916192,7.365768447269018,0.27133947660376523,1.5693978241014517,-4.414136887234795,2.3734712388989205,-2.7329131670340807,-1.5008883363250725,3.862319686721288,3.2591464770739185,-1.7948326113474946,-0.4371518421147663,-1.2705644812854409,-3.451989274686968,0.24213972138565326,2.465099455181374,0.17413077118495152,-3.154978676797914,-0.7828889432367496,3.6816218643903498,-4.123258472658323,1.8796926169005863,3.26801009643959,-1.1167907095045937,2.676004338048947,2.409258308181576,-1.0926048132741013,-3.2143681052471726,-7.631968363502983,2.317896590511377,-2.348038564079695,-1.093252106493268,-4.82141135918377,1.5033869739777652,-3.9234955186186684,-1.3034439878478725,5.743837793078519,-6.375997593252478,5.430843543904725,-1.3334233525346373,0.1647341672033774,-1.426604995067085,1.6838128670201677,-0.18552726224325358,-4.960285791791392,-2.8544211119813196,-0.3040613079600897,0.9213989407902923,0.8001510298919458,2.380897069119416,-1.9194271799410025,1.0036845616786636,0.37956825567857244,1.8677187428820277,1.9792585342384186,4.16848308971184,-3.048757090834025,2.035973005293005,-0.5762438829547392,4.989172967376392,-2.049070772756556,-2.6938286970617,-1.1715098350170232,-0.29230217062033226,1.6269517950684398,3.6698790005837525,-0.3603225391134858,-5.905715247617514,2.1364676617364022,-0.1275207990442419,3.0303348716604996,2.005838151757489,-5.186617213852423,-1.4171993094665358,1.5571515825379978,-3.5545244231474515,-2.1800877813408315,-1.6641370638125954,-0.7434167357323275,-1.0406507321879155,-0.1944544334671937,-0.16664450499725558,-3.938196236565224,-2.065119069803158,-4.258511989859466,-1.546472389745036,3.9112366219687162,-1.1964209070307315,-1.633436844686253,-2.967310561917947,-0.025718854579268147,-0.017966650580711008,1.0503855997414973,-3.1607562971031644,1.343342911812488,2.1523937129234962,-2.7832036000850566,0.9967346877582036,0.9460601029039132,2.2258719824308777,1.1714377207624067,0.12910684600261085,-5.745178455958223,-0.6129990293729576,0.9419944005020695,-2.011232427700179,3.765720147480388,-1.1527803630083824,-0.7481625920886414,-1.1759201964317323,2.3427379264816546,-0.2371068964431235,-0.370593833098824,0.6145607383633421,-3.601023178125882,0.5515632827294936,-2.570633704011406,1.2568975011713293,-0.3940396718651264
Oaxaca,0.2505920269569434,0.18123369915477877,-1.541817955481039,0.15313705193187555,-1.3486109444965755,-5.293977639881668,-0.3319796528890789,1.7860836282988495,2.1035097141710737,3.921461180967024,-1.655398068624574,5.333920712659923,2.6140879253256144,4.049214050206253,-1.689876532126731,-1.3508502568168386,-2.3346581530030734,-1.1040220284516156,-2.7354282361561357,3.933023672381886,2.7735221595943,-4.857859606787877,0.39177802392319183,5.268745417563157,-0.5647285817925546,-1.5636055370201176,-1.774891586601551,-5.575018034572391,-4.038314168804199,-0.07315280947886113,-2.210838895429556,1.7529838552903114,-0.9933335994643895,1.9621324946340293,0.33757674640013563,-3.289211942961669,1.033268940696661,1.9414885019436687,-2.8657512776585907,-2.3774107513059914,1.941478877143841,3.1639403185368633,1.5306427630465402,2.355583487317168,-0.15947410258382,-0.5706276428370154,-3.801281348341579,3.0586599429899803,4.2066487094985705,-0.5878909806395736,6.085321677121579,2.0619328180181657,4.6547041766188135,1.7066755554531357,-2.401454825261321,-2.0892803018877526,0.4585111018428554,-5.008368092196465,0.9143251255868212,1.9922135674926187,-2.902023873003053,-3.005941975728934,4.964447545194272,-0.48182468795401834,-2.5907151085637325,1.0129434750659358,-2.4442224646541586,-6.47453274064468,-4.8806923642727815,0.1077204746217055,3.0470811661399133,1.4464206498953431,-1.3046777764365645,1.6128980626228786,-1.242226127557732,0.16102337747833229,-3.235729019301565,-1.142510213594891,-3.3137851394159075,-5.437332307089516,-1.0929265924951692,-2.2260573247730564,0.9769143846034207,-0.6357103939137494,1.5155931841825803,1.537271041694472,1.4177830954073687,-2.2218303871847755,-1.989490770355119,2.4906017730305194,0.8604523396341298,2.759561708961957,-1.360666308477003,-1.1790436712292176,-2.158944688882494,2.251301479146135,0.922469153723641,-6.5103099096215615,-1.5710867771436956,1.7895912085317842,-3.2960601311246753,5.518734322253042,-0.7681935132458021,-2.5672867284850724,0.17564890523554766,-1.1401427898474523,-1.6366219555889683,0.1999590723474934,0.5996979324479614,-1.2687103568227682,-0.505111524557039,-2.1701215752253344,-1.4214890588375912,2.992321386795881,-5.357999897942929,-4.496470296545577,0.16739589222892415,2.2140614960030094,-2.8350435089570007,0.5027157705553033,4.497697758623662,-0.476900681597425,-6.006660166481087,-2.015162968672784,-0.323581163914776,5.027611634071192,3.571347730192892,-2.490273076744482,3.7099610423016642,3.690845787010195,0.7025688312624321,3.9204366431068776,1.0739524654972734,0.40115874237997773,2.3910514873402535,1.7234928408247736,3.487832001887588,0.6817914768035871,4.755763975945776,2.4670286195619084,-5.190162090313024,-4.701345123940856,-3.9512070213525066,-0.7557766859931696,-3.072196529969673,-0.2731804359246792,4.317545088580758,4.345257754776409,-1.3936269955438803,3.5510129775969355,1.5153256721084298,1.5275116874139365,-1.6094765916340843,-1.7755443432867064,-0.5488964744071614,2.7750128066594666,2.5006443777116845,2.9821321719822165,6.229350492406779,-0.043028924897957524,1.2514715469381514,-0.2210457795486575,1.2386435670275087,1.7198787680641088,1.3693941505372718,1.8692314365936742,4.096755621594257,1.1500410530465537,1.9823552340925787,-2.588079294029639,-1.1614722357757388,2.838400078086619,0.8649214251642208,-0.5395571389457708,0.21387112454971863,-0.7920468917243118,-1.0615255731245858,-4.89959113789112,-0.2281030977147267,-4.190953810709837,-1.0400261740885521,-2.780102756797609,1.1989305330949491,2.947507971116948,2.3261421844590826,1.8944165249438916,-0.38674802570859756,-3.5377607351792117,0.9677495644986308,2.2706202505304818,2.2260750500070414,0.6889761319823974,0.6759874660270087,-2.688174225412003,-3.503216607048726,-4.141167542273799,3.8576917679941225,-0.6801433472529648,-1.5693278832611284,5.130367042737584,0.2682450186085563,4.148508556844229,2.864806706950387,0.5515769532006476,-3.654268784004312,2.743475120035144,-2.9088950978110875,0.9928648940501972,6.099473562783861,-0.8336726115918239,-3.048320743411299,4.171855439772736,-0.5712335113831306,-0.9922420118809461,-1.2187461696216084,-0.23342861491134256,-0.16405762585119568,2.1282072210297502,3.2349901393697893,3.6976847739951193,-1.8397169388425811,-3.2391462980034103,3.3404983168444877,1.3987666936482017,3.796771306436246,3.666968463135621,2.893680909918249,1.5065301493158956,0.7423573720943449,-2.5918305709759437,1.6993619489720007,-1.3197600628352293,2.0522664915538646,-0.7827198199865287,-0.08540406220493318,2.2343794395668732,6.355233092629824,-0.48075707181915517,-0.36841371355454844,-1.737647911774522,2.660530651806073,-3.050569688320276,-6.097663412701347,1.8502813236662488,0.8122188658948004,-2.0273313128768558,-4.7935679792542185,-3.3887172294133023,-0.2543403065379054,-1.3057214372048958,2.2607520626696043,-0.13529730518475636,-4.011344057633673,-0.9980115042673956,3.323782977151057,-2.9929932007055813
