city,dim_0,dim_1,dim_2,dim_3,dim_4,dim_5,dim_6,dim_7,dim_8,dim_9,dim_10,dim_11,dim_12,dim_13,dim_14,dim_15,dim_16,dim_17,dim_18,dim_19,dim_20,dim_21,dim_22,dim_23,dim_24,dim_25,dim_26,dim_27,dim_28,dim_29,dim_30,dim_31,dim_32,dim_33,dim_34,dim_35,dim_36,dim_37,dim_38,dim_39,dim_40,dim_41,dim_42,dim_43,dim_44,dim_45,dim_46,dim_47,dim_48,dim_49,dim_50,dim_51,dim_52,dim_53,dim_54,dim_55,dim_56,dim_57,dim_58,dim_59,dim_60,dim_61,dim_62,dim_63,dim_64,dim_65,dim_66,dim_67,dim_68,dim_69,dim_70,dim_71,dim_72,dim_73,dim_74,dim_75,dim_76,dim_77,dim_78,dim_79,dim_80,dim_81,dim_82,dim_83,dim_84,dim_85,dim_86,dim_87,dim_88,dim_89,dim_90,dim_91,dim_92,dim_93,dim_94,dim_95,dim_96,dim_97,dim_98,dim_99,dim_100,dim_101,dim_102,dim_103,dim_104,dim_105,dim_106,dim_107,dim_108,dim_109,dim_110,dim_111,dim_112,dim_113,dim_114,dim_115,dim_116,dim_117,dim_118,dim_119,dim_120,dim_121,dim_122,dim_123,dim_124,dim_125,dim_126,dim_127,dim_128,dim_129,dim_130,dim_131,dim_132,dim_133,dim_134,dim_135,dim_136,dim_137,dim_138,dim_139,dim_140,dim_141,dim_142,dim_143,dim_144,dim_145,dim_146,dim_147,dim_148,dim_149,dim_150,dim_151,dim_152,dim_153,dim_154,dim_155,dim_156,dim_157,dim_158,dim_159,dim_160,dim_161,dim_162,dim_163,dim_164,dim_165,dim_166,dim_167,dim_168,dim_169,dim_170,dim_171,dim_172,dim_173,dim_174,dim_175,dim_176,dim_177,dim_178,dim_179,dim_180,dim_181,dim_182,dim_183,dim_184,dim_185,dim_186,dim_187,dim_188,dim_189,dim_190,dim_191,dim_192,dim_193,dim_194,dim_195,dim_196,dim_197,dim_198,dim_199,dim_200,dim_201,dim_202,dim_203,dim_204,dim_205,dim_206,dim_207,dim_208,dim_209,dim_210,dim_211,dim_212,dim_213,dim_214,dim_215,dim_216,dim_217,dim_218,dim_219,dim_220,dim_221,dim_222,dim_223,dim_224,dim_225,dim_226,dim_227,dim_228,dim_229,dim_230,dim_231,dim_232,dim_233,dim_234,dim_235,dim_236,dim_237,dim_238,dim_239,dim_240,dim_241,dim_242,dim_243,dim_244,dim_245,dim_246,dim_247,dim_248,dim_249,dim_250,dim_251,dim_252,dim_253,dim_254,dim_255,dim_256,dim_257,dim_258,dim_259,dim_260,dim_261,dim_262,dim_263,dim_264,dim_265,dim_266,dim_267,dim_268,dim_269,dim_270,dim_271,dim_272,dim_273,dim_274,dim_275,dim_276,dim_277,dim_278,dim_279,dim_280,dim_281,dim_282,dim_283,dim_284,dim_285,dim_286,dim_287,dim_288,dim_289,dim_290,dim_291,dim_292,dim_293,dim_294,dim_295,dim_296,dim_297,dim_298,dim_299,dim_300,dim_301,dim_302,dim_303,dim_304,dim_305,dim_306,dim_307,dim_308,dim_309,dim_310,dim_311,dim_312,dim_313,dim_314,dim_315,dim_316,dim_317,dim_318,dim_319,dim_320,dim_321,dim_322,dim_323,dim_324,dim_325,dim_326,dim_327,dim_328,dim_329,dim_330,dim_331,dim_332,dim_333,dim_334,dim_335,dim_336,dim_337,dim_338,dim_339,dim_340,dim_341,dim_342,dim_343,dim_344,dim_345,dim_346,dim_347,dim_348,dim_349,dim_350,dim_351,dim_352,dim_353,dim_354,dim_355,dim_356,dim_357,dim_358,dim_359,dim_360,dim_361,dim_362,dim_363,dim_364,dim_365,dim_366,dim_367,dim_368,dim_369,dim_370,dim_371,dim_372,dim_373,dim_374,dim_375,dim_376,dim_377,dim_378,dim_379,dim_380,dim_381,dim_382,dim_383,dim_384,dim_385,dim_386,dim_387,dim_388,dim_389,dim_390,dim_391,dim_392,dim_393,dim_394,dim_395,dim_396,dim_397,dim_398,dim_399,dim_400,dim_401,dim_402,dim_403,dim_404,dim_405,dim_406,dim_407,dim_408,dim_409,dim_410,dim_411,dim_412,dim_413,dim_414,dim_415,dim_416,dim_417,dim_418,dim_419,dim_420,dim_421,dim_422,dim_423,dim_424,dim_425,dim_426,dim_427,dim_428,dim_429,dim_430,dim_431,dim_432,dim_433,dim_434,dim_435,dim_436,dim_437,dim_438,dim_439,dim_440,dim_441,dim_442,dim_443,dim_444,dim_445,dim_446,dim_447,dim_448,dim_449,dim_450,dim_451,dim_452,dim_453,dim_454,dim_455,dim_456,dim_457,dim_458,dim_459,dim_460,dim_461,dim_462,dim_463,dim_464,dim_465,dim_466,dim_467,dim_468,dim_469,dim_470,dim_471,dim_472,dim_473,dim_474,dim_475,dim_476,dim_477,dim_478,dim_479,dim_480,dim_481,dim_482,dim_483,dim_484,dim_485,dim_486,dim_487,dim_488,dim_489,dim_490,dim_491,dim_492,dim_493,dim_494,dim_495,dim_496,dim_497,dim_498,dim_499,dim_500,dim_501,dim_502,dim_503,dim_504,dim_505,dim_506,dim_507,dim_508,dim_509,dim_510,dim_511
cdmx,-0.05647656,0.2729534,-0.2821667,-0.15041608,-0.05846207,-0.14126423,-0.11085875,-0.2578964,-0.11030329,-0.0027398337,-0.28014046,0.018339192,0.077560306,-0.20269684,-0.13834615,-0.1074031,0.15895551,0.20448838,-0.11632568,-0.21679309,0.013167007,0.090141766,0.025650702,-0.18032588,-0.027697355,-0.27367735,0.118549794,-0.060805913,0.05486259,-0.10166999,-0.12148332,0.05276599,0.17097774,-0.019673202,-0.080036566,0.1283029,-0.08235738,0.2673053,0.057303354,-0.3383689,-0.092551574,0.09823437,-0.02981573,0.0150775295,-0.040902488,-0.23900765,-0.22929816,-0.03563609,-0.17647156,0.01600042,0.041601043,0.013176128,-0.16014671,0.1386893,0.17382994,-0.12317638,0.039158598,0.0009021312,0.035343014,-0.09957572,-0.05428617,-0.31213138,0.16596486,-0.04147616,0.26691252,-0.08932225,-0.25766587,0.067256354,-0.10892563,-0.07426958,0.038934946,-0.1430155,-0.14265655,0.11646608,-0.16908748,-0.014197405,-0.18908504,-0.12602738,-0.123118594,-0.111181594,-0.14649059,-0.12353801,-0.24131373,0.06876573,-0.052707188,-0.14124824,-0.030944884,0.13009605,-0.09381122,-0.08925578,-0.0051720645,0.20010838,0.15538585,-0.10537925,0.2603771,0.049828254,-0.19266963,0.10619923,-0.3136757,-0.040689595,0.23761728,-0.0016951612,0.056028645,0.34737223,0.19027285,0.21768901,0.07610074,0.24108237,0.19574563,0.29122704,0.25715563,0.037958395,0.1435086,-0.118239924,0.109108895,0.043615833,-0.035016485,0.12979352,-0.068055525,0.121887974,-0.43068784,-0.18407169,0.13081595,0.045675658,-0.14043106,0.05913335,0.019101758,0.15150069,-0.116833046,0.26557076,-0.054928444,0.1546901,-0.0032885233,-0.18594725,0.16413882,0.13547099,0.17362088,0.09401738,-0.124164246,-0.10247661,0.03584211,-0.086239465,-0.08756678,-0.07222945,-0.04785467,0.06955001,0.051297814,0.13535447,-0.20458405,-0.07567364,0.042253017,-0.051824395,0.10263245,-0.007851031,0.09368913,0.22003528,-0.0029216502,-0.012841551,-0.07908201,-0.17390165,-0.028714057,0.13341914,-0.21489735,0.012198692,-0.15087138,0.2112327,0.17926024,0.29853404,0.03520333,0.2224939,-0.056094285,0.038897734,-0.03982647,-0.19482234,-0.04196678,0.048874356,-0.014009254,-0.1064625,-0.17830825,0.012286017,-0.20063585,0.091233596,-0.27206933,-0.13706736,-0.15401311,-0.1284427,0.19920243,0.11046229,-0.0012848672,-0.055304997,0.10759203,0.16129541,-0.19974512,0.07329893,-0.08982794,0.097558774,-0.0043388335,0.1397007,0.08194719,0.06513238,-0.14455901,-0.06002048,0.22564122,-0.0026719351,0.05599216,0.09378333,0.15333387,0.1540986,0.0113324225,0.03414028,-0.1945425,-0.23049161,-0.2695409,-0.00027247146,0.0071391873,-0.056712635,0.0656102,0.08790497,-0.14411932,-0.041445326,0.034115255,-0.08667112,0.17944802,0.15300989,0.08161143,-0.21776868,0.078295544,-0.0605851,-0.09736558,-0.16729766,0.07853505,0.01643272,0.20684278,-0.21079135,0.16206239,0.20303208,-0.070814766,-0.34864345,0.12612823,0.14730668,0.026448105,-0.42129013,0.021381112,0.08367846,-0.12399992,-0.07359906,0.031329107,-0.07016908,0.034203835,0.10773979,0.066376984,-0.13048413,0.077847086,0.0126001695,0.1192075,-0.22460298,-0.19600405,0.07708979,-0.12917125,-0.048269536,-0.037990745,-0.17202802,-0.061496288,0.080162205,-0.33862385,-0.120871544,0.009259963,-0.16684875,0.06226941,-0.13079476,-0.0982521,0.19724344,-0.030401608,-0.11023295,0.057606827,0.12563106,-0.1427993,-0.05263189,-0.06244032,0.047975235,-0.11900346,-0.33310843,-0.041770753,0.003426271,-0.023614066,-0.017310046,0.18979181,0.114161596,0.16735621,-0.0935121,0.3451872,-0.2832413,-0.10950909,-0.027411051,-0.0064967093,-0.11474437,-0.023675501,0.038308408,0.113933735,-0.035661507,0.24849477,0.13908991,0.027029043,-0.044768043,-0.008208834,-0.008011723,-0.10408215,0.10834192,0.16374472,-0.13236383,-0.034338333,0.119391054,0.40465635,0.30751985,0.07810685,0.017248886,0.19897403,-0.19257976,-0.0421054,0.0472137,0.09276637,-0.05950121,-0.12271957,-0.10395053,-0.08020587,-0.023254285,-0.017171348,0.042242754,-0.14391711,-0.0924837,0.19236137,0.17930752,-0.12583655,0.011542089,-0.073054686,0.16526581,-0.12244533,-0.15294576,0.11939815,-0.1526301,-0.09348301,-0.02579733,0.05068519,-0.20582029,-0.13369922,0.019924639,0.10409775,0.109936155,0.1666729,0.04699727,-0.124754176,0.012206696,-0.030552462,-0.30705953,0.1147231,-0.04791402,-0.21060592,-0.088305116,0.015195336,-0.2761465,0.13596295,-0.03336037,0.110223174,0.055321053,0.13309512,0.029257996,0.27580363,-0.2207576,-0.048117947,0.29137653,-0.11582576,-0.15725492,0.25290617,-0.073096894,-0.06286063,0.123144,0.21968497,0.0995105,0.017713342,-0.02538811,-0.09128189,-0.085170954,-0.02473656,0.09537468,-0.14748606,-0.37802196,-0.12272712,-0.11915285,-0.018205713,-0.12409561,-0.04703952,-0.017448187,0.084652014,-0.19484651,-0.11708474,0.00619608,-0.03738631,0.12091824,0.21139245,-0.17073396,0.21461189,0.1609843,0.05058395,-0.025880028,0.15929912,0.19922902,0.32831463,0.043141603,0.18788306,0.01582818,0.10039221,0.16585894,0.008600772,0.16852218,-0.21996385,0.07381196,0.06399132,0.044161666,0.31581336,-0.29810563,0.016888512,0.11885331,0.05382189,0.0013219025,0.12976792,-0.0012722481,0.15289311,-0.17964783,0.041700423,0.07211934,-0.16421832,-0.14323255,0.0758679,-0.0057237367,-0.07250935,0.17989346,0.060826965,-0.1842542,-0.085233785,-0.117284395,-0.010366162,0.25650334,-0.24611737,0.2638405,-0.15166906,0.12796065,-0.0044976124,0.054096207,0.23061904,0.1255843,-0.25292677,0.19257689,0.42748687,0.037627243,-0.07525697,0.033155907,0.005821702,0.27991262,-0.2113148,0.03415194,-0.20390487,-0.02436292,-0.004659552,0.012617326,-0.019037297,-0.16399482,-0.13696449,-0.1501128,-0.04110662,0.15861866,0.09250206,0.043202247,0.054751292,0.21328512,-0.024318524,-0.1173635,0.11605297,0.20269296,0.09416323,-0.101822354,0.13464046,-0.110752046,0.014821099,0.24069989,0.18733007,0.1793594,0.26980996,-0.08323926,0.10176005,0.03818521,-0.055193607,-0.04765241,0.08218864,-0.032009643,-0.25449595,0.06577103,0.060446367,0.24137801,-0.07117696,0.057133943,0.16000272,0.13729025,-0.018570803,0.14990793,-0.00741907,0.079188295,-0.07640357,0.21888241,-0.029810064,0.29780772,0.07481837,-0.20170668
guadalajara,-0.030266665,0.3941678,-0.40947363,-0.29073462,-0.1229243,-0.11428267,-0.20150422,-0.095818736,-0.20274465,-0.03592381,-0.061512142,-0.06780362,0.16466945,-0.30389535,-0.06153346,0.20725219,0.16627425,0.08356033,0.03878626,0.009145344,0.045500405,0.016687064,0.16398463,0.007305762,0.046089552,-0.1232827,0.070644364,-0.09039989,0.12959391,-0.053262614,0.06731439,0.027135167,0.07819689,-0.17451403,-0.059519034,0.1757456,-0.111189365,0.09137149,0.24752232,-0.14677744,-0.22505623,0.03134611,0.15721382,-0.012781257,-0.22074544,-0.18267623,-0.16405578,0.06832078,-0.04084378,-0.066084534,0.26609814,0.07939948,-0.09953304,0.08730121,-0.09240008,-0.16291346,0.106757075,0.0704215,-0.08534863,-0.11231958,-0.19503476,-0.13817641,0.15662724,0.0016229898,0.12891176,-0.25827324,-0.17372152,0.0110392505,-0.042328782,-0.23821265,0.35336912,-0.048510477,-0.0050241863,0.06993064,-0.02408449,-0.21324939,-0.21523002,-0.014626289,-0.0993195,0.3742301,-0.16914217,-0.022800857,-0.11807275,-0.14694937,-0.18614663,-0.1048236,-0.08392499,-0.08599445,0.060891315,-0.019696252,-0.102554396,0.16459635,0.19878876,0.07496042,0.25925708,0.13684507,-0.26444504,-0.016331445,-0.089663684,-0.28229344,-0.1643416,-0.16752486,-0.07542212,0.2380203,-0.004628321,0.09113219,0.029975213,0.27901405,0.24960726,0.1583949,0.048344087,-0.22932954,0.17992248,-0.046161205,-0.09867073,0.26608235,-0.10134044,0.0018036403,-0.10744351,0.0840794,-0.0066418573,0.23441544,0.031790473,-0.02298256,-0.12109655,-0.10932679,0.13532181,0.065307625,0.08114308,0.19207281,-0.022398585,-0.20439787,-0.094980106,0.03078759,0.057038855,0.07885349,0.13308653,0.43826374,-0.25699812,-0.22858338,-0.091366306,0.025085324,0.1726233,-0.147603,-0.10871619,-0.06485899,0.1678869,0.19910456,-0.061746113,0.032397844,-0.016837602,0.040068243,0.015755566,0.122911125,0.077368625,0.24167512,-0.11179227,-0.12307888,-0.31095618,-0.10909511,-0.07330686,0.23533615,-0.25718996,-0.061589934,-0.10188917,0.15837266,0.26768804,0.11458415,0.037796322,0.04736878,-0.0052686147,-0.19190675,-0.028351063,-0.17402217,-0.04173073,0.1177761,-0.016091065,0.04978275,-0.03783478,-0.2347267,-0.09381319,0.34226024,-0.19548179,-0.040771827,-0.090143785,0.10532812,0.16421235,0.12395068,-0.14804317,-0.08675077,0.07050073,0.19965637,-0.30547586,0.15947686,0.27607358,0.24923334,0.085347794,0.07812125,0.056551147,0.0293971,0.014409219,0.06080727,0.19951816,0.08930176,0.26701698,0.14545548,0.002188583,0.27914098,0.009572208,-0.2686022,-0.11674329,-0.16336025,-0.3092224,0.096691184,-0.005834818,0.12701339,0.052404713,0.1839204,0.031025795,-0.13719364,-0.22500546,-0.021699736,-0.13474497,0.041728094,0.21753705,-0.17236885,0.06507725,-0.24774991,0.017844027,0.12147541,0.02345353,0.13551891,0.22131787,-0.21636686,0.2570385,0.06749882,-0.13503961,-0.31529802,0.14929794,-0.021740578,-0.23046815,-0.04859557,0.0058297724,0.11303117,-0.0976358,-0.0076073837,-0.1319813,-0.0047674067,-0.18019095,0.19314878,-0.038037717,-0.032442335,-0.029146465,0.039267726,0.20323136,-0.08949354,-0.3701808,0.15071875,-0.065158494,-0.24967544,-0.025890123,-0.023729742,-0.262527,0.09439598,-0.20982435,-0.23466106,-0.029403983,-0.14962946,-0.17003424,-0.4461217,-0.009470919,0.12079483,-0.10048804,0.075047836,-0.14732954,0.13184519,0.21207952,-0.07147874,-0.040170014,0.024847785,-0.06149883,-0.33063877,-0.09049462,0.16831136,0.036531344,-0.16130051,0.2219223,0.21483074,0.15222906,-0.13102281,0.2142421,-0.21795917,0.14608185,-0.14148125,-0.13078213,-0.178411,0.07201679,0.025716178,-0.06269068,-0.025449108,-0.03537961,0.13390103,0.0434715,0.029442437,-0.124399886,-0.004810041,-0.12504247,0.10039618,0.024416307,-0.12514791,0.119334094,-0.06253627,0.18862392,0.38160697,0.07215075,0.045495838,0.2220698,-0.08605811,0.11516427,-0.04864498,-0.07301853,-0.07258647,-0.0019174549,-0.14658688,-0.02175471,0.015503298,-0.032202713,-0.019155852,0.1306222,-0.17840317,0.014922023,0.095575474,0.06849918,0.044798605,-0.25791177,-0.016103903,0.011179369,-0.17530009,0.12245017,0.20535535,0.0071972916,0.11161249,0.11815757,-0.19667941,-0.41964015,-0.03629566,0.10691627,-0.110890925,0.36241955,0.05217369,-0.06685133,0.01891651,-0.10461443,-0.28308535,0.26372603,-0.19824415,-0.036473792,-0.11634198,-0.09101479,-0.45637804,-0.15737772,-0.16094057,-0.040864486,-0.068958715,-0.015320936,-0.0027093906,0.10523042,-0.029403195,0.103184186,0.25252602,-0.053218488,-0.24919513,-0.18737945,-0.07000656,-0.33337727,-0.02663226,-0.05450817,0.17669182,-0.15408741,0.009620082,-0.0042285947,0.04074739,-0.026758756,0.21003762,-0.0704789,-0.19616489,-0.062628664,-0.033179756,-0.16403785,-0.06038949,0.23402229,0.004321467,0.015438244,-0.2782119,0.059232257,0.07354385,0.15063402,0.12281425,0.1133979,-0.04346484,-0.025633678,-0.29730573,0.17711766,-0.009849418,0.3660452,0.36298132,0.23998263,-0.17745794,0.18352576,-0.010434857,0.16884924,0.138717,0.021122381,0.021155683,-0.03035262,-0.13353682,-0.13340694,0.008300277,0.13648622,0.08596365,0.054438993,-0.03553638,0.09627053,-0.031057904,0.1988832,-0.1444756,0.24131042,-0.06514146,0.3047071,-0.0417443,-0.07368533,-0.20958836,0.06123983,-0.18356742,-0.1669448,-0.0849296,-0.020467514,-0.109217525,-0.10269693,0.08964489,-0.1741234,0.019725373,-0.17233267,0.13938992,-0.04028427,-0.005804384,0.14177708,0.08217331,0.14635488,-0.14256492,-0.14676285,0.16366367,0.24899167,0.09511334,-0.05598995,-0.022743236,0.13446313,0.056924604,0.069305494,-0.012547839,0.047368087,0.16985823,0.013254862,0.11282522,-0.012856534,0.10706709,0.03444425,-0.33509064,-0.035478055,0.046074826,-0.023711875,-0.10046707,-0.013291812,0.11492698,0.1337756,0.12048958,0.14130373,-0.08470283,0.004104577,0.040968046,0.11656344,0.11181137,0.14163361,-0.030709397,0.18596697,-0.14200163,0.075725846,-0.0517882,0.04055992,0.14559841,-0.028231826,-0.11536016,0.041688096,0.11794019,-0.063833825,-0.04099907,0.0015647225,0.32833663,-0.00557968,0.106849365,0.0871937,0.22129695,0.0010924675,0.16272317,0.015007058,-0.029405572,0.14224154,-0.022303402,-0.1833812,0.25433147,-0.021966018,-0.14497685
merida,-0.04782248,0.19187272,-0.5137815,-0.30143696,0.123565435,0.021419216,-0.25099325,-0.12166393,-0.1680306,-0.2005851,-0.101358995,0.10873994,0.056144513,-0.57486856,-0.47633165,0.08539531,0.31445688,-0.099464536,0.014118463,-0.35441455,0.18953829,-0.23859741,-0.04000085,-0.17767188,0.03578418,0.1065862,0.29605457,0.13567308,0.013270501,-0.07406498,-0.09733854,0.30919018,0.1294357,0.15542686,0.034510467,0.2820018,-0.20023623,0.12479957,-0.05798187,-0.26829353,-0.20501623,0.05698258,0.18562517,-0.18482384,-0.12812907,-0.27790627,-0.16624391,0.12552992,-0.07575709,-0.19388239,0.13281253,-0.0024006367,-0.12446232,0.24661538,-0.032712813,-0.36969036,0.04827282,-0.1475608,-0.21220657,-0.05303716,-0.13992007,-0.18563181,-0.020694643,-0.11366561,-0.1025044,-0.2527022,-0.036295515,0.15528099,-0.1822452,0.0113208275,0.016933963,-0.034412347,-0.06180135,0.09029208,-0.17425983,-0.11238198,-0.19271168,-0.07810238,-0.14603035,0.22605014,-0.100271955,-0.21250296,-0.23202893,-0.07009454,-0.32461703,-0.032197427,0.05010003,-0.038089424,0.15107737,0.09577443,-0.048440903,0.10014123,0.12458141,0.09055324,0.24805705,0.029915625,-0.30175027,-0.18906076,-0.0042709466,-0.033193737,0.116152085,-0.02658688,0.058683015,0.3292963,-0.03181638,0.060885362,-0.2515304,0.0091845915,0.28335896,0.17417084,0.0011487743,0.09054651,0.22785832,-0.07943063,0.12081262,-0.08878029,-0.21242756,-0.26012293,0.032140274,0.22613819,-0.06944651,0.04248695,0.22862807,0.01709212,0.08974693,0.0667001,0.29449102,0.119102895,0.12776527,0.08378793,-0.094516695,-0.31405866,0.0694537,-0.018893067,0.030041166,-0.013454098,0.3222025,0.32991055,-0.121024035,-0.16500176,0.040548634,0.112854704,0.25134712,-0.1596936,-0.22540206,-0.027501564,0.10194217,0.49920222,0.08577723,-0.04957497,-0.09477175,-0.20861755,0.110310555,0.07766703,0.14829996,0.1828844,0.011923505,-0.0014070706,-0.3779799,-0.14504886,0.08859132,0.34624052,-0.39115453,0.055870965,0.074605614,0.16461815,0.33821157,0.3121987,0.017085511,0.30499956,-0.012617905,0.13040751,0.19087355,-0.19012924,0.12208022,0.18283704,0.012462905,-0.03298216,-0.3186584,-0.49865568,-0.047818504,0.28792465,-0.123979524,0.008793011,0.39998662,-0.08025964,0.14982888,-0.028926918,0.09219898,0.010534927,0.06847329,0.19880038,-0.08465751,0.15367842,0.0886292,-0.019427858,0.040562674,0.072462745,0.2100836,0.13265952,-0.11921702,0.03933913,0.2413879,0.072840236,0.105309375,0.052124523,0.043056756,-0.041506752,0.06845337,-0.19245027,-0.01475746,-0.25919503,-0.25782052,-0.00057407655,0.043089528,0.0013899338,-0.022900878,0.08948912,0.03536115,-0.10544716,0.051635034,0.18619978,-0.35892916,0.08277083,0.24791332,-0.00033323094,0.07112039,0.037159126,0.062295206,-0.15270019,0.11362535,-0.13625629,0.4062533,-0.06569402,-0.040454477,0.19845289,-0.1523807,-0.06339623,0.11531171,0.1401963,-0.124227226,-0.049487613,-0.060577236,0.18386526,-0.039334245,0.1356455,0.04592852,0.0032198243,-0.045287576,0.20360821,0.095622405,0.26103517,0.03788662,0.22804043,0.13392046,-0.27234232,-0.18793356,0.103623904,0.004989706,-0.028172221,-0.14678402,-0.09163483,-0.26183128,-0.15566175,-0.028368091,-0.091069244,0.043381274,-0.10850321,0.051585685,-0.31155795,-0.03803599,-0.0052399617,0.11522426,0.2914098,0.07462904,0.025064321,-0.0084530525,0.11781937,-0.021788217,0.19348066,0.29718256,-0.2336627,-0.05359366,0.15501001,-0.039186113,-0.2363134,0.015248496,-0.05730591,0.026794355,-0.21445857,0.27652684,0.021598917,0.12550512,0.09536066,-0.17124727,-0.09328801,-0.07431272,0.2464425,-0.025176786,-0.19657546,0.18165937,0.051459588,0.07831687,0.02371011,0.150971,-0.16700664,-0.09813984,0.11234752,0.017758006,-0.19018894,0.19434279,0.08764556,0.234415,0.1821244,-0.07323156,0.07903648,0.16359365,-0.23858586,0.07668992,0.032638777,0.018422432,-0.02243647,0.14450641,0.17298028,0.00058292784,0.2282729,-0.19442937,0.40781966,0.14947532,-0.17836407,-0.16313948,-0.062203698,0.045691874,0.02387591,-0.29145706,0.08315058,0.022043847,-0.09482119,0.2016375,0.16165769,-0.08501128,-0.1390258,0.23820902,-0.29819104,-0.18937087,-0.13202193,0.16101228,0.07004727,0.1951197,0.19938414,-0.12614368,0.17924798,0.07063178,-0.28140402,0.1598914,-0.24478853,-0.115401745,0.13747472,-0.23571414,-0.35602608,0.045110468,0.22359987,0.06921047,0.066150345,-0.10281536,0.0025438834,0.046591848,-0.027315564,0.02242915,0.39054108,0.0066548027,-0.1461956,-0.28083742,-0.17977203,-0.09585096,0.1443473,-0.23267578,0.09763222,0.22845094,0.05814224,-0.040017013,-0.15676811,0.096374735,0.11334001,-0.036151208,-0.31534287,-0.21893737,0.07597957,-0.28140682,-0.23911497,0.11093352,-0.2721513,0.16936976,-0.2100192,-0.020241998,0.20198071,0.109723575,0.1273992,-0.15359846,-0.19687302,0.017286018,-0.09777282,0.07673396,0.09148276,0.06558574,0.40290746,0.3581961,-0.35126546,-0.07776845,0.08340339,0.018515568,-0.002876251,-0.12848923,-0.0061850846,0.003840835,-0.3505139,0.06888941,-0.015527328,0.04512696,-0.20485543,-0.057802163,-0.010194743,0.030113224,-0.06269129,0.17580736,0.06102571,0.095508985,0.08507281,0.16212505,-0.044903457,-0.16449435,-0.086796775,0.08344781,0.008125763,-0.19358885,0.07936756,0.07258033,-0.21431798,-0.04454431,0.1021144,-0.049230017,-0.03091176,-0.15103178,-0.12964645,-0.09173859,0.022942727,0.09965433,-0.23959252,0.17569226,-0.08704431,-0.08964949,0.1259628,0.34688884,-0.21339403,-0.16942854,0.25944936,0.0688374,0.19165334,0.10607717,-0.071786724,-0.2236367,0.092182815,0.023510527,0.13491115,-0.14518982,-0.08255872,0.014956528,-0.2281408,-0.006334441,-0.15453802,-0.031477608,-0.056975234,-0.02985338,0.15484254,-0.10043,-0.021629084,-0.13116702,0.13783538,0.13258648,-0.16590774,0.22506787,-0.03807322,0.108301595,0.27987134,0.36277032,-0.28162813,0.067189805,0.23310591,-0.15748888,0.13249552,-0.2702034,-0.23736079,0.010942429,-0.20753646,-0.09328372,0.008879999,-0.017216502,0.3459586,-0.085637674,0.13223425,-0.001971744,0.2544549,0.004417386,-0.029456992,-0.066600084,-0.22150052,-0.29573756,-0.09395932,0.1594198,0.072576486,-0.07163897,-0.25937042
monterrey,-0.08760689,0.16631112,-0.58310366,-0.18448621,-0.17415822,0.27535883,0.024005163,-0.34972543,0.05201813,-0.15029398,-0.23938121,-0.014601344,-0.19815268,-0.16542968,-0.026912784,-0.058856566,-0.06921359,0.16316399,0.033120625,-0.21537822,0.12105334,0.11839066,0.1977756,0.03131237,0.07445842,-0.25242358,0.096070625,-0.023778861,0.24539031,0.0864858,-0.0067338115,0.041371997,0.19780204,-0.15917829,-0.061587352,0.3109461,-0.05217441,0.08989305,0.018993758,-0.07488049,-0.28339598,0.10158177,-0.16202295,-0.23986289,-0.027251609,-0.32695824,-0.27400255,0.09295905,-0.072325006,-0.119286045,0.033071447,0.16668648,0.13524427,0.06929626,0.13210988,0.05530125,-0.046377257,0.18014893,-0.13588712,-0.058705047,0.1831371,-0.22888115,0.12731592,-0.16876972,0.095900595,-0.12493764,-0.11825508,-0.0821261,-0.1305004,-0.08371231,0.032750964,-0.1890252,-0.2059005,0.18315122,0.08470623,-0.019692965,-0.032406025,0.027692242,-0.19126873,0.12971675,-0.26475808,-0.23914427,0.14095013,0.15286532,-0.11045327,-0.26947165,-0.061335344,0.11562197,-0.0876331,0.011214493,-0.13674437,0.06843099,0.27539644,0.02031165,0.36507857,0.14206712,-0.2409304,0.21178347,-0.22250569,0.020270104,-0.10386474,-0.22265153,-0.13683054,0.0540936,0.02314167,-0.14375687,0.34471345,0.084635116,0.28550008,0.3031759,0.046012655,-0.15768911,0.21140976,-0.04421053,0.04167808,0.15595894,0.06743262,-0.0010860525,-0.05324598,0.105076976,-0.20184529,0.06981988,-0.00010023266,-0.073588334,0.044981375,-0.16165856,0.01888555,0.2919088,0.06592495,0.26009357,-0.11013749,0.17146073,-0.06153434,-0.27641058,0.14754215,0.26468605,0.21572003,0.018235479,-0.29180413,-0.24637152,0.054319274,0.06912695,0.09701872,-0.05063653,-0.16902626,0.11966188,0.22336273,0.06634478,-0.33086503,0.05154337,0.3550994,0.18621005,0.11955386,0.147438,0.19255207,0.09550679,-0.021360712,-0.20188043,0.0060580596,-0.19536428,-0.27994326,0.14944875,-0.088428214,-0.25426558,-0.00607068,-0.04240679,0.28561053,0.054286167,-0.046610918,0.20463598,0.056074675,-0.0734286,0.15587445,-0.07665244,-0.18144025,0.089799136,-0.0061117355,-0.24902798,0.036145583,-0.05064195,-0.30067182,0.26446944,-0.2810158,-0.09531614,-0.03196672,0.032611772,-0.097800165,0.059669875,-0.16416217,-0.01471024,0.079328224,0.2415778,-0.17553096,-0.070698515,-0.0013964819,0.4065705,0.04269542,-0.021030815,0.23985158,-0.06377308,0.09331418,0.11512992,0.06566569,0.11196559,0.11962233,0.19537929,0.06581677,0.14045283,0.074916236,-0.030501615,-0.09274714,-0.1334083,-0.19315651,-0.19861294,0.100942895,0.027691869,-0.03161433,0.054639027,0.1206392,-0.030162623,0.093362726,0.4079307,0.15350795,0.14078656,-0.067255,-0.2329276,0.017814904,-0.16267449,-0.284947,-0.09289203,0.1668275,0.041988283,0.20139271,-0.2443988,-0.08640711,-0.06835303,-0.18778372,-0.35205042,0.12377289,0.16936795,0.12816109,0.0012318734,-0.022055916,0.2090133,-0.0055168476,-0.056663483,0.09994489,-0.17151712,0.093372494,0.20493014,0.11768772,0.25253204,-0.12791976,-0.025704391,0.27737534,-0.17780139,-0.1009676,0.1104447,-0.1252828,-0.08294614,0.042520512,-0.28793815,-0.12182045,-0.048523776,0.056176506,0.00769642,-0.08699113,0.012910575,0.116000265,-0.23488814,-0.044921525,-0.12896778,0.16727708,0.0051566027,0.32800317,0.07575316,-0.13980727,-0.063674316,0.0591311,-0.036996715,-0.3063051,-0.27203068,-0.2322842,-0.04921856,0.28104788,-0.2644166,0.26336458,0.1678752,0.064814135,0.07815234,0.31906316,-0.14199498,0.102494985,-0.06169088,-0.09002763,-0.2053784,0.018025484,0.054193906,0.1893816,-0.29549307,0.14287531,0.03690556,-0.20328127,0.028671958,0.12289236,0.0055935737,-0.25103375,0.16322382,-0.0043119397,-0.09438979,-0.028186541,0.05831806,0.47241205,0.269723,-0.08207199,0.081876524,-0.0799271,0.10280283,0.07692601,0.10194364,-0.113609634,0.10691582,0.09712987,-0.22303668,0.050530896,-0.033798356,-0.10142205,-0.010763701,0.08191276,0.103036754,0.18150105,0.3390905,0.07228095,-0.020542905,-0.266546,-0.004662776,0.040180843,-0.017436314,-0.037291344,-0.12752157,0.09459667,-0.24183282,0.030806523,0.004214952,-0.23965883,-0.07973165,0.037459217,0.19247581,0.13049221,0.22584341,-0.02188085,-0.04545208,-0.31755227,-0.2444967,0.05645708,0.13656178,0.13398455,0.13213536,0.06205356,-0.39115113,-0.12126325,-0.24530989,0.25456014,0.12474592,0.16000563,0.18235229,-0.017219976,-0.5335478,0.29070705,0.4018439,0.1407909,0.15991133,0.092552245,-0.040799804,-0.16446836,-0.08381979,-0.0022171899,0.05818899,-0.056506056,0.23771851,-0.22821194,0.09107905,0.057574883,0.061285935,-0.05770187,-0.1499267,-0.21150179,0.06588077,0.060633585,0.087642424,0.12605445,-0.06076518,0.028267525,0.00010993704,0.19808161,0.00027624518,-0.10327174,0.15493841,0.30679297,-0.17970102,0.32027745,0.02803808,0.03971327,-0.01840211,0.25586727,0.0051466133,0.18908295,-0.122941606,0.14081001,0.09249118,-0.1756818,0.018951278,-0.09359375,-0.120638005,-0.019812835,-0.10374969,0.094431944,0.01866785,0.2707595,0.08564982,-0.07800202,0.08834768,0.023018405,-0.011894451,0.115855135,-0.11640306,0.18850036,-0.061426234,0.11320752,0.084313385,-0.27572736,-0.1410567,-0.06269597,-0.20620464,-0.25475514,0.15924916,-0.07864664,-0.18859892,-0.09470057,-0.041776277,-0.04953044,0.10695563,-0.11999251,0.25501546,-0.17203748,0.074064985,-0.26326466,-0.095692836,0.3136313,-0.08361146,-0.21164875,0.11333313,0.07564446,0.05766634,-0.061778918,0.19733438,0.08449548,0.16686201,-0.2711676,-0.02238717,-0.03006067,0.16323401,-0.0693268,-0.14040665,-0.06620844,0.058257874,-0.031037042,-0.09689668,0.035314545,0.025466613,0.30652693,-0.13721204,-0.14173451,0.037595984,-0.06745677,-0.056386214,0.20840766,0.0056508314,0.19370745,0.14908472,0.10838579,0.29233378,-0.16239677,0.037911005,0.17964144,-0.09747093,0.24367572,-0.11779155,0.07638103,0.08031308,-0.05008551,0.008389218,-0.0009544082,-0.21508521,-0.21406695,0.21808647,0.07839774,0.3024079,-0.08734208,0.09961528,-0.043534845,0.059079975,0.064669654,0.2441921,-0.10983175,0.11534211,-0.15020993,-0.13031779,0.05803158,0.37776604,0.17064406,-0.22289589
oaxaca,-0.07670486,0.25131983,-0.2667736,-0.24079743,0.020933488,0.10187628,-0.09040253,0.0339062,-0.21512468,-0.1240907,-0.25841224,-0.031148324,-0.1812778,-0.39516577,-0.24185944,0.29415333,0.08500033,0.027278572,0.024678111,0.031872816,0.07692142,0.082523,-0.043059163,0.093453705,-0.11746877,-0.32660884,0.19674948,0.0036391816,0.030447556,-0.07768687,-0.0012175804,0.009960119,0.10997289,-0.14862482,-0.04781374,0.16169125,-0.047940895,-0.013420067,0.19148454,-0.23333432,-0.21349356,0.024258114,0.14532988,-0.059908703,-0.35973692,-0.17806762,-0.2626266,0.10538973,-0.11323874,-0.14470573,0.039339703,0.19493178,-0.14449301,0.09270569,-0.037159555,-0.2769908,0.035845555,-0.09048724,-0.08195815,-0.21103969,-0.05516632,-0.23417363,-0.0023295274,0.024704888,-0.08922777,-0.26897267,-0.059560727,-0.06485554,-0.100410886,-0.28391567,0.062782034,0.13215247,0.15628415,0.16523317,-0.10696395,-0.17833202,-0.33461648,0.12383495,-0.022847993,0.15867701,-0.10690148,-0.044841252,-0.26141793,-0.0883065,-0.22134258,-0.055533722,0.07966753,-0.022957953,0.14491136,-0.09915896,-0.20820282,-0.048625376,0.08853149,0.050808106,0.14259596,-0.023973707,-0.34799954,-0.107290104,-0.23439217,-0.09072576,-0.02513437,-0.18531437,-0.07467774,0.1658741,-0.041064315,0.22896552,-0.040877175,0.15549397,0.24657303,0.14080971,0.15147287,-0.122239046,0.11156599,-0.011000721,-0.042414308,0.21682584,-0.07313669,-0.0518053,0.20138387,0.07028695,-0.15929195,0.19087398,0.21603107,0.06279696,-0.035101682,-0.23797414,-0.015042771,-0.19009899,0.19154343,0.102812536,-0.15863046,-0.040675547,-0.10683556,-0.13879001,0.066899896,0.17474025,0.13674438,0.45317575,-0.20650072,0.07024995,-0.3143729,0.081051245,0.09218721,0.08761368,-0.23268339,-0.090453744,0.13397753,0.16073744,0.089259416,-0.15039821,-0.16304024,-0.13181458,-0.10760432,-0.101129636,0.11901902,0.1312178,0.028640183,-0.09260513,-0.11770215,-0.09018594,-0.021251302,0.038427725,-0.05295964,-0.039889753,-0.11601321,0.2357468,0.2702646,0.23294228,-0.1818651,0.14783715,0.08008413,-0.29006243,0.122562714,-0.15429628,0.09351813,0.25833178,0.21511516,0.19685058,-0.21324147,-0.10446312,-0.041377008,0.21552068,-0.11626698,0.063007854,-0.20106083,0.0843496,-0.045154154,-0.015774673,-0.10105987,0.042357095,0.020765182,0.20490956,-0.11561029,0.16993807,0.40271324,-0.040353406,0.16984676,-0.012569902,0.16005361,-0.0968829,-0.1524329,-0.1996454,0.15825073,0.09184816,0.05457048,0.08831639,-0.111617126,0.23008189,-0.076569065,-0.09052539,0.0413957,-0.13556702,-0.109299496,0.09439323,0.022562351,0.040311523,0.1048277,0.33405632,-0.00035773404,0.032871008,-0.12480232,0.031788588,-0.28434953,0.059618436,0.43095785,-0.208662,-0.004820287,0.09907479,-0.095474444,-0.15776685,-0.0015267469,0.13262123,0.18175104,-0.31050417,0.13403276,0.088708214,-0.17602257,-0.23405118,0.011035603,0.15769972,-0.33105135,-0.0079385955,-0.1490689,-0.08293214,-0.24938518,0.063543804,-0.29595608,0.13203986,-0.26676533,0.046089258,0.046848997,-0.105909914,-0.20424858,0.044619896,0.2956712,0.026179958,-0.3112638,0.14741355,-0.20210287,-0.027141172,-0.17540666,-0.10240448,-0.20981869,0.047885828,0.09533046,-0.095054045,0.05561673,-0.062337846,0.037302185,-0.19383828,-0.23549965,0.101375215,0.040155664,0.09725776,0.14153829,0.080430724,-0.17563717,-0.031211328,0.20284386,0.2475054,0.041366626,-0.32159245,-0.056723744,0.23078743,0.07429793,-0.22413525,0.12953687,0.07049301,-0.048240002,0.096536905,0.12749395,-0.35472867,0.046392597,0.040402286,-0.12673229,0.14434014,0.012218442,-0.06048414,0.039526172,0.09378323,0.25435847,0.37169445,-0.056044295,-0.03476327,-0.28018066,0.075423,-0.23789835,0.33028296,0.10759839,-0.18801151,0.16436917,0.104231775,0.42111018,0.25015274,-0.0023407387,0.03297703,0.3271898,-0.12263714,0.07578935,-0.20512912,0.0036045667,-0.1627321,-0.0756593,0.0049382187,0.20131342,0.09819655,0.003642762,0.032969225,0.1791159,-0.32092077,-0.049044132,0.088410705,-0.15184638,-0.13488832,-0.12808506,-0.2285613,0.061396904,-0.18309253,0.05633111,0.09782615,0.020258918,0.14992964,0.13262363,-0.19342074,-0.26524976,-0.18723454,0.06496513,0.06009225,0.30602157,-0.05124464,-0.16877587,0.013967,0.022435747,-0.36223695,0.22025788,-0.24969405,-0.10643421,-0.013925038,0.016217358,-0.005260896,0.075803176,0.2727614,-0.13948533,-0.11591939,-0.09911701,0.15265743,0.17874992,0.107871406,0.040447146,0.06411927,-0.109711856,-0.13821356,-0.2684239,-0.053058572,-0.41190836,0.21762884,-0.25597054,0.09342817,0.012689877,0.09079236,-0.028519448,-0.10753133,-0.11108951,0.06354367,0.020496137,-0.31425005,-0.23479994,-0.15552515,-0.30356315,-0.1225165,-0.008090141,-0.11611481,0.050247286,-0.30849192,-0.151322,-0.050737537,0.17090297,-0.0868503,-0.11902796,-0.11003432,-0.045466047,-0.22495581,-0.028759176,0.26436728,0.283992,0.2703515,0.29861963,-0.15409634,-0.016130768,-0.16993237,0.22743934,0.15218444,0.05864784,-0.047362424,-0.33170897,-0.1376437,-0.0077336915,-0.13399932,-0.038227156,-0.13021263,0.03970491,-0.12761067,0.22942306,-0.17350921,0.21324362,-0.12485489,0.18817598,-0.102117874,0.06911205,-0.029777791,0.02716283,-0.22458655,0.06247823,-0.20908895,-0.0474888,-0.12129602,0.11816884,-0.141581,-0.01831651,-0.19096947,0.0640394,0.031778123,-0.27239364,-0.11038168,-0.28436074,0.08675847,0.07373848,0.1134613,0.20400515,-0.10755332,-0.07289113,0.11926928,0.20428571,-0.19994958,0.21427007,-0.031213436,-0.16503537,0.13850057,0.016032582,0.045843743,-0.151886,-0.118028186,0.16047546,-0.08385416,-0.036990397,-0.0974485,-0.017422615,-0.3109991,0.18665537,0.045880727,0.12008916,-0.27853242,0.00017299457,0.10034196,-0.18662314,0.28484616,-0.18205683,0.051280685,0.05524365,-0.067843124,0.18503985,0.14820921,0.11291018,-0.11060391,0.40472925,-0.18990263,0.06850656,0.041234057,-0.1173554,0.18469727,-0.12876673,-0.11492135,0.058649715,0.018791277,-0.048655316,-0.10167757,-0.065969616,0.3128698,0.11524666,-0.08132986,-0.06898061,0.06904218,0.046293158,0.007213339,0.06784644,0.026855126,0.003444381,0.08502218,0.015559383,0.24438913,0.007043019,-0.24794063
